{"format": "handglow_mlp_v1", "created": "2026-04-20T01:59:22.500866", "accuracy": 0.9846, "labels": ["BAD", "CALL", "GOOD", "HELLO", "LOVE", "MILK"], "n_features": 11, "feature_names": ["L.Thumb", "L.Index", "L.Middle", "L.Ring", "L.Pinky", "aX2", "aY2", "aZ2", "gX2", "gY2", "gZ2"], "normalization": {"mean": [0.16613439911752612, 0.5445066690116365, 0.9411961406719889, 0.7110712234641383, 0.6580079390134461, 1.4342758545008731, 0.0445350655543237, 0.7156626359395818, 0.5208320756940338, -1.0398314158281243, 0.5359150017876088], "std": [0.3719630918440208, 0.26454123815142044, 0.16001567896024999, 0.23538783679932027, 0.35356301982507443, 4.15567891572011, 10.177854957322197, 16.046474058414795, 21.97866939822126, 9.377101413342672, 16.111199130171237]}, "layers": [{"weights": [[0.11652648448944092, -0.05276098474860191, 0.19884400069713593, -0.20624768733978271, 0.05937530845403671, -0.014074722304940224, 0.04018133506178856, -0.18069550395011902, -0.33463430404663086, 0.14103420078754425, -0.10609151422977448, -0.01120129693299532, 0.06264884769916534, 0.19851815700531006, 0.19899961352348328, 0.2186305820941925, 0.174498051404953, -0.2361023873090744, -0.0987163558602333, -0.35399875044822693, 0.22358061373233795, -0.08320003002882004, 0.2700563669204712, -0.09771796315908432, 0.20419643819332123, -0.3075094223022461, -0.15757207572460175, 0.26591792702674866, -0.21125461161136627, 0.18303298950195312, 0.20336179435253143, 0.29690107703208923, -0.20767851173877716, 0.21031451225280762, 0.14712688326835632, -0.18775048851966858, -0.052286237478256226, 0.2064356952905655, -0.21366944909095764, 0.05820346623659134, -0.2798714339733124, 0.10251397639513016, -0.10016661137342453, -0.08032383024692535, 0.104805126786232, -0.08800183981657028, 0.2705363929271698, 0.24215726554393768, 0.07223658263683319, -0.08416569232940674, 0.24270875751972198, 0.02929018624126911, 0.17551226913928986, 0.058433305472135544, -0.0014215834671631455, -0.1745719313621521, 0.08556056022644043, 0.04651164263486862, 0.05511979013681412, -0.20278793573379517, -0.191261887550354, 0.2501293122768402, -0.23939377069473267, 0.2653038799762726, 0.11418942362070084, 0.25681573152542114, -0.2852870523929596, -0.15849417448043823, 0.13076646625995636, -0.10841728001832962, -0.14180779457092285, 0.08716676384210587, -0.2296866774559021, -0.333420991897583, 0.2486453503370285, 0.0006612346041947603, -0.08779685944318771, 0.015997441485524178, -0.23747718334197998, 0.27142494916915894, 0.12101922184228897, 0.07552657276391983, 0.160856693983078, -0.12640409171581268, 0.12998710572719574, -0.08423354476690292, 0.18057890236377716, 0.2646346092224121, -0.23612377047538757, -0.22709664702415466, 0.257302850484848, -0.3022724390029907, 0.3162117898464203, 0.2560683488845825, 0.017815036699175835, -0.07448111474514008, 0.19034646451473236, 0.010257371701300144, -0.12829257547855377, -0.2908608615398407, -0.27209731936454773, -0.17741389572620392, 0.12605105340480804, -0.16364926099777222, 0.016092320904135704, 0.128342404961586, -0.23376566171646118, -0.09802024066448212, -0.13338801264762878, 0.05984809249639511, 0.2585294842720032, -0.09989090263843536, -0.19131870567798615, 0.3381609618663788, 0.03528085723519325, -0.228523388504982, -0.31578192114830017, -0.11961406469345093, -0.07628506422042847, -0.0686347484588623, 0.05523490533232689, -0.11296612024307251, -0.18558907508850098, -0.15366370975971222, -0.04988431558012962, 0.015544173307716846, 0.05419251695275307, 0.23977266252040863], [0.07009480148553848, 0.041545215994119644, 0.21564637124538422, 0.22230687737464905, -0.0022297503892332315, -0.02793826535344124, -0.022180458530783653, 0.1517394334077835, 0.20677249133586884, 0.25779202580451965, 0.005002063699066639, 0.21099744737148285, 0.2291201949119568, 0.2645491361618042, -0.13992512226104736, 0.21138525009155273, 0.28609076142311096, -0.1385573446750641, -0.055859360843896866, -0.2534831464290619, 0.08190026879310608, -0.1877833604812622, 0.12249474227428436, 0.08681637048721313, -0.04712817445397377, 0.1561916172504425, 0.33670076727867126, 0.10502566397190094, 0.07746835798025131, -0.10587937384843826, -0.35026034712791443, 0.20706218481063843, -0.23524229228496552, 0.0384514145553112, 0.19931374490261078, -0.27602675557136536, -0.02207532338798046, 0.22159044444561005, 0.05900860205292702, -0.31176328659057617, 0.07735485583543777, -0.2685104012489319, 0.2519015371799469, 0.2540872097015381, 0.2882903814315796, -0.06749744713306427, 0.09461744129657745, 0.17281918227672577, 0.15993086993694305, -0.28400570154190063, -0.3557015657424927, -0.2933216392993927, 0.29075536131858826, 0.046891212463378906, 0.27785006165504456, -0.22683551907539368, 0.14986979961395264, -0.0048459600657224655, -0.3447251319885254, 0.23456677794456482, 0.0009614071459509432, 0.29836785793304443, -0.01991421729326248, -0.23537243902683258, 0.2529003620147705, -0.11957676708698273, -0.12560991942882538, -0.3492341637611389, -0.18065385520458221, -0.08366556465625763, 0.12933304905891418, 0.2546362280845642, 0.3085571229457855, 0.006642550230026245, -0.2985388934612274, -0.25431114435195923, -0.2977313995361328, -0.06427674740552902, 0.15943577885627747, -0.23115123808383942, 0.16737467050552368, 0.05169449374079704, -0.3629784882068634, 0.00036259295302443206, -0.0713917538523674, -0.20059935748577118, -0.193165123462677, -0.13611352443695068, 0.2586023807525635, 0.32350844144821167, -0.1481073945760727, -0.10965347290039062, 0.30746594071388245, 0.05615681782364845, -0.10878076404333115, -0.06928916275501251, 0.1815291792154312, 0.16406461596488953, -0.054774828255176544, -0.01792053133249283, -0.1982349157333374, 0.03038540668785572, -0.23919777572155, 0.06752859055995941, -0.2588863670825958, 0.20032532513141632, -0.06741029769182205, 0.17908751964569092, 0.07769954204559326, -0.06099987402558327, 0.172636941075325, 0.19267460703849792, 0.2810755670070648, -0.15990741550922394, 0.18490836024284363, 0.17196734249591827, 0.23875278234481812, 0.09252084046602249, -0.32436424493789673, 0.0008199677104130387, -0.16135717928409576, -0.33072739839553833, -0.029646359384059906, -0.21121011674404144, 0.16268810629844666, 0.03209904581308365, -0.029122211039066315, -0.1109183058142662], [-0.01089885551482439, -0.08154138177633286, 0.2109781801700592, -0.07467419654130936, 0.2189836949110031, -0.21353614330291748, -0.23673924803733826, -0.20234599709510803, 0.14298437535762787, 0.14290261268615723, 0.2846623361110687, -0.19276849925518036, -0.3649112284183502, -0.05759243294596672, 0.1210884377360344, 0.021880650892853737, -0.12971486151218414, 0.2364989072084427, 0.152695894241333, 0.2205607295036316, -0.22978773713111877, -0.07605203986167908, -0.24967288970947266, 0.12813378870487213, 0.028236540034413338, -0.08346845209598541, 0.10743781924247742, -0.06920114904642105, -0.1290738731622696, -0.22361336648464203, -0.08696562796831131, 0.1373915672302246, -0.03964727744460106, -0.1034630686044693, -0.23721085488796234, 0.2603655755519867, -0.15126952528953552, 0.14719471335411072, 0.24556729197502136, -0.005684621166437864, 0.20883193612098694, 0.0026290693785995245, 0.04043072089552879, -0.025946691632270813, -0.2658381760120392, -0.20915445685386658, -0.07852668315172195, -0.01108555868268013, 0.39256495237350464, -0.17660437524318695, 0.008872734382748604, -0.055357351899147034, -0.09427815675735474, 0.06728287786245346, -0.149131640791893, -0.18006885051727295, -0.08379528671503067, -0.020734766498208046, 0.06497543305158615, 0.055543527007102966, 0.015530145727097988, 0.14325155317783356, -0.04006022959947586, -0.05944594368338585, 0.26092901825904846, 0.060207925736904144, 0.10083361715078354, -0.0833747386932373, -0.27586686611175537, -0.1386016607284546, -0.1974976509809494, 0.05010133981704712, 0.2809533178806305, 0.03545036166906357, 0.32450130581855774, -0.20725388824939728, 0.22632989287376404, 0.3511253893375397, -0.07464657723903656, -0.004594691097736359, 0.19534063339233398, -0.3031153380870819, 0.10785076022148132, -0.2177504152059555, 0.27374210953712463, 0.25054824352264404, -0.21899424493312836, 0.29688286781311035, 0.11172855645418167, 0.2794189453125, -0.02922580949962139, -0.0008852339815348387, 0.09814908355474472, 0.04349984601140022, 0.1169353574514389, -0.22233380377292633, 0.10380501300096512, 0.350963830947876, 0.27818742394447327, 0.1289242058992386, -0.25891193747520447, 0.2819072902202606, 0.12548866868019104, 0.23042923212051392, -0.23200111091136932, 0.179672509431839, -0.23616473376750946, 0.2525373101234436, 0.16181302070617676, -0.022929953411221504, 0.10315638035535812, 0.3474866449832916, -0.07695838809013367, -0.23565545678138733, -0.0781993493437767, -0.2025044709444046, -0.29821816086769104, -0.049120303243398666, 0.24117498099803925, -0.10255134105682373, -0.15982745587825775, -0.06583772599697113, 0.01695956662297249, 0.08030238002538681, 0.16513502597808838, 0.014370135962963104, -0.23883932828903198, 0.30361706018447876], [-0.07973568141460419, -0.22555695474147797, -0.06676769256591797, -0.2250172346830368, 0.0419883094727993, -0.3008505702018738, -0.14750272035598755, -0.27493560314178467, 0.2225847691297531, 0.3368754982948303, -0.3154808580875397, 0.2033974826335907, 0.277485728263855, -0.1470116823911667, -0.05418671295046806, 0.2443452626466751, 0.19983762502670288, 0.034620217978954315, 0.11961551010608673, 0.2726718783378601, 0.1464076042175293, -0.12540511786937714, 0.03439411148428917, -0.008889378979802132, -0.32194748520851135, 0.19262395799160004, 0.038796063512563705, -0.19694489240646362, 0.24022647738456726, 0.2630326747894287, -0.224616140127182, 0.2629668414592743, -0.02920432947576046, -0.333124577999115, 0.052092500030994415, 0.24272038042545319, -0.052904896438121796, -0.09529837220907211, -0.2232830822467804, 0.08390017598867416, -0.2574442923069, -0.1785694658756256, 0.2923893928527832, -0.3188970386981964, -0.20677310228347778, -0.034735359251499176, 0.11426759511232376, -0.02769167348742485, 0.09122226387262344, -0.10084273666143417, -0.15111425518989563, 0.11606867611408234, -0.08741116523742676, -0.076390340924263, -0.165715754032135, -0.3280271887779236, -0.022918352857232094, -0.2493669092655182, -0.24587367475032806, -0.10588838160037994, -0.2785801887512207, -0.15007427334785461, -0.0394677110016346, 0.19056029617786407, 0.17711183428764343, -0.18416500091552734, -0.31642812490463257, 0.029996266588568687, -0.2031656950712204, -0.056360602378845215, -0.0940375104546547, 0.20688828825950623, -0.10584702342748642, 0.20355479419231415, 0.15247274935245514, 0.0162518173456192, 0.1242533028125763, -0.12430640310049057, -0.0587414987385273, -0.20376452803611755, -0.19925238192081451, 0.24372033774852753, 0.2873445153236389, 0.1679442673921585, 0.09088664501905441, -0.20029550790786743, 0.20555691421031952, 0.15106026828289032, -0.2378467321395874, -0.07110695540904999, -0.0017132034990936518, 0.16167445480823517, 0.13242559134960175, 0.16769848763942719, 0.21714679896831512, -0.3316865861415863, 0.19708706438541412, -0.11492205411195755, 0.11907558143138885, 0.17958277463912964, -0.18472324311733246, 0.3515506982803345, -0.07044216245412827, 0.21151664853096008, 0.3090369701385498, -0.3033308684825897, 0.11254612356424332, 0.20168925821781158, 0.1834738403558731, 0.05012694001197815, 0.14827603101730347, 0.15253481268882751, -0.03360028937458992, 0.08010448515415192, 0.15104952454566956, -0.12625232338905334, 0.23142708837985992, -0.0857522115111351, 0.16635064780712128, -0.33339059352874756, 0.2706771492958069, -0.21055231988430023, 0.2659040689468384, -0.07370772957801819, 0.05307786166667938, -0.3537276089191437, 0.25998303294181824, -0.05877402052283287], [0.08535277098417282, -0.09363500028848648, -0.11731158196926117, -0.3292701840400696, 0.21196867525577545, -0.1088590919971466, 0.20537219941616058, 0.197011336684227, -0.2638244032859802, 0.29683685302734375, 0.07307499647140503, -0.27860966324806213, 0.04357602819800377, -0.2697048485279083, 0.21605144441127777, 0.009467278607189655, 0.008367853239178658, 0.12070178240537643, -0.2576768696308136, 0.2032453566789627, 0.2682649493217468, 0.06400798261165619, -0.1477322280406952, 0.05494904890656471, -0.29343438148498535, 0.2994800806045532, -0.1572169065475464, -0.2538876235485077, -0.27560752630233765, -0.26717638969421387, -0.019046379253268242, 0.25963011384010315, 0.055435437709093094, 0.04950740560889244, 0.2724060118198395, 0.0350494422018528, -0.2934390902519226, -0.2054590880870819, -0.11526557803153992, 0.14209546148777008, 0.28517648577690125, 0.11819414049386978, 0.32794132828712463, 0.06335470825433731, -0.15606911480426788, 0.10223682969808578, 0.23821468651294708, -0.24604955315589905, 0.1685149073600769, 0.025744430720806122, -0.2176617532968521, -0.16112259030342102, -0.2651731073856354, -0.08866947889328003, 0.14354263246059418, -0.04184335097670555, -0.014070740900933743, 0.19968880712985992, -0.2239377796649933, -0.09077968448400497, -0.19971589744091034, -0.2881912887096405, -0.3074074685573578, 0.14546065032482147, -0.3010876774787903, -0.2534792125225067, -0.34606698155403137, 0.041987426578998566, -0.10426516085863113, 0.1224350705742836, -0.2264704406261444, 0.2689416706562042, -0.047816429287195206, -0.007717624772340059, 0.2662203013896942, 0.27667370438575745, -0.02560718171298504, -0.29824936389923096, -0.1909169852733612, -0.12898801267147064, 0.24060650169849396, 0.22324368357658386, -0.18478848040103912, 0.3437536656856537, 0.2951813340187073, 0.2812543511390686, 0.07324226945638657, 0.09097134321928024, -0.25377559661865234, -0.030082764104008675, 0.2224751114845276, 0.16178233921527863, 0.08716142177581787, -0.03891928121447563, -0.10127271711826324, 0.27851226925849915, -0.199297234416008, 0.16758844256401062, 0.1091967225074768, 0.25028201937675476, -0.16464115679264069, -0.2966351807117462, 0.1575101912021637, -0.046968210488557816, -0.3429802358150482, 0.11975720524787903, 0.1600009799003601, 0.3351394236087799, -0.35098889470100403, -0.3170325756072998, -0.14693105220794678, 0.11836274713277817, -0.2646554708480835, 0.18287141621112823, -0.09613551944494247, -0.21726156771183014, 0.15335123240947723, -0.2717837393283844, -0.08648032695055008, 0.07401963323354721, -0.05833781138062477, 0.016494285315275192, 0.14600618183612823, -0.04236089065670967, 0.3312950134277344, -0.03721775487065315, 0.012108031660318375, -0.11577226221561432], [-0.11574536561965942, 0.10652900487184525, 0.2838381230831146, -0.10497113317251205, 0.12532751262187958, 0.14461344480514526, -0.10829775035381317, 0.2611197531223297, -0.29622313380241394, -0.13554754853248596, 0.01274076197296381, -0.18069183826446533, 0.01616472378373146, 0.21728195250034332, -0.1572801172733307, 0.03410607948899269, -0.09341872483491898, -0.07407963275909424, -0.1449165791273117, -0.011682075448334217, 0.09092492610216141, -0.02204335480928421, -0.18079912662506104, -0.2246638387441635, 0.239263653755188, 0.15363925695419312, 0.08137797564268112, -0.06075342372059822, 0.09756045788526535, 0.10836655646562576, 0.03235632926225662, -0.1881948858499527, -0.21038194000720978, -0.1668156236410141, 0.10154173523187637, -0.04066498577594757, -0.1206744834780693, 0.01130662951618433, 0.18907871842384338, -0.21864932775497437, 0.04603378847241402, 0.03805910423398018, -0.21073877811431885, -0.21509882807731628, -0.08866613358259201, 0.22265367209911346, 0.048101939260959625, -0.0012191422283649445, -0.16802749037742615, 0.23433490097522736, -0.17264030873775482, -0.0418529212474823, 0.1430785208940506, -0.148494154214859, 0.18318510055541992, -0.16067194938659668, -0.22705459594726562, 0.014158147387206554, -0.030355749651789665, 0.03454895317554474, -0.03956027328968048, 0.11921472102403641, -0.12285361438989639, 0.15441587567329407, -0.1160305067896843, -0.1782345175743103, -0.036369290202856064, 0.05740422382950783, -0.2664029896259308, -0.015569480136036873, -0.06279567629098892, -0.0457245409488678, -0.10312063992023468, 0.2410089075565338, 0.15967398881912231, 0.07870756089687347, -0.1374056339263916, 0.17547385394573212, -0.047930262982845306, -0.14815503358840942, -0.18118657171726227, 0.13930994272232056, -0.019434386864304543, -0.009798143990337849, 0.19988609850406647, -0.01679154857993126, -0.2228427529335022, 0.24787700176239014, -0.0318172387778759, 0.07871763408184052, -0.037623509764671326, 0.09386388212442398, -0.012993496842682362, -0.3284702003002167, -0.061391666531562805, 0.04226851463317871, 0.18814310431480408, -0.17938749492168427, -0.1931956261396408, 0.11983843892812729, -0.1284773349761963, -0.12589235603809357, 0.07003675401210785, 0.10238592326641083, -0.06350911408662796, -0.17167112231254578, -0.015221906825900078, 0.18096570670604706, -0.04081553965806961, 0.2503529489040375, -0.03558982163667679, 0.17983323335647583, -0.12038290500640869, 0.10429273545742035, 0.023093823343515396, -0.1182430237531662, -0.16938632726669312, 0.15746061503887177, -0.049303971230983734, -0.0936601385474205, -0.11240313947200775, 0.11141598969697952, -0.1798759549856186, -0.2321333885192871, 0.06196654587984085, 0.09680477529764175, -0.23660214245319366, -0.10315854102373123], [-0.27268660068511963, 0.12619003653526306, -0.1361728012561798, 0.2871994376182556, -0.06557638943195343, -0.18731935322284698, -0.1936822384595871, -0.3047505021095276, 0.13098470866680145, 0.19074879586696625, 0.047886040061712265, 0.24411603808403015, 0.2269580364227295, -0.05096433311700821, -0.1072683110833168, -0.2012527883052826, -0.27343741059303284, -0.14618411660194397, -0.24232952296733856, 0.21279382705688477, -0.22170832753181458, 0.2231362909078598, 0.10431532561779022, 0.2793518602848053, -0.1780821979045868, 0.24581703543663025, -0.24744485318660736, -0.13425542414188385, -0.028355278074741364, -0.19341425597667694, 0.12327063828706741, 0.22259476780891418, -0.18125049769878387, 0.03290656954050064, -0.2452486753463745, 0.14219015836715698, 0.023306604474782944, 0.0568091981112957, -0.18735700845718384, -0.11291133612394333, 0.09595236927270889, -0.007354900240898132, -0.18763367831707, -0.1266288161277771, 0.24530842900276184, 0.1444842666387558, 0.13296271860599518, -0.06682988256216049, 0.022680707275867462, -0.3754071593284607, -0.15093807876110077, 0.05058308318257332, 0.13050833344459534, -0.316000372171402, -0.0022306835744529963, -0.052164435386657715, 0.2837689518928528, 0.0737636610865593, 0.13035592436790466, 0.035959865897893906, 0.21841669082641602, -0.10724719613790512, -0.14783921837806702, 0.003300595097243786, 0.13638557493686676, 0.009405539371073246, 0.26069512963294983, -0.03294511139392853, -0.040839340537786484, -0.009256428107619286, -0.2878991663455963, -0.0409637950360775, 0.02108541876077652, -0.1267670840024948, 0.03119819425046444, -0.22938387095928192, 0.0664958506822586, 0.053406842052936554, -0.18186397850513458, -0.216648131608963, -0.057343922555446625, 0.06141287460923195, 0.1860816329717636, 0.03135344013571739, -0.11141006648540497, 0.053038083016872406, -0.22823739051818848, -0.26041340827941895, 0.04699550196528435, 0.21269677579402924, 0.24264658987522125, -0.04444803670048714, 0.0937863439321518, -0.14265775680541992, -0.1190890371799469, 0.13808338344097137, -0.20341482758522034, 0.011369285173714161, -0.1837371587753296, 0.22655551135540009, 0.0034532619174569845, 0.12099197506904602, -0.16924479603767395, -0.2764071822166443, 0.265170693397522, 0.09100852906703949, -0.18480432033538818, 0.2582800090312958, 0.10357239097356796, -0.17023074626922607, 0.12609981000423431, 0.11500100791454315, -0.0021164934150874615, 0.22436541318893433, -0.11778846383094788, 0.11543416231870651, 0.10289106518030167, 0.1567469835281372, -0.2116200029850006, 0.2063446193933487, -0.06875584274530411, 0.08054006099700928, 0.2567196786403656, -0.05406271666288376, 0.10727261006832123, 0.2830987870693207, 0.09957031160593033, -0.15680111944675446], [0.07886005192995071, 0.07491779327392578, -0.24206441640853882, -0.16241329908370972, 0.27707618474960327, -0.1274481564760208, -0.15845529735088348, 0.28093308210372925, 0.08076854050159454, 0.18914978206157684, -0.24571189284324646, 0.24262595176696777, 0.16007381677627563, 0.18138790130615234, -0.15301167964935303, -0.25341418385505676, 0.26941245794296265, 0.027861621230840683, -0.33841413259506226, -0.005765421781688929, 0.23367035388946533, 0.0637800469994545, 0.05359707400202751, -0.10310889035463333, -0.25648027658462524, -0.020840011537075043, -0.20822776854038239, -0.13169991970062256, -0.24269016087055206, 0.23539981245994568, 0.05475068837404251, -0.18546447157859802, 0.11732080578804016, -0.18128448724746704, 0.23017175495624542, -0.05864870548248291, -0.08492782711982727, 0.08213899284601212, 0.003234615782275796, 0.007512199692428112, 0.06682217121124268, 0.16687367856502533, 0.009120205417275429, 0.1258041262626648, -0.11189818382263184, 0.0016084001399576664, 0.05259068310260773, -0.12066208571195602, -0.024112654849886894, 0.03614453598856926, -0.1365351527929306, 0.034526266157627106, -0.21547287702560425, 0.12531991302967072, -0.12147929519414902, -0.16306015849113464, 0.19210202991962433, 0.14338630437850952, 0.10217610001564026, 0.23112408816814423, 0.06709696352481842, 0.18938389420509338, -0.22549539804458618, -0.0675775483250618, 0.06647955626249313, 0.20444278419017792, 0.21447528898715973, -0.035669852048158646, -0.14245468378067017, -0.12842170894145966, -0.2983006238937378, -0.15754441916942596, -0.0969109758734703, -0.21881228685379028, -0.14176040887832642, -0.2245117574930191, 0.1539461612701416, 0.011663160286843777, 0.17917202413082123, 0.0836823359131813, -0.007912307977676392, -0.0874709039926529, 0.18455339968204498, -0.18659906089305878, 0.23809854686260223, -0.07521264255046844, -0.26600030064582825, 0.2262025624513626, 0.14105835556983948, 0.16929924488067627, 0.18980742990970612, -0.15126588940620422, 0.14877617359161377, 0.23686762154102325, -0.1029936671257019, 0.07244209200143814, -0.3221411108970642, -0.24107730388641357, -0.22995105385780334, 0.07567168772220612, -0.22287380695343018, 0.11698652803897858, 0.25326114892959595, 0.26430878043174744, 0.20833273231983185, 0.0880543664097786, 0.20359374582767487, 0.05918339267373085, 0.07685161381959915, 0.11087993532419205, 0.23994499444961548, 0.15649369359016418, -0.02646537497639656, 0.20354387164115906, 0.08950324356555939, 0.15370415151119232, 0.17171190679073334, 0.16848191618919373, 0.09938208758831024, 0.2201908379793167, 0.0014320679474622011, -0.16208449006080627, 0.09065511077642441, -0.02714735083281994, 0.027848608791828156, 0.19031599164009094, 0.004524904768913984, -0.23464156687259674], [0.14818894863128662, -0.036527570337057114, 0.09193110466003418, 0.16134107112884521, -0.18476548790931702, 0.025611378252506256, 0.0013986770063638687, 0.13551658391952515, 0.05514582246541977, 0.17906510829925537, 0.13425453007221222, 0.1749783158302307, 0.1858077347278595, 0.13209600746631622, -0.1143382117152214, 0.2546585500240326, 0.18268445134162903, -0.15286575257778168, -0.004093762952834368, 0.14414209127426147, 0.04484551027417183, 0.05233647674322128, 0.2519160211086273, 0.13699108362197876, 0.19123755395412445, -0.11456109583377838, -0.10924576222896576, -0.03954385966062546, -0.04964355379343033, 0.1591145098209381, -0.20403628051280975, -0.10871698707342148, 0.011740364134311676, 0.08033429086208344, -0.15998154878616333, -0.03497055172920227, 0.05449926480650902, 0.1636928915977478, -0.09839463979005814, -0.21697257459163666, -0.07127154618501663, 0.20120836794376373, 0.0800214409828186, -0.24699535965919495, -0.11826138943433762, 0.19574213027954102, -0.16024406254291534, 0.12657657265663147, 0.11387091130018234, 0.23868104815483093, -0.015470882877707481, -0.1564919650554657, 0.21182949841022491, -0.14005866646766663, 0.08156974613666534, 0.23458105325698853, -0.11680297553539276, -0.11195368319749832, -0.04382218047976494, -0.08640182763338089, 0.23307980597019196, -0.1572248488664627, 0.16647787392139435, 0.2076602578163147, -0.14187754690647125, 0.08643843233585358, -0.20934927463531494, 0.2325827032327652, -0.17746318876743317, 0.17272073030471802, 0.17011168599128723, 0.12483958899974823, -0.012331617996096611, 0.15133900940418243, -0.18072615563869476, -0.09865548461675644, 0.08215977251529694, 0.10494204610586166, -0.050566233694553375, 0.10913526266813278, -0.23409636318683624, -0.08700674027204514, 0.06078726053237915, -0.013501849956810474, 0.27011385560035706, 0.155586376786232, -0.35030078887939453, -0.23928207159042358, 0.09556008875370026, 0.10797546803951263, 0.22373758256435394, -0.11604345589876175, 0.17056290805339813, 0.30942997336387634, 0.004592642653733492, 0.10468019545078278, -0.23320932686328888, 0.0033578723669052124, 0.03667749837040901, 0.2010698765516281, 0.0031751920469105244, -0.04791012778878212, 0.06911977380514145, 0.011508566327393055, -0.17087088525295258, -0.1259588599205017, -0.014976361766457558, 0.19556482136249542, -0.033889301121234894, -0.12735921144485474, -0.24369637668132782, 0.004155820235610008, -0.03725817799568176, 0.2953231930732727, -0.26049554347991943, -0.023668788373470306, -0.2405490130186081, 0.06023813411593437, 0.004942698869854212, -0.04765458405017853, 0.04203899949789047, -0.031510982662439346, 0.011544677428901196, -0.01148960180580616, -0.10006798058748245, 0.2101723998785019, 0.12395665049552917, -0.025473620742559433], [-0.0027754828333854675, 0.06466943770647049, -0.0002784262760542333, 0.0015371734043583274, 0.2163923680782318, -0.05387469753623009, -0.3432190418243408, -0.26769572496414185, 0.23718711733818054, 0.19818095862865448, 0.0250632856041193, -0.19189970195293427, -0.11545443534851074, 0.047993678599596024, 0.07523489743471146, -0.014205506071448326, -0.19036641716957092, -0.06038912385702133, -0.1047547310590744, -0.22530992329120636, 0.2597908675670624, -0.14198151230812073, 0.11307328194379807, 0.022286847233772278, 0.12846879661083221, 0.014351047575473785, 0.0708092451095581, -0.0462660975754261, -0.08023550361394882, -0.1197223886847496, 0.20264288783073425, -0.1421959102153778, 0.1391797959804535, -0.15951822698116302, 0.26599088311195374, 0.0252664927393198, 0.1677471250295639, -0.0852089524269104, 0.05699209123849869, -0.3673442602157593, 0.16520994901657104, 0.17659513652324677, 0.21205374598503113, -0.32178813219070435, -0.23446986079216003, -0.2424503117799759, 0.12764811515808105, 0.11515922099351883, -0.04436234384775162, -0.159759059548378, 0.04997501149773598, -0.2101355344057083, -0.11661450564861298, -0.24380256235599518, -0.20384781062602997, -0.06184946745634079, 0.06043742224574089, 0.07102211564779282, 0.055017534643411636, 0.03311159834265709, -0.0008705002255737782, -0.026208311319351196, 0.006063003093004227, 0.11603908985853195, 0.22747093439102173, 0.11159924417734146, -0.16326479613780975, 0.13822698593139648, -0.20395527780056, -0.15501393377780914, 0.19433549046516418, 0.22150760889053345, -0.024146083742380142, 0.2595607042312622, -0.24653655290603638, 0.21988414227962494, -0.12817779183387756, -0.1470724195241928, 0.028234494850039482, -0.031996019184589386, 0.1228446438908577, 0.07587675005197525, 0.06722690165042877, -0.17164261639118195, 0.014128867536783218, 0.005887284874916077, -0.04933957755565643, -0.26605623960494995, -0.16324883699417114, 0.09229391068220139, -0.2134721726179123, -0.06374602019786835, 0.1794198453426361, 0.13858863711357117, 0.16308040916919708, -0.22963912785053253, -0.27370962500572205, -0.06653563678264618, 0.012609226629137993, 0.19630736112594604, 0.0732288509607315, -0.1949152946472168, -0.18589600920677185, -0.16607868671417236, -0.11950471997261047, -0.14681842923164368, -0.0027327160350978374, 0.21112170815467834, -0.008665944449603558, -0.20838378369808197, -0.15290263295173645, 0.14986108243465424, -0.022829251363873482, 0.09231261909008026, 0.17638427019119263, 0.16429167985916138, 0.029288165271282196, -0.08033545315265656, 0.04347096383571625, 0.015896249562501907, 0.14459066092967987, 0.12075015157461166, -0.1666034609079361, -0.009052202105522156, -0.11147910356521606, 0.061866145581007004, 0.2225463092327118, 0.2227582484483719], [0.3334543704986572, -0.09173237532377243, 0.1844896376132965, -0.10205792635679245, -0.32066449522972107, 0.2662515342235565, -0.18642987310886383, -0.15485014021396637, 0.17927823960781097, -0.14468593895435333, 0.06188168749213219, -0.014694912359118462, -0.16837459802627563, -0.10809008777141571, -0.16698335111141205, 0.18160466849803925, -0.1240682527422905, -0.24449026584625244, 0.018318520858883858, 0.1947564035654068, 0.1348329335451126, 0.18073910474777222, -0.22167891263961792, 0.04085002839565277, -0.23030537366867065, -0.09284038841724396, 0.20815041661262512, 0.23858287930488586, -0.15838474035263062, -0.08234034478664398, -0.004113826435059309, 0.1665843427181244, 0.31924954056739807, -0.18065036833286285, -0.1612161546945572, 0.0073798601515591145, -0.19466674327850342, 0.04482550546526909, -0.05405525118112564, -0.2248736470937729, 0.06679929792881012, -0.10997273772954941, -0.03669393062591553, 0.014881184324622154, -0.05042198300361633, -0.19987282156944275, -0.08462505042552948, -9.942770702764392e-06, 0.007264282554388046, -0.1011219173669815, 0.019634848460555077, -0.04756956174969673, 0.22740672528743744, 0.12778444588184357, -0.19291363656520844, 0.1060190498828888, -0.21922515332698822, -0.10318329185247421, 0.12057158350944519, -0.10680589824914932, 0.24264521896839142, -0.03598830848932266, 0.2063470184803009, 0.04704991355538368, -0.24613268673419952, 0.005498019512742758, -0.09329651296138763, 0.10824119299650192, -0.1606626957654953, 0.023774616420269012, 0.001987064490094781, 0.07816843688488007, 0.025711091235280037, -0.0017018798971548676, 0.21852079033851624, 0.17964571714401245, -0.2848612368106842, -0.1678868979215622, -0.20593608915805817, -0.2127426266670227, 0.09342140704393387, -0.059767574071884155, 0.0538192056119442, 0.07936996221542358, -0.03863495588302612, 0.11516351252794266, -0.20152617990970612, -0.0718928724527359, -0.2064753621816635, -0.23289960622787476, 0.30060938000679016, -0.24297074973583221, 0.1784093677997589, 0.24469052255153656, -0.0980001911520958, -0.08754681050777435, -0.04450950771570206, 0.106770820915699, -0.0987887904047966, 0.06755050271749496, 0.16381444036960602, -0.05424084886908531, 0.004617749247699976, 0.06279545277357101, 0.10304205864667892, -0.02193627320230007, 0.3457987308502197, -0.021969687193632126, -0.041102636605501175, 0.22260993719100952, 0.19512008130550385, 0.08463205397129059, -0.09375998377799988, 0.03616112098097801, 0.18475618958473206, 0.17616935074329376, 0.03597744181752205, 0.1669512242078781, -0.1986565887928009, 0.09684450179338455, 0.037688959389925, -0.0180599894374609, 0.18939056992530823, -0.13662780821323395, -0.10076028853654861, -0.20494435727596283, -0.11162443459033966, -0.06804391741752625]], "bias": [-0.08078290522098541, 0.07948978990316391, -0.06172158941626549, -0.013788769021630287, 0.2820500135421753, -0.11453992873430252, -0.21708613634109497, 0.29947352409362793, 0.07128452509641647, 0.05434511601924896, -0.21101634204387665, -0.1384044885635376, -0.07214116305112839, 0.19957531988620758, 0.13348890841007233, -0.24260668456554413, -0.0966075137257576, -0.1564049869775772, 0.25902077555656433, -0.08086216449737549, -0.2557392716407776, -0.2842245101928711, -0.14399100840091705, -0.16738170385360718, 0.20465856790542603, -0.1190449669957161, 0.07826906442642212, -0.06361234188079834, -0.16149325668811798, 0.2951955199241638, 0.09002514183521271, -0.03015565685927868, 0.07426749914884567, -0.21484552323818207, 0.23080535233020782, -0.06459629535675049, -0.061662182211875916, -0.12907154858112335, -0.004924222361296415, 0.004653242416679859, 0.21528539061546326, 0.09335660189390182, 0.021569285541772842, 0.17460204660892487, -0.28579017519950867, 0.14226743578910828, -0.08064386993646622, 0.16532637178897858, -0.06197858229279518, 0.11789675056934357, -0.11765862256288528, -0.06584320962429047, -0.11979158967733383, 0.16192546486854553, 0.13599811494350433, 0.023557579144835472, -0.20920175313949585, -0.25091639161109924, -0.27894535660743713, 0.030606765300035477, -0.10226236283779144, -0.002917149104177952, -0.15030010044574738, -0.05617787688970566, 0.0956597626209259, -0.03532048687338829, 0.18763892352581024, -0.23552526533603668, -0.30100908875465393, -0.07954035699367523, -0.11012919992208481, -0.12622714042663574, 0.2376222461462021, -0.08169065415859222, 0.12710073590278625, 0.09998012334108353, 0.2595360577106476, 0.043288398534059525, 0.1288657933473587, -0.11774872988462448, -0.0006216494366526604, 0.2833841145038605, 0.1931772232055664, 0.14818309247493744, 0.2710764706134796, -0.2450317144393921, 0.21651369333267212, -0.057230353355407715, -0.2791179418563843, 0.1661064624786377, -0.2646542489528656, 0.2739936411380768, 0.04858680069446564, 0.2572861611843109, -0.0040623825043439865, 0.19971975684165955, -0.2268490493297577, -0.22659285366535187, 0.19628986716270447, -0.1748546063899994, -0.025966141372919083, 0.25622954964637756, -0.2258756160736084, -0.20740769803524017, -0.16144786775112152, -0.23057793080806732, -0.17157305777072906, 0.27986961603164673, 0.12701238691806793, 0.18493647873401642, 0.05661914125084877, 0.22284840047359467, -0.13040784001350403, -0.13971415162086487, -0.17631438374519348, 0.14077286422252655, 0.020927460864186287, 0.1995040327310562, -0.14398600161075592, 0.22971275448799133, -0.24303485453128815, 0.03771650791168213, -0.11968135833740234, 0.23221822082996368, -0.05294410139322281, 0.12327542901039124, 0.23031844198703766, -0.050387147814035416], "activation": "relu", "bn": {"gamma": [1.0641837120056152, 1.0036911964416504, 0.958080530166626, 1.041038155555725, 0.9646818041801453, 1.017580270767212, 1.0025395154953003, 0.9757731556892395, 0.9805506467819214, 0.9667321443557739, 0.9607622027397156, 0.9613859057426453, 1.059657335281372, 0.9839120507240295, 1.0355077981948853, 1.0158084630966187, 0.9911249279975891, 0.9716448187828064, 1.0195119380950928, 0.9556686282157898, 0.9679325222969055, 1.030208706855774, 0.9660598039627075, 0.9645899534225464, 0.9495828747749329, 0.9672539830207825, 1.001758098602295, 0.970113217830658, 1.0351101160049438, 0.9650253057479858, 0.9811204671859741, 0.9824647307395935, 0.9806522727012634, 0.9745656847953796, 0.9690593481063843, 1.0432054996490479, 0.985162079334259, 1.0334714651107788, 0.9906985759735107, 1.0502684116363525, 1.0367292165756226, 0.9756547212600708, 0.9611254930496216, 0.9541020393371582, 0.9604211449623108, 1.0067142248153687, 1.0252854824066162, 1.068337321281433, 1.0591635704040527, 0.9350132942199707, 1.0216487646102905, 1.062335729598999, 1.05390465259552, 0.959836483001709, 1.0237150192260742, 0.9460195899009705, 0.9954227805137634, 0.9887790679931641, 0.9841628670692444, 0.9871274828910828, 0.9945664405822754, 1.0669057369232178, 0.9885278344154358, 0.9977147579193115, 1.0472228527069092, 0.9564594626426697, 0.9909171462059021, 1.0461207628250122, 0.9699144959449768, 0.9596894979476929, 0.9589759111404419, 0.9627661108970642, 1.093940019607544, 0.956447184085846, 0.9921916723251343, 0.9642548561096191, 0.9750682711601257, 0.9919488430023193, 0.9761062860488892, 0.964628279209137, 0.9769368171691895, 1.0534406900405884, 1.036176323890686, 1.0274426937103271, 0.9802780747413635, 1.0513042211532593, 0.9897335767745972, 0.9635945558547974, 0.986507773399353, 0.9928288459777832, 0.9540278315544128, 0.9743657112121582, 0.9817196726799011, 0.9815792441368103, 0.9491574764251709, 0.9719392657279968, 0.957969605922699, 0.9950551986694336, 1.0145169496536255, 1.0264389514923096, 0.9511500000953674, 1.0281239748001099, 0.9489700198173523, 1.0193448066711426, 0.9876697659492493, 1.0111992359161377, 0.9872305989265442, 1.0404292345046997, 1.0495625734329224, 0.949103593826294, 0.9581586122512817, 1.049728512763977, 1.0735410451889038, 0.9846622347831726, 0.9587313532829285, 0.957781970500946, 1.0485299825668335, 0.9996117949485779, 1.0455127954483032, 0.9667723774909973, 1.0418857336044312, 1.0074825286865234, 1.0236083269119263, 0.9851713180541992, 1.0271804332733154, 0.9573481678962708, 1.008518099784851, 1.0059126615524292], "beta": [0.038598302751779556, -0.04520062729716301, -0.03883418068289757, -0.03764026239514351, -0.03706139698624611, 0.00025985887623392045, 0.06948128342628479, -0.0638926774263382, 0.005571001674979925, 0.02034660428762436, -0.028056981042027473, -0.049210939556360245, 0.020640892907977104, 0.05505590885877609, 0.04752485826611519, 0.03146087005734444, 0.008800637908279896, -0.0346442274749279, 0.027347108349204063, 0.049496736377477646, 0.030095065012574196, 0.024938249960541725, -0.037992432713508606, -0.08729807287454605, -0.07066527009010315, -0.05405648052692413, -0.008755914866924286, -0.023077983409166336, 0.03850552439689636, 0.032538581639528275, -0.03647192567586899, 0.010575694032013416, -0.08196581900119781, 0.017927449196577072, -0.031844113022089005, -0.022721337154507637, -0.009294821880757809, 0.0483122281730175, 0.029619920998811722, -0.05065125972032547, 0.058295655995607376, -0.016312306746840477, 0.030671194195747375, 0.052964694797992706, 0.01652464270591736, 0.0363568440079689, 0.00974280759692192, 0.04783394932746887, 0.03707157447934151, -0.05426691100001335, 0.03446434065699577, 0.0028288569301366806, 0.06867378950119019, -0.07830867916345596, 0.007617724593728781, -0.07938998937606812, 0.029763611033558846, 0.04712478071451187, 0.016641173511743546, -0.03440060093998909, 0.027817249298095703, 0.05205318704247475, 0.02176116406917572, -0.05281344801187515, -0.00869738683104515, -0.0224261786788702, 1.044149394147098e-05, -0.008502730168402195, -0.056885793805122375, -0.014018095098435879, -0.06670789420604706, -0.05222216993570328, 0.06831207126379013, -0.031038882210850716, -0.0029814615845680237, 0.00019459857139736414, -0.039585862308740616, 0.03448411077260971, -0.01593957468867302, -0.03075488656759262, -0.05133260041475296, -0.019803816452622414, -0.059702396392822266, 0.03335065394639969, -0.018470004200935364, -0.043230339884757996, 0.02287067100405693, -0.006051764357835054, -0.0453852042555809, 0.029087908565998077, -0.04704137146472931, -0.03766932711005211, -0.05282862111926079, -0.061561811715364456, -0.011840496212244034, 0.0008087750757113099, -0.06880368292331696, -0.04084709286689758, -0.014421213418245316, 0.021109845489263535, -0.03871524706482887, 0.008165991865098476, -0.04224170744419098, 0.03581726551055908, -0.0676974430680275, 0.03125390037894249, -0.07212323695421219, 0.0556357279419899, 0.008760848082602024, 0.020630398765206337, -0.048193443566560745, -0.030213123187422752, 0.0049683284014463425, 0.06881356239318848, -0.0332084596157074, -0.03903699293732643, -0.03483380749821663, 0.006926064379513264, -0.02013976499438286, 0.015136688016355038, 0.013269082643091679, 0.009647922590374947, -0.0066983262076973915, -0.01204373873770237, 0.026966338977217674, 0.014787637628614902, -0.05569937452673912, 0.05232271924614906], "mean": [-0.080857053399086, 0.07953538745641708, -0.0617109090089798, -0.01377712283283472, 0.28207680583000183, -0.11454057693481445, -0.21698439121246338, 0.29950135946273804, 0.07128835469484329, 0.05434408783912659, -0.2110411524772644, -0.13833051919937134, -0.07210338860750198, 0.19956758618354797, 0.13350704312324524, -0.2425779551267624, -0.09658490866422653, -0.15625618398189545, 0.2589857876300812, -0.08080923557281494, -0.25573110580444336, -0.284225732088089, -0.14398697018623352, -0.167460098862648, 0.20465396344661713, -0.11900094896554947, 0.07827191054821014, -0.06358438730239868, -0.16146332025527954, 0.29513540863990784, 0.0900106206536293, -0.030117269605398178, 0.07436222583055496, -0.21479207277297974, 0.23078516125679016, -0.06460762023925781, -0.061669718474149704, -0.12914520502090454, -0.004958082921802998, 0.004617976024746895, 0.2152424454689026, 0.09334772825241089, 0.02154279686510563, 0.17461912333965302, -0.28576552867889404, 0.1422710120677948, -0.08060972392559052, 0.16528655588626862, -0.062037426978349686, 0.11787358671426773, -0.11765928566455841, -0.06586359441280365, -0.11978033185005188, 0.16192781925201416, 0.1358734667301178, 0.02358027920126915, -0.20927712321281433, -0.25094759464263916, -0.27891772985458374, 0.030577674508094788, -0.10223215818405151, -0.00291285733692348, -0.1502656787633896, -0.05600941926240921, 0.09570039808750153, -0.035289566963911057, 0.187617689371109, -0.23550976812839508, -0.3009750247001648, -0.07952800393104553, -0.11014433950185776, -0.12625814974308014, 0.23781317472457886, -0.08167392015457153, 0.1270739734172821, 0.10008616000413895, 0.25953802466392517, 0.04327722638845444, 0.12888458371162415, -0.11772938072681427, -0.0006282319081947207, 0.2833684980869293, 0.19321170449256897, 0.14822475612163544, 0.2710404396057129, -0.24479132890701294, 0.21650557219982147, -0.05727468430995941, -0.2790314555168152, 0.16615404188632965, -0.2646391987800598, 0.2739909589290619, 0.04856029525399208, 0.2572228014469147, -0.003966423217207193, 0.19970497488975525, -0.226803258061409, -0.2265019416809082, 0.19612732529640198, -0.17484715580940247, -0.025963708758354187, 0.2561739981174469, -0.22585444152355194, -0.20746402442455292, -0.16145475208759308, -0.23055399954319, -0.17142042517662048, 0.2798927426338196, 0.12701229751110077, 0.18491621315479279, 0.05660761147737503, 0.22289550304412842, -0.13057827949523926, -0.13970285654067993, -0.1762472689151764, 0.1407332420349121, 0.020844031125307083, 0.19950231909751892, -0.14412346482276917, 0.22971290349960327, -0.2430608868598938, 0.0377139113843441, -0.11966808885335922, 0.2322147935628891, -0.05291641876101494, 0.12325425446033478, 0.2303207665681839, -0.050373103469610214], "var": [0.23087351024150848, 0.12849700450897217, 0.2799528241157532, 0.43728724122047424, 0.5019423365592957, 0.33299073576927185, 0.2994520664215088, 0.6927536725997925, 0.409991592168808, 0.9333491921424866, 0.19499441981315613, 0.23923973739147186, 0.44301480054855347, 0.3303869068622589, 0.11298953741788864, 0.3789019286632538, 0.6673486232757568, 0.18858160078525543, 0.18653956055641174, 0.4797343909740448, 0.6444143652915955, 0.23210793733596802, 0.26357656717300415, 0.2278495877981186, 0.5241188406944275, 0.34703683853149414, 0.22478324174880981, 0.25549542903900146, 0.18900999426841736, 0.33457544445991516, 0.3221988379955292, 1.0775359869003296, 0.4635598659515381, 0.30601808428764343, 0.7609602808952332, 0.2422427535057068, 0.20242547988891602, 0.2000531554222107, 0.25705787539482117, 0.19676047563552856, 0.1302192211151123, 0.18988873064517975, 0.6702269315719604, 0.2168024331331253, 0.35551509261131287, 0.4492545425891876, 0.40565115213394165, 0.12761808931827545, 0.46466460824012756, 0.6685346364974976, 0.31025245785713196, 0.16680306196212769, 0.3432031571865082, 0.22780123353004456, 0.30713677406311035, 0.6533678770065308, 0.1131879985332489, 0.07246779650449753, 0.46141353249549866, 0.09073938429355621, 0.39337214827537537, 0.3398350775241852, 0.35589608550071716, 0.1416930854320526, 0.3571898341178894, 0.26533153653144836, 0.7623648643493652, 0.2568017542362213, 0.3928266167640686, 0.15920445322990417, 0.20530468225479126, 0.5683609843254089, 0.14590243995189667, 0.2712843716144562, 0.3768644630908966, 0.306650310754776, 0.3077999949455261, 0.4273020923137665, 0.2689670920372009, 0.3693845272064209, 0.373153954744339, 0.34365078806877136, 0.11203586310148239, 0.2986513674259186, 0.5103963017463684, 0.11837445199489594, 0.2119188904762268, 0.44332781434059143, 0.3285917341709137, 0.2532055377960205, 0.2966463565826416, 0.2223704606294632, 0.622933030128479, 0.5195179581642151, 0.08882182836532593, 0.3571314811706543, 0.3201613426208496, 0.354511022567749, 0.16517996788024902, 0.24938097596168518, 0.7253398895263672, 0.2940356731414795, 0.2200821340084076, 0.3612518310546875, 0.29131174087524414, 0.19683876633644104, 0.3375413715839386, 0.6033527851104736, 0.14684590697288513, 0.2071067839860916, 0.31906452775001526, 0.40902531147003174, 0.08102714270353317, 0.2653009295463562, 0.3400668501853943, 0.2771724760532379, 0.3501509130001068, 0.1640242338180542, 0.314963161945343, 0.18196579813957214, 0.0903763696551323, 0.3930152356624603, 0.3021402359008789, 0.19942423701286316, 0.2997659742832184, 0.29783526062965393, 0.16466307640075684, 0.19909392297267914], "eps": 1e-05}}, {"weights": [[0.05789889022707939, -6.681856757495552e-05, -0.05524526536464691, 0.05497558042407036, -0.10774282366037369, 0.0361645370721817, 0.09201418608427048, 0.033990971744060516, 0.04905875772237778, 0.11177714169025421, 0.0476643405854702, -0.10632182657718658, -0.05248261243104935, 0.0003464140463620424, 0.0361795648932457, 0.07240668684244156, -0.035763464868068695, -0.08679709583520889, 0.08163070678710938, -0.14745691418647766, 0.054697319865226746, -0.07789096981287003, -0.06719053536653519, 0.003200254403054714, 0.0056953695602715015, 0.08165884763002396, 0.07145196199417114, 0.11642348766326904, 0.019464218989014626, 0.043103110045194626, 0.017754528671503067, -0.005615771748125553, 0.04268958419561386, 0.06455916166305542, 0.022463425993919373, -0.0437154583632946, 0.0028758132830262184, -0.02280297689139843, -0.019364165142178535, -0.0565410740673542, 0.04665924981236458, 0.10050828009843826, -0.011261825449764729, 0.0488717220723629, -0.033619485795497894, 0.048995066434144974, -0.00043096760055050254, 0.03852654993534088, 0.010069048032164574, 0.05785774067044258, 0.0035642795264720917, -0.0361672006547451, -0.01661825366318226, -0.08100317418575287, 0.08419402688741684, 0.006436769384890795, -0.033650681376457214, -0.030224401503801346, -0.08063358068466187, 0.06638829410076141, 0.013200216926634312, 0.0038508560974150896, -0.0641530454158783, -0.10812872648239136], [0.09800863265991211, 0.03328608348965645, 0.10444989055395126, 0.08895578235387802, 0.005992615129798651, -0.0874502882361412, 0.02727253921329975, -0.0020443222019821405, 0.02766127698123455, -0.016707880422472954, -0.015095246024429798, 0.04598914831876755, -0.02180337719619274, -0.0038878656923770905, 0.05634566396474838, -0.0509074330329895, 0.060085467994213104, 0.026635460555553436, -0.047718919813632965, 0.015788225457072258, -0.0248562004417181, -0.04910235479474068, 0.012550484389066696, -0.043709829449653625, -0.040457580238580704, 0.003867923282086849, 0.09106554090976715, -0.02706906944513321, -0.08350491523742676, 0.04764028638601303, -0.017357030883431435, -0.013187551870942116, -0.03346933051943779, 0.0027572812978178263, 0.03353911638259888, 0.059266429394483566, 0.09376948326826096, 0.04478716105222702, -0.05117877572774887, -0.08721794933080673, 0.0561782568693161, 0.02665111795067787, -0.01304042898118496, -0.08799891918897629, 0.003602884942665696, -0.06851116567850113, -0.019994668662548065, -0.023843802511692047, -0.0033143104519695044, 0.043206438422203064, -0.0007144465344026685, -0.04388869181275368, 0.01477153692394495, -0.07198936492204666, -0.09943787753582001, -0.08357849717140198, -0.08537118136882782, 0.030928757041692734, -0.09824877232313156, -0.035130105912685394, 0.004242919385433197, -0.026747308671474457, 0.08705854415893555, 0.0243950504809618], [-0.018169673159718513, -0.027778076007962227, -0.02968662604689598, -0.06840850412845612, -0.0869930237531662, 0.021766263991594315, 0.10131203383207321, -0.020655911415815353, -0.022872887551784515, 0.02048420161008835, 0.0042245229706168175, -0.10576684772968292, -0.07218241691589355, 0.04448331519961357, -0.06225113943219185, -0.005132634658366442, 0.0026138026732951403, -0.01702229119837284, 0.005179916974157095, 0.036840710788965225, 0.09188909083604813, 0.07409772276878357, -0.01728093810379505, 0.028777966275811195, 0.012384091503918171, 0.02612612396478653, 0.009668230079114437, -0.007064209319651127, -0.06745337694883347, -0.03529224917292595, -0.03469771146774292, 0.0057059540413320065, -0.08308055251836777, 0.1268566995859146, -0.054940711706876755, -0.053153131157159805, -0.04569794982671738, 0.08033307641744614, -0.04736877232789993, -0.08558554202318192, 0.0076020946726202965, -0.05199696123600006, 0.10042781382799149, 0.012520190328359604, -0.06053829565644264, 0.0490860715508461, -0.011746671982109547, -0.014945796690881252, -0.06092265620827675, -0.018128791823983192, -0.09855210781097412, -0.03418124094605446, -0.025584742426872253, 0.03595937788486481, -0.025120196864008904, -0.03527197614312172, -0.005462571978569031, -0.06940940767526627, -0.08791009336709976, -0.027601158246397972, 0.08668834716081619, 0.027836939319968224, 0.01588406413793564, 0.003967920318245888], [0.018355177715420723, 0.0543096624314785, 0.02938707545399666, 0.06703777611255646, 0.00355874584056437, -0.10235147178173065, 0.01832851767539978, 0.03367692604660988, -0.040036220103502274, 0.03345468267798424, 0.10998417437076569, 0.01590190827846527, -0.011972203850746155, -0.04607018828392029, -0.003032153472304344, -0.025929775089025497, -0.0005916873342357576, 0.004272553138434887, 0.10247581452131271, 0.05689843371510506, 0.043606482446193695, 0.007710707373917103, -0.059906866401433945, 0.04652535542845726, 0.043168678879737854, -0.016773361712694168, 0.0359320305287838, 0.01932426542043686, -0.067985899746418, 0.008241147734224796, 0.01806548982858658, -0.07639673352241516, -0.10392197966575623, -0.05734858289361, -0.014545923098921776, 0.06499183923006058, 0.0004862555942963809, -0.03487410396337509, -0.13917680084705353, 0.015801291912794113, 0.036978304386138916, 0.0029619522392749786, 0.08755235373973846, -0.05841776728630066, -0.08018989115953445, 0.00570658827200532, -0.03393159434199333, -0.030844779685139656, -0.03316964954137802, 0.11831798404455185, -0.054447341710329056, -0.05287953093647957, -0.01190496888011694, -0.10826008021831512, -0.08291229605674744, -0.07509385794401169, -0.01647096313536167, -0.027883559465408325, -0.08071926236152649, 0.10137735307216644, -0.050194576382637024, -0.027204353362321854, 0.059752993285655975, -0.08659850060939789], [-0.04969831183552742, -0.016572367399930954, -0.10781149566173553, -0.06679370254278183, -0.027252420783042908, 0.014620316214859486, 0.011404304765164852, 0.008526505902409554, 0.07290343940258026, -0.050585485994815826, -0.054291293025016785, 0.009433180093765259, -0.10296518355607986, -0.002032530726864934, -0.06119244545698166, 0.0038320294115692377, -0.013646871782839298, 0.046167392283678055, -0.05579289793968201, 0.011903424747288227, 0.009178978390991688, -0.05349372699856758, -0.08045423030853271, -0.00048770493594929576, 0.00036525935865938663, -0.006878284737467766, 0.054228685796260834, -0.09079476445913315, 0.09944271296262741, 0.006181401666253805, 0.02090526930987835, -0.06087158992886543, -0.0115172965452075, -0.03163447231054306, -0.0007971863378770649, -0.038883525878190994, -0.042589738965034485, -0.045803800225257874, 0.014449556358158588, 0.02420879527926445, -0.023313403129577637, -0.011895708739757538, -0.07492999732494354, 0.025168536230921745, 0.10766918957233429, -0.0722009539604187, 0.06005776673555374, 0.05983862280845642, -0.06110936775803566, -0.03514256328344345, -0.03353843465447426, 0.0658854991197586, -0.0786052793264389, -0.05853471904993057, 0.03245432302355766, 0.008026354014873505, -0.08031892031431198, 0.036301396787166595, 0.01718166284263134, 0.1059422418475151, -0.09097818285226822, -0.0013006526278331876, -0.06419902294874191, 0.1225733608007431], [-0.033138081431388855, 0.0008153831004165113, -0.02315107360482216, -0.04034283384680748, -0.0811145231127739, -0.11731357872486115, -0.07605151832103729, 0.013816994614899158, -0.09354164451360703, -0.09737240523099899, -0.04174300655722618, -0.03900603950023651, -0.07066170871257782, -0.015740256756544113, -0.09155040979385376, -0.06937256455421448, 0.04240528494119644, -0.08066077530384064, -0.06331592798233032, -0.01627003587782383, -0.05107444152235985, -0.057319238781929016, -0.03773057833313942, -0.08529825508594513, -0.026642989367246628, -0.04747000336647034, 0.051411643624305725, -0.08594022691249847, -0.038852859288454056, 0.10936754196882248, 0.04029233753681183, -0.06587465852499008, 0.006963781546801329, -0.027959926053881645, 0.08120517432689667, -0.015276722609996796, 0.11876653879880905, 0.009524650871753693, 0.025153912603855133, 0.014597363770008087, 0.013977718539536, -0.03439357504248619, -0.02377888560295105, -0.07140519469976425, -0.060428034514188766, 0.013419225811958313, -0.009947064332664013, 0.041714880615472794, 0.07275095582008362, 0.09979373216629028, 0.04927118867635727, 0.10170142352581024, 0.08817359060049057, -0.07078371942043304, -0.10367021709680557, -0.021576765924692154, -0.13156798481941223, 0.01747451163828373, -0.09157755225896835, -0.01726343296468258, 0.03995883837342262, 0.024560002610087395, 0.10037925094366074, -0.08131860941648483], [-0.052842676639556885, -0.09251125901937485, 0.07098928838968277, 0.07227883487939835, -0.044500865042209625, 0.07680460065603256, 0.06357383728027344, -0.017998969182372093, -0.0709073394536972, 0.07901159673929214, -0.057247474789619446, -0.06323692202568054, -0.030113201588392258, 0.04336828365921974, 0.0780038982629776, 0.0031150593422353268, -0.0684371218085289, -0.0015255400212481618, -0.10211008042097092, -0.08506973087787628, 0.03463366627693176, -0.031961824744939804, -0.09211679548025131, -0.017803477123379707, -0.08698656409978867, 0.06286140531301498, 0.06858395785093307, 0.10527782887220383, -0.008811493404209614, -0.019342096522450447, 0.07373704016208649, 0.036531753838062286, 0.04613710939884186, -0.03127184510231018, 0.05120585113763809, 0.02049250341951847, -0.001588552026078105, -0.0070758480578660965, -0.010835155844688416, 0.028992347419261932, 0.018139349296689034, -0.03472486510872841, -0.06250583380460739, 0.0744403749704361, 0.023786352947354317, 0.0211561918258667, 0.05855998769402504, -0.05157114937901497, 0.10501570254564285, 0.03472378849983215, 0.04750148579478264, -0.04123690724372864, 0.02587362565100193, -0.01693190634250641, 0.009325913153588772, -0.020571747794747353, -0.03243701159954071, -0.0695377066731453, -0.07322388142347336, -0.06992238014936447, 0.02020268887281418, 0.07617298513650894, 0.030090589076280594, -0.02438819594681263], [0.0033513118978589773, -0.09252671897411346, 0.06720443069934845, 0.007797961588948965, 0.01594197191298008, -0.016311533749103546, -0.10109676420688629, -0.08842680603265762, 0.014896778389811516, -0.05983007699251175, 0.009643487632274628, 0.039543651044368744, 0.008509915322065353, -0.04450428485870361, -0.03108021430671215, -0.008701142854988575, -0.057584572583436966, 0.06352704018354416, -0.07701729983091354, 0.08386889845132828, 0.031519219279289246, -0.09193769097328186, -0.009040438570082188, -0.08693322539329529, -0.024243762716650963, 0.004628677852451801, -0.03503512963652611, -0.043847814202308655, 0.050980713218450546, -0.0687781423330307, 0.031728290021419525, -0.0169566348195076, -0.02079770341515541, 0.02017742581665516, 0.06896929442882538, -0.004805973265320063, -0.01380444597452879, 0.029416730627417564, -0.030768517404794693, -0.015697071328759193, -0.10273829847574234, -0.043658871203660965, -0.0014685774222016335, -0.1074039563536644, 0.04167117178440094, -0.03376796096563339, -0.07248782366514206, -0.08253265172243118, 0.05615626275539398, -0.07752041518688202, 0.001795379095710814, 0.02380574680864811, -0.009678144939243793, 0.014424053952097893, -0.012873725965619087, 0.02102564461529255, -0.02015339583158493, 0.057683926075696945, -0.06871508806943893, -0.05302919074892998, -0.045131634920835495, 0.03037888929247856, -0.023471565917134285, 0.11545094102621078], [0.05920720100402832, 0.02092731185257435, 0.028238706290721893, -0.011431579478085041, -0.01969895139336586, -0.06540530174970627, 0.008954759687185287, 0.08827733248472214, -0.04167449101805687, 0.07752405852079391, 0.07846678048372269, 0.01840043254196644, 0.10247482359409332, -0.11653941869735718, -0.030599646270275116, -0.09899260103702545, -0.1321433186531067, -0.07578972727060318, 0.11329144239425659, -0.04127079248428345, -0.00696044135838747, 0.037565458565950394, -0.02420920506119728, 0.06632515788078308, 0.06613199412822723, 0.007605439517647028, 0.07187190651893616, -0.039473045617341995, -0.011388737708330154, 0.06115693598985672, 0.06464678794145584, -0.049125269055366516, -0.020239414647221565, 0.012445150874555111, -0.05926259607076645, 0.07107129693031311, -0.10923896729946136, 0.051553547382354736, 0.023885438218712807, 0.03236977383494377, -0.0334693118929863, -0.014386968687176704, 0.04369509965181351, -0.09395989775657654, -0.09070294350385666, -0.0013549651484936476, -0.09471165388822556, 0.023177091032266617, 0.010301145724952221, 0.08349914103746414, -0.043173883110284805, -0.05726053565740585, -0.05650017783045769, -0.06567266583442688, -0.0006597613682970405, 0.0006635086610913277, -0.014105265028774738, 0.06412103772163391, 0.007601576391607523, 0.013101343996822834, 0.04945888742804527, -0.01909349299967289, 0.07607744634151459, -0.002241597045212984], [-0.009488392621278763, -0.09900160878896713, 0.045720022171735764, -0.006879553664475679, 0.0066384561359882355, 0.029804736375808716, -0.025574959814548492, -0.03407131880521774, 0.027143072336912155, 0.029682783409953117, 0.0016599619993939996, -0.0018625280354171991, -0.05111958459019661, -0.010154998861253262, 0.008907034061849117, 0.0027524323668330908, 0.09379908442497253, 0.004144455771893263, -0.06671177595853806, 0.031662579625844955, -0.010625430382788181, -0.029313063248991966, -0.09923006594181061, -0.05045238509774208, -0.06773559004068375, -0.06558846682310104, -0.04717397689819336, -0.01883682608604431, 0.020659878849983215, 0.02859165519475937, 0.022133314982056618, 0.040641941130161285, -0.08558754622936249, 0.09123116731643677, 0.010712405666708946, 0.05475226789712906, 0.009246968664228916, 0.02292807586491108, 0.010119469836354256, 0.0142690883949399, 0.015296511352062225, -0.05605253577232361, -0.0603681318461895, 0.08165515214204788, 0.04977651685476303, 0.010377435944974422, 0.0716199278831482, -0.01497787144035101, 0.028264202177524567, -0.05796336010098457, -0.0772373303771019, -0.055805034935474396, 0.10134581476449966, 0.023850243538618088, 0.11066386848688126, 0.06650257110595703, -0.07022278010845184, 0.025117846205830574, -0.07492700219154358, -0.006835307460278273, 0.04045657068490982, 0.04072266444563866, 0.04909445717930794, -0.07724835723638535], [-0.007313149515539408, 0.01178689580410719, 0.04138512909412384, 0.039990052580833435, 0.09872769564390182, -0.03152192756533623, -0.05767621845006943, -0.08310459554195404, 0.03040483221411705, -0.04731432721018791, -0.01549412589520216, 0.05811110511422157, -0.030276579782366753, -0.039908554404973984, 0.01724059507250786, -0.09973294287919998, 0.0699302926659584, 0.04174788296222687, -0.05130168795585632, 0.012968172319233418, -0.04652516916394234, -0.04140141233801842, -0.06321863830089569, -0.04589443653821945, 0.031682416796684265, 0.02028176374733448, -0.021602755412459373, -0.04694027826189995, 0.051702048629522324, 0.0792408213019371, -0.021308019757270813, -0.02509925328195095, -0.07785719633102417, -0.06931985914707184, -0.03277396783232689, -0.016972314566373825, 0.09169205278158188, 0.0675305500626564, -0.00808072742074728, -0.09953340142965317, 0.01985061727464199, 0.05446959286928177, -0.019365908578038216, -0.03721364587545395, -0.061857834458351135, -0.08774424344301224, -0.03092808835208416, 0.0015277555212378502, 0.010553215630352497, 0.06952452659606934, 0.013727732002735138, 0.04506613314151764, 0.039760466665029526, 0.008514365181326866, -0.013607741333544254, 8.728727698326111e-05, -0.05467909574508667, 0.021282454952597618, -0.12075009196996689, 0.08229392766952515, 0.01906801573932171, -0.030074242502450943, -0.007976928725838661, -0.04567846655845642], [0.035459645092487335, 0.05183044821023941, 0.005619084928184748, -0.0006162086501717567, 0.03496965765953064, 0.0485103577375412, -0.055506955832242966, 0.04951426759362221, -0.03849102184176445, 0.01333911158144474, 0.08504041284322739, -0.03291972354054451, -0.07408992946147919, 0.03875989839434624, 0.05276264250278473, 0.04147062078118324, -0.025002509355545044, -0.0022473668213933706, 0.013868841342628002, -0.025308825075626373, 0.014811529777944088, 0.019458657130599022, -0.04686661437153816, 0.048646748065948486, 0.05150589346885681, 0.012308113276958466, 0.05507140979170799, 0.07501140981912613, -0.014129644259810448, 0.05605069175362587, -0.011599798686802387, 0.07435674220323563, -0.03931981697678566, 0.031773749738931656, -0.046333637088537216, 0.04384112358093262, -0.0948844701051712, -0.05264437198638916, -0.061528902500867844, -0.11847557872533798, 0.05909056216478348, -0.06102864816784859, 0.06968597322702408, -0.024069583043456078, 0.017945468425750732, -0.025268692523241043, -0.005333429202437401, -0.058507103472948074, -0.0431709811091423, 0.009081250056624413, -0.082869753241539, -0.02450104057788849, 0.04821722209453583, -0.06606046855449677, -0.046160031110048294, -0.030263833701610565, -0.03946538642048836, 0.007855215109884739, -0.03286019712686539, 0.09179849922657013, 0.04978787526488304, -0.02032974548637867, -0.0033944121096283197, -0.055946312844753265], [0.052114810794591904, -0.07919391244649887, -0.08735314011573792, -0.049865368753671646, -0.006349444389343262, -0.0018425676971673965, 0.0008328036055900156, 0.02262788824737072, 0.062039315700531006, 0.08494726568460464, -0.05932626873254776, -0.12480978667736053, 0.05686751380562782, 0.03990624472498894, 0.14536885917186737, 0.07829835265874863, -0.03406916931271553, -0.08600904047489166, -0.09090586751699448, -0.020630810409784317, 0.07964219897985458, 0.03673449903726578, -0.07461290806531906, 0.1048559844493866, 0.048470672219991684, 0.12066607177257538, -0.01687825471162796, 0.10868603736162186, 0.037822820246219635, 0.021790849044919014, -0.019778480753302574, -0.04132528975605965, 0.05532196909189224, 0.06042598932981491, -0.017780762165784836, 0.05272760987281799, -0.09940516203641891, 0.06434562802314758, -0.0135134132578969, -0.0229258444160223, -0.02790665626525879, 0.08400668948888779, -0.08989337831735611, 0.03440336510539055, -0.09393579512834549, -0.021658509969711304, 0.03655107691884041, 0.056321799755096436, 0.04606003686785698, -0.013959195464849472, 0.0935605987906456, -0.0018199154874309897, -0.02888907864689827, -0.04235658049583435, 0.008769763633608818, -0.021160822361707687, -0.0015908005880191922, -0.08094330877065659, -0.0450623594224453, 0.01631445623934269, 0.1113819032907486, -0.0013100143987685442, -0.09287472814321518, -0.08560068905353546], [0.11030780524015427, 0.07467552274465561, -0.026353318244218826, -0.050494235008955, -0.059844303876161575, -0.10229667276144028, -0.010191494598984718, 0.06078248471021652, -0.03577907010912895, 0.03403378650546074, 0.04215506091713905, -0.031389519572257996, -0.10899871587753296, 0.009980184957385063, -0.05637282133102417, 0.11644257605075836, 0.03611272573471069, -0.00592665234580636, -0.044421128928661346, -0.023842373862862587, 0.08341660350561142, 0.018828798085451126, -0.08712959289550781, -0.07048749923706055, 0.026767628267407417, -0.10138226300477982, 0.06059439480304718, -0.025546971708536148, -0.03990770876407623, 0.023208964616060257, -0.016950780525803566, -0.06802375614643097, 0.03486328944563866, 0.043380461633205414, -0.06334711611270905, -0.05558816343545914, -0.038541700690984726, 0.003365901531651616, 0.0097967479377985, -0.07421001046895981, 0.020475760102272034, -0.011026441119611263, 0.05215736851096153, -0.07348750531673431, -0.008753569796681404, 0.060092743486166, 0.02171657793223858, 0.08314337581396103, 0.026711653918027878, 0.12566113471984863, -0.022308558225631714, -0.0791596919298172, 0.0010126063134521246, -0.06123361736536026, -0.0538143515586853, 0.024515291675925255, -0.06943904608488083, 0.07584626972675323, -0.011893094517290592, -0.02852516807615757, -0.016445092856884003, 0.0167531818151474, 0.00829814188182354, -0.11177587509155273], [-0.019051004201173782, -0.013006698340177536, 0.054123956710100174, 0.048662684857845306, 0.031015079468488693, -0.11952101439237595, 0.07607726752758026, -0.10867965221405029, 0.013280265033245087, -0.07652302086353302, -0.08478891849517822, 0.06819021701812744, 0.02859579399228096, 0.03861529380083084, -0.11371705681085587, -0.0035496859345585108, 0.05108267441391945, 0.13517756760120392, -0.12204048782587051, 0.007594199851155281, 0.07861418277025223, -0.07790901511907578, -0.022595463320612907, -0.08387880027294159, -0.11173638701438904, -0.08171074092388153, 0.03499282896518707, -0.058689139783382416, 0.015613304451107979, -0.0889415293931961, -0.048020657151937485, 0.04416915401816368, -0.06669595092535019, 0.03561573475599289, 0.04019859433174133, -0.02487240545451641, 0.04066244140267372, -0.008605762384831905, -0.07973329722881317, -0.0931832417845726, 0.008357236161828041, 0.029806941747665405, 0.02935902029275894, -0.03674142062664032, -0.024167818948626518, -0.02440703846514225, 0.10115041583776474, -0.006606204900890589, 0.033764589577913284, -0.03693589195609093, -0.0716141015291214, 0.06051057204604149, 0.04164338856935501, 0.001948864315636456, 0.025124596431851387, 0.07367482781410217, -0.019687773659825325, 0.07692904025316238, -0.000764194643124938, -0.06531251221895218, 0.06688885390758514, -0.02218473330140114, -0.0328742191195488, -0.023548804223537445], [-0.020325085148215294, -0.09387622028589249, 0.019037935882806778, -0.07683892548084259, 0.05571570619940758, 0.04333128407597542, 0.01717229001224041, -0.0003625211538746953, 0.022737018764019012, -0.057827070355415344, 0.047446247190237045, -0.018147552385926247, -0.09809358417987823, -0.01900346204638481, -0.034691356122493744, 0.06653047353029251, 0.10074459761381149, -0.01942216232419014, -0.008949237875640392, 0.030513564124703407, 0.05834010988473892, -0.07487650960683823, -0.002388792345300317, -0.05653407797217369, -0.05075372755527496, -0.06152462959289551, 0.01071145012974739, -0.03324757143855095, 0.016993805766105652, 0.031389616429805756, -0.013775067403912544, 0.05903725326061249, -0.0391063466668129, 0.01606503129005432, 0.022091226652264595, -0.03142330050468445, 0.000625935907009989, -0.07980550080537796, -0.09658421576023102, -0.10805290192365646, 0.042243119329214096, -0.038374073803424835, -0.08091908693313599, 0.029426399618387222, -0.05910269170999527, 0.06521052867174149, 0.07756926864385605, 0.10187491029500961, -0.01547003723680973, 0.023859893903136253, -0.06294605135917664, -0.07641048729419708, -0.046733301132917404, -0.014424561522901058, 0.10242553055286407, 0.05079786852002144, -0.06140180304646492, -0.0018663095543161035, -0.019488630816340446, 0.033676180988550186, 0.07556577026844025, 0.05148840323090553, -0.09409472346305847, 0.038962941616773605], [0.04170383885502815, 0.04973974823951721, -0.026869775727391243, 0.01395304873585701, 0.005347264464944601, -0.03348010033369064, 0.09657760709524155, -0.03927560895681381, 0.08108478039503098, -0.03657945245504379, -0.053006742149591446, 0.07723691314458847, -0.043135154992341995, -0.011911113746464252, -0.02692159079015255, 0.1040397435426712, 0.005582170560956001, -0.05510047450661659, 0.021514322608709335, -0.07498767971992493, 0.032318342477083206, -0.07577598839998245, 0.016535770148038864, -0.043655361980199814, -0.037563107907772064, -0.03239568695425987, -0.07245688140392303, -0.017553173005580902, 0.0006183990044519305, -0.03991595283150673, -0.03225095570087433, 0.06774624437093735, 0.028107939288020134, -0.012258623726665974, -0.02651817724108696, -0.044824182987213135, -0.062700554728508, -0.012366322800517082, 0.07820504158735275, -0.11388737708330154, 0.03956150636076927, 0.008696814998984337, -0.012055949307978153, 0.021542517468333244, -0.0041834572330117226, 0.07659649103879929, -0.040952105075120926, 0.05301172286272049, -0.107577383518219, -0.05035058781504631, -0.0025844594929367304, -0.02373426966369152, -0.07040854543447495, -0.055847372859716415, -0.013911573216319084, 0.08330987393856049, -0.004023370333015919, 0.010478825308382511, -0.05228281766176224, 0.03817098215222359, -0.014592618681490421, 0.04636460915207863, -0.09924625605344772, -0.03902588412165642], [-0.06221038103103638, -0.10969031602144241, 0.005044500809162855, 0.06757745146751404, 0.07589562237262726, 0.029289981350302696, -0.11499615758657455, -0.10716748982667923, 0.04099304974079132, -0.04300092160701752, -0.06931056827306747, 0.11354189366102219, -0.03603604435920715, 0.03482380136847496, -0.0768769383430481, 0.04335574433207512, -0.046572230756282806, -0.001913003739900887, -0.034694377332925797, 0.08906423300504684, -0.0731068029999733, -0.031154006719589233, 0.04840000718832016, 0.01247493177652359, -0.023660829290747643, 0.011355138383805752, -0.020414527505636215, -0.01464315876364708, -0.04860467463731766, -0.04014259949326515, 0.0023288445081561804, -0.037105854600667953, -0.09134113788604736, -0.0195173267275095, 0.0754728838801384, 0.05055888369679451, 0.006389176938682795, -0.014719915576279163, 0.03654612973332405, 0.022815439850091934, -0.084934301674366, 0.018675033003091812, 0.003178583923727274, -0.03496358543634415, 0.05163738131523132, -0.0013721558498218656, -0.007382184267044067, 0.02181067317724228, -0.015122509561479092, 0.027425821870565414, -0.000963623053394258, 0.015649262815713882, 0.08879882842302322, -0.04716966301202774, -0.043044596910476685, 0.012009110301733017, -0.05257208272814751, 0.018106207251548767, 0.09405042231082916, 0.04917221888899803, -0.019723568111658096, 0.018920648843050003, -0.07771482318639755, 0.02516046352684498], [0.0038330373354256153, 0.11191391944885254, 0.06595251709222794, -0.023908575996756554, -0.10294923186302185, 0.06180715933442116, -0.05850758031010628, 0.05894097313284874, -0.10524783283472061, -0.03311162069439888, -0.006345435976982117, -0.0069179842248559, 0.06373606622219086, -0.013309821486473083, -0.09199167042970657, -0.04865892976522446, -0.06534576416015625, -0.01851952262222767, 0.03979947045445442, 0.012522336095571518, 0.01870471052825451, 0.12624318897724152, 0.02859543077647686, 0.005502487067133188, -0.00978175736963749, -0.0285087451338768, -0.03258906304836273, -0.04649289324879646, -0.020747948437929153, 0.018728727474808693, -0.0731443539261818, -0.025274090468883514, 0.041516296565532684, 0.08144870400428772, -0.04572112858295441, 0.01981184259057045, -0.02053448185324669, 0.05336373299360275, -0.01454224344342947, -0.044112712144851685, 0.02604643814265728, -0.04876221716403961, 0.08862108737230301, -0.02379782870411873, 0.06065403297543526, -0.06592290103435516, -0.0374181866645813, 0.043279554694890976, 0.0320865660905838, 0.0483955517411232, -0.0649363324046135, -0.0786563977599144, -0.02691209502518177, 0.0164495836943388, -0.09290455281734467, -0.0732683315873146, 0.029833916574716568, 0.01951674371957779, -0.028139470145106316, -0.018417079001665115, -0.07731355726718903, 0.004845461342483759, 0.10729926079511642, 0.01893140748143196], [-0.08554697036743164, -0.059628844261169434, -0.07083037495613098, -0.06908345967531204, 0.001112442696467042, 0.07401400804519653, -0.07961054891347885, 0.032062605023384094, -0.0700438991189003, -0.005706949159502983, -0.014974044635891914, 0.04839671030640602, -0.019129378721117973, 0.04149544984102249, -0.08310360461473465, -0.06931978464126587, -0.14318318665027618, 0.1316240131855011, 0.00758250430226326, 0.1118810847401619, -0.1340077817440033, 0.0484527088701725, -0.05976173281669617, -0.082529217004776, -0.03577228635549545, 0.0710771381855011, -0.0016963114030659199, 0.0303817056119442, 0.05611850321292877, -0.09200908988714218, 0.03648947551846504, 0.09551656991243362, 0.03232302516698837, -0.024448256939649582, 0.018648961558938026, -0.015595953911542892, -0.02378111705183983, -0.04554878920316696, 0.06880708783864975, 0.02632652036845684, -0.07628151029348373, -0.004133302718400955, -0.06630729138851166, 0.010155587457120419, 0.10556726157665253, -0.013556593097746372, -0.10981293022632599, -0.07759921252727509, 0.035958241671323776, -0.09412426501512527, 0.03437342122197151, 0.011308842338621616, 0.017727937549352646, -0.021291622892022133, -0.10450027883052826, -0.06085270270705223, 0.052569348365068436, -0.03642246127128601, -0.026937538757920265, -0.051422007381916046, 0.04529181495308876, 0.03417789563536644, -0.017384694889187813, 0.025538844987750053], [0.009183193556964397, -0.05725035071372986, 0.020130598917603493, -0.08305143564939499, 0.03729872778058052, 0.045540113002061844, -0.04128412529826164, 0.00010062888031825423, 0.03695247694849968, 0.04878073185682297, -0.03761420398950577, -0.04866288602352142, -0.0391513928771019, -0.05648406967520714, 0.06936571002006531, -0.014188012108206749, 0.03542261943221092, 0.0285529475659132, 0.026575179770588875, -0.023325975984334946, -0.017246214672923088, 0.011003428138792515, -0.03583061322569847, 0.013451552018523216, -0.06139395758509636, -0.023107968270778656, -0.014993195421993732, 0.024109508842229843, 0.029988421127200127, -0.07191932201385498, 0.021166063845157623, 0.002882501343265176, -0.025502778589725494, 0.045469529926776886, -0.07004602253437042, 0.024618934839963913, 0.030147945508360863, 0.006134113296866417, -0.01294816005975008, -0.033244211226701736, -0.002434251829981804, 0.06896233558654785, 0.02828972414135933, 0.07425826042890549, 0.04100373759865761, 0.058604784309864044, 0.04143676534295082, 0.008706768043339252, -0.02363703027367592, -0.026475347578525543, -0.017198245972394943, -0.023762742057442665, -0.005077253095805645, -0.058560751378536224, 0.026610255241394043, 0.001906306715682149, 0.020960135385394096, -0.025926871225237846, -0.020901670679450035, -0.008615441620349884, 0.11479834467172623, -0.03756488487124443, -0.08857037872076035, 0.037518758326768875], [-0.053382184356451035, -0.011063729412853718, 0.008662334643304348, 0.10567927360534668, -0.007465115282684565, -0.05628695338964462, -0.06364960968494415, -0.025131458416581154, -0.02509046159684658, -0.06496207416057587, -0.1339440643787384, 0.018955804407596588, 0.04945215582847595, -0.010271996259689331, -0.08341983705759048, -0.050768930464982986, 0.025872908532619476, 0.08011138439178467, -0.07127896696329117, 0.008463473059237003, -0.00641122180968523, -0.09787163138389587, -0.08037301898002625, 0.0305954422801733, -0.03318113833665848, -0.03218819200992584, 0.03161977604031563, 0.022351456806063652, 0.042199619114398956, -0.033898547291755676, -0.04039612412452698, -0.026527315378189087, -0.030135925859212875, -0.07009576261043549, 0.016952691599726677, 0.04548077657818794, 0.08983870595693588, -0.02022499591112137, 0.0001794965355657041, -0.025208372622728348, -0.07199396938085556, 0.02488924190402031, -0.06184646114706993, 0.025264620780944824, 0.05298445001244545, -0.05725864693522453, -0.056819889694452286, 0.11782190948724747, 0.05685831233859062, 0.007778651546686888, -0.015758873894810677, 0.07314623147249222, 0.03885079547762871, 0.06534029543399811, -0.03236619755625725, 0.02212645672261715, 0.042585909366607666, 0.0901625007390976, 0.038167715072631836, -0.04345254972577095, -0.10784372687339783, 0.00224473443813622, -0.04290713369846344, 0.06530164927244186], [-0.018649399280548096, 0.038320474326610565, -0.027089159935712814, 0.059470321983098984, -0.09314844757318497, 0.013309331610798836, 0.09659420698881149, -0.0067858705297112465, -0.022413259372115135, -0.023331161588430405, -0.06942570209503174, 0.00017951836343854666, 0.010123643092811108, 0.11277458816766739, -0.07560431957244873, -0.03149033710360527, 0.08639301359653473, -0.10069528222084045, -0.08936931937932968, -0.03570147603750229, -0.020602725446224213, -0.05028119310736656, 0.03530699759721756, -0.06573151797056198, 0.05533001199364662, -0.09887991845607758, -0.028997549787163734, -0.049226656556129456, 0.05287526547908783, 0.004645070992410183, -0.0896616205573082, -0.10073801875114441, -0.08149132877588272, 0.07376127690076828, 0.06664900481700897, -0.06894946098327637, -0.004049396608024836, -0.05880817770957947, -0.11835715174674988, -0.06190250441431999, 0.07564783841371536, -0.023020237684249878, -0.058764342218637466, -0.025843819603323936, 0.021351616829633713, -0.005104612093418837, 0.01104526873677969, 0.002522366354241967, -0.043800998479127884, 0.012611083686351776, -0.0038194037042558193, -0.037556517869234085, 0.07586726546287537, -0.0474022813141346, 0.005439494736492634, -0.020490892231464386, -0.008535092696547508, 0.012288029305636883, -0.04762173071503639, -0.02868984453380108, -0.00269702123478055, 0.0451221689581871, -0.01660085842013359, -0.024150412529706955], [-0.046321991831064224, -0.07269353419542313, 0.03430746868252754, -0.10096230357885361, 0.018132241442799568, -0.024343019351363182, -0.04732832312583923, -0.04036602005362511, 0.04496338218450546, 0.00425615394487977, 0.058190979063510895, 0.10416087508201599, -0.08496033400297165, -0.05591708794236183, 0.024462731555104256, -0.04553432762622833, -0.04982684180140495, 0.019497841596603394, -0.054386816918849945, 0.08375298976898193, -0.08281604945659637, 0.02912803180515766, 0.025614360347390175, -0.07102204859256744, -0.0012982288608327508, -0.0031341942958533764, 0.056547656655311584, -0.10286752879619598, 0.105631522834301, -0.005575019866228104, -0.004057141020894051, -0.0017849811119958758, -0.09294921904802322, -0.04994473233819008, -0.029330600053071976, -0.016439424827694893, -0.0762733742594719, -0.04215187206864357, -0.04666078835725784, 0.02618442289531231, 0.017252231016755104, -0.02949521318078041, 0.028351454064249992, -0.10521886497735977, -0.06322991102933884, -0.09178327023983002, 0.015004943124949932, -0.008605502545833588, -0.03600795939564705, -0.03251516446471214, -0.1057240441441536, 0.045299217104911804, -0.08407235890626907, -0.06784241646528244, 0.048883285373449326, -0.08674795925617218, -0.09058408439159393, 0.11567707359790802, -0.09881819784641266, -0.009444382973015308, -0.07388100028038025, -0.018404541537165642, -0.07007542252540588, 0.09071803092956543], [0.07298564910888672, 0.0505371056497097, -0.016795150935649872, -0.048890482634305954, 0.01455047819763422, -0.07665153592824936, -0.08407407253980637, 0.03401372954249382, 0.011075299233198166, 0.0439307726919651, 0.0326819121837616, -0.049251530319452286, -0.08946222066879272, 0.032457638531923294, 0.013297920115292072, 0.07134603708982468, 0.12130372226238251, -0.03071421943604946, 0.049666449427604675, -0.06139466166496277, 0.03321434184908867, -0.005103362258523703, 0.02031836099922657, -0.0029961655382066965, -0.028303176164627075, 0.02170717343688011, 0.06782485544681549, 0.044741202145814896, -0.03162485733628273, 0.115432970225811, 0.0338321328163147, -0.01139160431921482, -0.10670778900384903, 0.06710994243621826, 0.03125934675335884, -0.051342204213142395, 0.0707266628742218, -0.023385105654597282, -0.09157321602106094, -0.03312591835856438, 0.09341226518154144, -0.08855408430099487, 0.0107449721544981, 0.061195842921733856, -0.10484589636325836, -0.049607131630182266, -0.039646536111831665, -0.03794398531317711, 0.0630568116903305, 0.061954010277986526, 0.005502444691956043, -0.02299671061336994, -0.02164878323674202, 0.015749428421258926, -0.024590520188212395, 0.025699233636260033, -0.11722560226917267, -0.0582740493118763, -0.07955928146839142, 0.05759287625551224, -0.06689950078725815, -0.03363886848092079, -0.0017593615921214223, -0.030611135065555573], [-0.04693957418203354, -0.014526846818625927, 0.03179863467812538, 0.03395838290452957, -0.015811750665307045, 0.007399972528219223, 0.04897875338792801, -0.12121405452489853, 0.006516138091683388, 0.1003718227148056, -0.023229513317346573, 0.08843754976987839, -0.026126686483621597, 0.011458024382591248, 0.06644666939973831, -0.08652602881193161, -0.11535302549600601, -0.0004337731807027012, -0.03027474880218506, -0.01931643672287464, 0.021645812317728996, -0.12239222973585129, -0.017065249383449554, -0.07965242862701416, -0.0017864289693534374, 0.04836196079850197, -0.027186041697859764, 0.07700929045677185, -0.025412246584892273, -0.011421296745538712, 0.10987390577793121, 0.01901945099234581, -0.014040952548384666, -0.04969535395503044, 0.021543031558394432, 0.017760861665010452, 0.03727888688445091, -0.01079483237117529, -0.06184184551239014, 0.031236236914992332, -0.05466863140463829, 0.006510224658995867, -0.011383041739463806, 0.08279098570346832, 0.06802986562252045, 0.027824975550174713, -0.06524570286273956, -0.01693398877978325, 0.04177141189575195, -0.0024396947119385004, 0.06415116786956787, -0.07880092412233353, -0.0021200457122176886, -0.01850644126534462, 0.012615106999874115, -0.08547451347112656, -0.08357895910739899, 0.052938684821128845, 0.023474767804145813, 0.05104973912239075, -0.06953796744346619, 0.0247949305921793, 0.026241596788167953, -0.04880763217806816], [0.012243424542248249, 0.07148227095603943, -0.006353403441607952, -0.06595772504806519, -0.024774471297860146, -0.03710607811808586, -0.06782229989767075, -0.0364871583878994, 0.04450667276978493, 0.035484470427036285, -0.02588893473148346, 0.04558911174535751, -0.04022678732872009, 0.017673566937446594, -0.0027041425928473473, 0.02362678572535515, -0.03054705448448658, 0.07263568043708801, -0.025719039142131805, -0.0030278218910098076, -0.004886981565505266, -0.012086058966815472, 0.02250351570546627, 0.00980625580996275, -0.0008435055497102439, 0.0518493726849556, 0.04720001667737961, 0.038712695240974426, 0.016070595011115074, 0.11325065046548843, 0.017483768984675407, 0.030516061931848526, -0.07998861372470856, 0.027296023443341255, 0.035739898681640625, -0.01598973013460636, 0.06040333956480026, -0.024667270481586456, -0.03931578993797302, -0.06971601396799088, 0.052674081176519394, -0.007837323471903801, 0.05215537175536156, 0.002383116167038679, -0.002202438423410058, -0.07815837115049362, -0.04771369695663452, -0.015643561258912086, 0.05242437124252319, 0.14391176402568817, 0.03972620889544487, -0.02534497156739235, -0.017976872622966766, -0.12252534180879593, -0.0076063512824475765, -0.015094954520463943, 0.004192649852484465, -0.0028064055368304253, -0.06396196037530899, 0.11479956656694412, -0.059267375618219376, -0.06361427903175354, 0.051777780055999756, -0.07993309944868088], [0.06631490588188171, -0.04485530033707619, 0.055588249117136, -0.06533374637365341, -0.0632307231426239, -0.004740649368613958, -0.043728943914175034, -0.014381523244082928, 0.021182546392083168, -0.08628468960523605, 0.0779925137758255, 0.04526440426707268, -0.05764589458703995, 0.05371706932783127, 0.005374740343540907, 0.10351243615150452, -0.0061469110660254955, 0.030865870416164398, 0.041163742542266846, -0.022782370448112488, -0.0249716117978096, -0.0457913801074028, -0.007495190016925335, -0.05409048870205879, 0.0006271865568123758, -0.028384804725646973, 0.12124419957399368, -0.04974188655614853, -0.06551925092935562, 0.01464856881648302, -0.0978674367070198, -0.07250761240720749, -0.044957391917705536, 0.0040803756564855576, 0.012390359304845333, 0.02684023790061474, 0.09403327852487564, 0.05345463380217552, 0.020429613068699837, -0.1118278056383133, 0.005910119507461786, -0.019915323704481125, -0.026331070810556412, 0.04522581398487091, 0.007642912212759256, -1.1222630746487994e-05, -0.03447012975811958, 0.03993060439825058, 0.017429137602448463, -0.016723325476050377, 0.04739011451601982, -0.014710419811308384, 0.017814187332987785, -0.08241239190101624, -0.045643553137779236, -0.049543462693691254, -0.057112038135528564, -0.08978987485170364, -0.09767389297485352, 0.05121422931551933, 0.0009764066198840737, 0.01633637025952339, -0.0027537604328244925, -0.0018892142688855529], [0.07437290251255035, 0.0451870895922184, -0.018885046243667603, -0.05232556536793709, -0.05472037196159363, 0.058145102113485336, -0.059622447937726974, -0.009956288151443005, -0.11768848448991776, 0.0968586802482605, -0.005783652421087027, -0.0793709009885788, 0.04276658967137337, -0.06898297369480133, 0.02704537659883499, 0.05040639638900757, 0.0412464514374733, -0.1063360646367073, -0.01893988437950611, -0.006508220452815294, -0.05797028914093971, -0.01566527597606182, 0.05711052194237709, 0.11174385249614716, 0.11952118575572968, 0.08529182523488998, 0.03035813383758068, 0.01636543497443199, -0.03814180940389633, -0.00709393760189414, -0.07747821509838104, 0.005212724208831787, 0.11835850775241852, 0.06617508828639984, -0.14190933108329773, 0.03360553830862045, -0.0932806134223938, -0.0035757403820753098, 0.10245928168296814, 0.03211475536227226, 0.05431511253118515, 0.06757351011037827, 0.040518179535865784, 0.0841868668794632, -0.07326976954936981, 0.0075938100926578045, 0.032859690487384796, -0.04417940229177475, -0.06961145997047424, 0.0670691728591919, -0.038398005068302155, -0.09750055521726608, -0.14903751015663147, -0.005320246331393719, 0.007849674671888351, 0.01676344871520996, 0.06738601624965668, -0.0005000047385692596, 0.022373110055923462, 0.06520338356494904, -0.02331150509417057, -0.059336286038160324, -0.019482173025608063, -0.037439003586769104], [0.018790001049637794, 0.013604220934212208, 0.012759575620293617, -0.05556311830878258, -0.07792066782712936, 0.02978167124092579, -0.06501385569572449, -0.022383010014891624, 0.035550545901060104, -0.09735600650310516, 0.031413573771715164, 0.08858577907085419, 0.055996816605329514, -0.06349506974220276, -0.08486795425415039, -0.023724770173430443, -0.1046789214015007, -0.020622476935386658, -0.022712726145982742, 0.028701448813080788, 0.055485229939222336, 0.0349862165749073, 0.08564631640911102, 0.02126608043909073, 0.024131473153829575, -0.020107952877879143, -0.11584808677434921, -0.07815778255462646, 0.008454343304038048, -0.0737127736210823, -0.07520350068807602, -0.05734022706747055, -0.07627299427986145, -0.043822575360536575, 0.0023991342168301344, -0.04160963371396065, 0.05444105714559555, -0.06244707107543945, -0.005162536166608334, 0.03726043179631233, -0.02783794514834881, -0.007129186298698187, 0.06997203826904297, -0.08898378163576126, -0.012770161963999271, -0.050807926803827286, 0.07563075423240662, -0.06267150491476059, -0.01249533612281084, -0.07674537599086761, -0.06295739114284515, 0.024564532563090324, 0.03571956604719162, -0.016371140256524086, -0.07018670439720154, 0.02289692498743534, 0.047253116965293884, 0.048262275755405426, 0.05349411815404892, 0.07855480909347534, -0.04543347656726837, 0.04253402724862099, 0.030357500538229942, -0.0034541646018624306], [-0.06346568465232849, -0.06363720446825027, 0.11901983618736267, 0.04184457287192345, -0.028395304456353188, 0.02209402620792389, 0.035129938274621964, -0.06307820975780487, 0.051167700439691544, -0.0033928698394447565, -0.059311412274837494, 0.05649082362651825, -0.060659028589725494, 0.007389748468995094, 0.048078685998916626, -0.06710521131753922, 0.10478583723306656, 0.0004726465849671513, -0.03351438045501709, 0.013754243962466717, 0.0334487222135067, -0.007140186615288258, -0.020256314426660538, -0.09392530471086502, -3.678739085444249e-05, -0.07022260874509811, -0.021479714661836624, 0.047034237533807755, -0.09297233074903488, -0.09142518043518066, 0.01914745196700096, 0.00022230067406781018, -0.056880779564380646, -0.06861726194620132, 0.1053776815533638, -0.0387386828660965, 0.0651659294962883, 0.026709910482168198, -0.1014740839600563, -0.04774317517876625, -0.08620519191026688, 0.05038755387067795, -0.003164716763421893, 0.025559496134519577, -0.018653396517038345, 0.021068362519145012, 0.03169430047273636, 0.09509656578302383, 0.031668223440647125, -0.03184853866696358, 0.030835917219519615, -0.03720727190375328, 0.01830161176621914, 0.046234287321567535, 0.003188604488968849, -0.05175505205988884, -0.013594212010502815, -0.012385067529976368, 0.0422363206744194, -0.09093493223190308, -0.10646119713783264, 0.1187378540635109, 0.060609105974435806, 0.029380392283201218], [0.03635520860552788, -0.11217578500509262, 0.01213318295776844, -0.009162823669612408, -0.02154928632080555, -0.07079795002937317, 0.04911147803068161, 0.0013278269907459617, 0.08378081768751144, -0.04014533385634422, -0.09586356580257416, 0.0007330229273065925, -0.001155911828391254, 0.030173057690262794, -0.06968796998262405, 0.017137017101049423, 0.07340017706155777, 0.09235833585262299, 0.032420434057712555, 0.02133100852370262, -0.02625887654721737, 0.03110600635409355, -0.06716916710138321, -0.10364951193332672, -0.057715605944395065, -0.05590377375483513, -0.046837083995342255, 0.015448284335434437, -0.010103169828653336, -0.018010277301073074, 0.027499018236994743, -0.00760924955829978, -0.09562883526086807, 0.06536690145730972, 0.0003771693736780435, 0.026202183216810226, 0.02393827587366104, 0.035744138062000275, 0.01903332956135273, 0.02904422953724861, -0.00875485222786665, 0.027792194858193398, -0.06210273876786232, -0.031899064779281616, -0.013196568936109543, 0.031034084036946297, 0.06633307039737701, -0.0020508384332060814, -0.05531970039010048, -0.01716836355626583, 0.028273101896047592, -0.03232545033097267, 0.04196394979953766, 0.03748525306582451, 0.046537064015865326, 0.02585059031844139, -0.024293359369039536, 0.06912357360124588, -0.05530081316828728, -0.025822144001722336, 0.026445236057043076, -0.026743171736598015, 0.011173167265951633, -0.047448430210351944], [-0.0460326187312603, -0.036911945790052414, -0.009009185247123241, 0.07626623660326004, 0.03163105994462967, -0.06961441040039062, 0.06261216104030609, 0.05793469399213791, -0.07072865962982178, 0.1453343629837036, 0.04867827147245407, -0.1290077418088913, -0.05862817168235779, -0.04798508808016777, 0.06547732651233673, 0.049323342740535736, -0.03595157340168953, -0.14299218356609344, -0.012074734084308147, 0.020083077251911163, 0.04613449051976204, -0.07080523669719696, 0.010944453068077564, 0.0984535738825798, -0.04851190373301506, 0.10028580576181412, 0.004670534282922745, 0.007083810865879059, -0.04065318778157234, -0.006842405069619417, 0.027629315853118896, -0.006452944129705429, 0.0888054370880127, -0.06609653681516647, 0.10832016170024872, -0.02858157828450203, 0.051448967307806015, 0.06528295576572418, 0.055775485932826996, 0.09583248198032379, 0.0070745814591646194, 0.12535464763641357, -0.000265729904640466, 0.07725604623556137, 0.02292749285697937, -0.010080622509121895, 0.008383416570723057, -0.05865597352385521, 0.12339568883180618, -0.04685325548052788, -0.022306375205516815, 0.06463326513767242, -0.04034626483917236, -0.02515534497797489, 0.06493053585290909, -0.029844088479876518, -0.01688344217836857, 0.0058736070059239864, 0.020296992734074593, -0.09357387572526932, -0.0004364413907751441, -0.0016658290987834334, -0.014032615348696709, -0.053569987416267395], [0.0043583824299275875, 0.028901636600494385, 0.007766032125800848, -0.034559428691864014, -0.00950158666819334, 0.01526406966149807, -0.025206690654158592, -0.10762051492929459, 0.024473220109939575, -0.05028682202100754, 0.044083576649427414, -0.07821840792894363, 0.03537049517035484, -0.03701559081673622, -0.016539813950657845, 0.029582001268863678, 0.023796312510967255, 0.02534511126577854, 0.018066909164190292, 0.002135078189894557, 0.051580384373664856, -0.03566110134124756, -0.022069403901696205, -0.08648007363080978, -0.0826844796538353, 0.005982627160847187, -0.07636679708957672, 0.0034713319037109613, -0.02069813758134842, 0.025117073208093643, -0.03331701457500458, -0.0009136939188465476, -0.035770971328020096, 0.015877703204751015, -0.01958206109702587, -0.006113144569098949, 0.09964597970247269, 0.08250150829553604, 0.017493732273578644, -0.027734873816370964, -0.037836913019418716, -0.01593993790447712, 0.024905798956751823, -0.010904728434979916, -0.11156849563121796, 0.015375996008515358, 0.059414975345134735, -0.015023162588477135, 0.10038337856531143, -0.019473813474178314, 0.02324063517153263, 0.08024918287992477, 0.06847923249006271, -0.009081406518816948, -9.594080620445311e-05, 0.10485720634460449, -0.020893966779112816, -0.03141888603568077, -0.05421137437224388, 0.017431344836950302, 0.10771460831165314, -0.02389797940850258, 0.07329867035150528, 0.02505553886294365], [0.012911832891404629, -0.06851360946893692, -0.0778488963842392, 0.011987338773906231, 0.014739662408828735, -0.0019900344777852297, 0.03033018298447132, 0.02943340130150318, 0.0854291096329689, 0.027556832879781723, -0.06567312777042389, 0.03648820519447327, 0.03566210716962814, 0.08069490641355515, -0.005003420170396566, 0.019532592967152596, -0.10154920816421509, 0.09625858813524246, -0.08483321219682693, 0.03252531960606575, 0.019930070266127586, -0.06304711848497391, -0.05331766977906227, -0.043825261294841766, -0.018792107701301575, -0.008596098981797695, 0.04398674890398979, 0.04832126945257187, 0.08036833256483078, -0.08610819280147552, 0.006685519590973854, 0.030911503359675407, 0.03966972604393959, 0.010527917183935642, -0.056189410388469696, -0.059648819267749786, -0.0428435318171978, -0.015036056749522686, 0.04984214901924133, -0.031465835869312286, -0.05540306493639946, -0.04772012680768967, -0.04631099849939346, 0.011038077063858509, -0.010084928013384342, 0.034338388592004776, 0.008105594664812088, 0.009560596197843552, -0.04703459516167641, 0.051661886274814606, -0.007069476414471865, -0.04492446035146713, -0.06088478863239288, -0.008774983696639538, 0.0955476239323616, -0.0058202967047691345, -0.0399339497089386, -0.012299299240112305, 0.03812362253665924, -0.018874172121286392, 0.0202033668756485, -0.07942893356084824, -0.06371881812810898, -0.08567837625741959], [-0.044385895133018494, 0.03039740025997162, -0.05462648347020149, 0.059901006519794464, -0.01031326875090599, 0.08993056416511536, -0.07942532747983932, -0.019454896450042725, -0.0008920234977267683, -0.0678364634513855, -0.026272563263773918, -0.005478941835463047, 0.009063863195478916, -0.10877467691898346, 0.028946205973625183, -0.012763682752847672, -0.04549499601125717, 0.10773589462041855, 0.0926632285118103, 0.03592536970973015, -0.056327156722545624, -0.004186292178928852, 0.10791715979576111, -0.018658695742487907, -0.03300054743885994, -0.08937593549489975, -0.06575565040111542, 0.027954982593655586, 0.04453813284635544, -0.08370639383792877, 0.062128644436597824, -0.02316436916589737, 0.04453160986304283, -0.12201609462499619, -0.03406134247779846, 0.055816326290369034, -0.021989598870277405, -0.10518649220466614, 0.10101989656686783, -0.018435699865221977, -0.031673137098550797, -0.09139092266559601, 0.045589953660964966, 0.02610154263675213, -0.0026829829439520836, -0.07420910149812698, -0.06739624589681625, 0.0018305486300960183, -0.04814067482948303, -0.03375377506017685, 0.0002964826417155564, -0.048431433737277985, 0.03571278229355812, 0.06211447715759277, -0.02924611233174801, -0.07476664334535599, 0.05164191126823425, -0.018140846863389015, 0.041466124355793, -0.01749305985867977, -0.06279991567134857, 0.05997750908136368, -0.0031056469306349754, 0.08611369878053665], [0.012776985764503479, 0.08970291167497635, 0.06464261561632156, 0.07900141924619675, -0.06121043860912323, -0.047986097633838654, -0.07111107558012009, -0.004745324142277241, 0.04045215621590614, -0.009142335504293442, 0.10854579508304596, -0.024463512003421783, -0.010928170755505562, 0.02729848027229309, -0.11126682162284851, -0.05338656157255173, 0.04325464740395546, -0.043877966701984406, 0.08321531116962433, -0.016438353806734085, -0.015109939500689507, 0.04981033876538277, 0.01481461152434349, 0.021967189386487007, -0.027341146022081375, -0.0467500165104866, 0.09882265329360962, -0.019575560465455055, 0.03929796814918518, 0.09055326133966446, -0.10631997138261795, -0.11983636021614075, -0.09430213272571564, -0.01734389364719391, 0.07644305378198624, -0.10216575860977173, -0.035316351801157, 0.01719488389790058, -0.029057782143354416, 0.03001760132610798, 0.0032145471777766943, -0.03085697814822197, 0.013494256883859634, 0.0344187431037426, -0.08899188786745071, -0.08413451164960861, -0.07850436866283417, -0.07078509777784348, -0.01764778606593609, -0.03377993032336235, -0.0922369658946991, -0.02953365072607994, -0.029092390090227127, -0.07064486294984818, -0.009764616377651691, 0.008332270197570324, -0.053357064723968506, 0.04334378242492676, -0.006299255881458521, -0.05713598430156708, -0.05898033082485199, -0.0005034866626374424, 0.09392033517360687, -0.04695122316479683], [0.044969506561756134, 0.034270189702510834, 0.12702327966690063, -0.0157125536352396, -0.004482194781303406, -0.11407090723514557, -0.04072608798742294, 0.04495647922158241, 0.02885882742702961, -0.08271217346191406, 0.0038283502217382193, -0.09784668684005737, -0.09426502883434296, 0.11672745645046234, -0.055764809250831604, 0.08414411544799805, 0.06750724464654922, -0.08989239484071732, 0.023018544539809227, -0.08131026476621628, 0.02078859508037567, 0.05684441700577736, -0.016734294593334198, -0.030208183452486992, 0.022232256829738617, -0.09383586794137955, 0.12375369668006897, 0.024193741381168365, -0.015540574677288532, 0.06856407225131989, -0.05331435427069664, -0.00595508748665452, -0.07444437593221664, 0.07702336460351944, -0.06435483694076538, -0.02770419791340828, 0.05982884019613266, 0.10851110517978668, -0.024319203570485115, 0.01734042353928089, 0.09593965113162994, 0.01744965836405754, -0.04297507554292679, -0.0020270494278520346, -0.12237567454576492, 0.009950737468898296, 0.06826475262641907, 0.08201456069946289, 0.012345409020781517, 0.09546720236539841, -0.02834082767367363, -0.06324875354766846, 0.0068442318588495255, 0.008764585480093956, 0.017505159601569176, -0.011634078808128834, -0.027236739173531532, -0.029816284775733948, 0.03552771732211113, -0.07791975885629654, -0.026701103895902634, 0.061932723969221115, -0.01109511498361826, 0.016983909532427788], [0.005281954538077116, 0.03631168231368065, 0.09760909527540207, 0.10104163736104965, 0.00036406805156730115, -0.06644805520772934, -0.051612235605716705, 0.05701723322272301, -0.07460219413042068, -0.0768318772315979, -0.0052933357656002045, -0.06389915943145752, -0.0844486728310585, -0.030202237889170647, 0.038265734910964966, -0.01738002523779869, 0.05698968470096588, 0.03731635957956314, 0.04238799586892128, 0.07375010848045349, 0.01689852960407734, -0.017985716462135315, 0.029174601659178734, -0.04331605136394501, -0.023822564631700516, -0.01718098297715187, -0.017436839640140533, -0.07089600712060928, -0.06336302310228348, 0.031260862946510315, -0.06594856828451157, -0.06838390976190567, 0.001574537716805935, 0.05570376664400101, 0.03207610920071602, -0.06279073655605316, 0.002096791286021471, 0.11106982827186584, -0.06573307514190674, -0.018792539834976196, 0.06926403194665909, -0.042172424495220184, 0.03608317673206329, 0.0309088584035635, 0.003077334025874734, 0.004301961045712233, -0.00791787076741457, 0.027613215148448944, -0.060680318623781204, -0.01119315903633833, -0.03974565118551254, 0.07598095387220383, -0.02884664013981819, -0.05571097508072853, -0.087485171854496, 0.03428635373711586, 0.0072209457866847515, -0.013736081309616566, 0.01733623445034027, 0.09751061350107193, 0.025526979938149452, -0.04364204406738281, 0.05642770230770111, -0.025739900767803192], [0.01011640764772892, -0.08752033114433289, -0.021715950220823288, 0.018884241580963135, -0.022978730499744415, -0.04674989730119705, -0.04152989760041237, -0.07959148287773132, -0.10229156166315079, 0.009638622403144836, -0.017608026042580605, -0.07477379590272903, 0.03503995016217232, -0.05338871851563454, 0.1491427719593048, -0.010369922034442425, 0.0027881546411663294, -0.039285555481910706, -0.08933361619710922, -0.03129350766539574, -0.08262063562870026, -0.10748060047626495, -0.010499660857021809, 0.013321896083652973, -0.07913097739219666, 0.05465586110949516, -0.07939323037862778, 0.038146138191223145, -0.022048549726605415, -0.0031850370578467846, 0.08198138326406479, 0.10226687788963318, 0.025466537103056908, -0.031092096120119095, 