{"format": "handglow_mlp_v1", "created": "2026-04-20T01:59:05.751516", "accuracy": 1.0, "labels": ["BAD", "CALL", "GOOD", "HELLO", "LOVE", "MILK"], "n_features": 11, "feature_names": ["R.Thumb", "R.Index", "R.Middle", "R.Ring", "R.Pinky", "aX1", "aY1", "aZ1", "gX1", "gY1", "gZ1"], "normalization": {"mean": [0.2303753780739801, 0.527419895349503, 0.8696778355243779, 0.8582230623818525, 0.5717767485098769, 0.7075061433717946, -0.11475567081792408, -0.2608331758384254, 0.2612438563870122, -0.4403194710330612, 0.9138686200339763], "std": [0.40702538261615834, 0.43996075969476534, 0.3342774652259331, 0.34882121147913225, 0.4934846595893935, 0.26767863385746316, 0.4180818457699752, 0.47523543300490356, 0.026197936142503497, 0.05243910885907833, 0.027927747832541993]}, "layers": [{"weights": [[-0.21890412271022797, -0.10858690738677979, 0.11856623739004135, -0.1740006059408188, -0.18663698434829712, 0.14920860528945923, -0.23330366611480713, -0.08593647927045822, 0.027906600385904312, -0.15136873722076416, -0.2626926600933075, -0.19393549859523773, 0.17715512216091156, 0.1322542130947113, 0.2966504395008087, 0.12147369235754013, -0.10717199742794037, 0.25321003794670105, 0.06931851804256439, -0.27800941467285156, -0.05602530017495155, 0.16344089806079865, -0.20627373456954956, 0.06162905693054199, 0.07240301370620728, 0.15513963997364044, -0.08318817615509033, -0.22305898368358612, 0.27065882086753845, 0.22313769161701202, -0.20760901272296906, 0.14021866023540497, -0.30750253796577454, 0.29084837436676025, 0.1961527317762375, -0.2034485936164856, 0.2063988298177719, 0.047871947288513184, 0.13368847966194153, 0.14975756406784058, -0.05211324244737625, 0.027224784716963768, -0.28970590233802795, 0.0743984654545784, -0.06430228799581528, 0.25551295280456543, 0.34422188997268677, 0.049770060926675797, -0.14489585161209106, 0.029725534841418266, 0.1808587610721588, -0.2993529140949249, 0.11397694051265717, 0.14488138258457184, -0.15524181723594666, 0.29081594944000244, 0.09723123162984848, 0.19729281961917877, -0.2567885220050812, 0.21951225399971008, 0.09878808259963989, -0.2561056911945343, 0.151616171002388, 0.19428296387195587, -0.055924609303474426, -0.3023313879966736, 0.024964118376374245, 0.1550319343805313, 0.01160074770450592, 0.0613408237695694, 0.04955291002988815, -0.1951783299446106, -0.1837151050567627, 0.05586283653974533, 0.10568120330572128, -0.25193116068840027, 0.045666757971048355, 0.30871152877807617, 0.052332598716020584, -0.2952968180179596, 0.21581220626831055, 0.270952045917511, -0.17455585300922394, -0.02286757528781891, 0.19773587584495544, 0.07533766329288483, 0.051238249987363815, 0.1908910572528839, -0.0523652546107769, 0.2920077443122864, 0.06833834201097488, 0.05029050260782242, -0.08875083178281784, -0.03310249373316765, 0.04647175967693329, 0.05764946714043617, -0.196986585855484, -0.1727944165468216, 0.06321528553962708, -0.03698569908738136, 0.23063413798809052, 0.2304185926914215, 0.13865500688552856, -0.17440511286258698, -0.15859481692314148, -0.08229605853557587, -0.016924651339650154, 0.03750574216246605, -0.0041829743422567844, -0.16509073972702026, 0.001556285424157977, -0.1938527226448059, 0.10095150023698807, -0.052433304488658905, 0.1394445300102234, 0.09373823553323746, 0.04923492670059204, -0.09313244372606277, -0.00887212809175253, -0.2767409384250641, -0.017419490963220596, -0.13913598656654358, -0.1477539837360382, 0.22139742970466614, 0.26823028922080994, -0.09399983286857605, -0.13123489916324615, 0.12492946535348892], [-0.1613101363182068, -0.3195560872554779, -0.10144884139299393, 0.1983543485403061, 0.07703420519828796, 0.2675328552722931, 0.060124970972537994, 0.25276967883110046, -0.05462005361914635, 0.2499855011701584, 0.1614609658718109, 0.2783396542072296, -0.22648915648460388, 0.1788366287946701, -0.25460323691368103, 0.22462747991085052, -0.19481125473976135, 0.057475633919239044, 0.1886294037103653, 0.0914166122674942, -0.08588302880525589, 0.26840806007385254, 0.03025747649371624, -0.24082745611667633, -0.03162140026688576, -0.2799000144004822, -0.01395593211054802, -0.11191641539335251, -0.18881219625473022, -0.0895504578948021, -0.141829252243042, -0.2632101774215698, 0.13149888813495636, 0.11693279445171356, 0.15231873095035553, 0.024728212505578995, 0.1548108011484146, 0.03723092004656792, 0.2931312024593353, -0.10856197029352188, -0.21173574030399323, -0.20485040545463562, 0.24700936675071716, 0.11005358397960663, 0.05915374681353569, 0.07361779361963272, 0.12113248556852341, 0.20744040608406067, -0.18685051798820496, 0.2112395465373993, 0.2018761783838272, -0.050448011606931686, -0.046635426580905914, -0.04290920868515968, -0.2765558958053589, 0.22475476562976837, -0.1654382050037384, -0.12060462683439255, 0.21942365169525146, 0.11587156355381012, -0.16761699318885803, 0.31306853890419006, 0.0444667711853981, -0.1288681924343109, 0.31816989183425903, -0.15605835616588593, -0.1395135372877121, -0.23277460038661957, 0.20167575776576996, -0.00747575843706727, 0.2496592104434967, -0.10985073447227478, -0.07102367281913757, 0.10751599073410034, 0.24573783576488495, -0.12346723675727844, -0.22056758403778076, 0.024056309834122658, 0.09999441355466843, -0.25055381655693054, 0.21790236234664917, 0.13646385073661804, 0.10408254712820053, -0.21336448192596436, 0.24049846827983856, 0.2255399078130722, 0.059420257806777954, 0.34114721417427063, 0.3147566020488739, 0.056933771818876266, -0.32776182889938354, -0.3072974681854248, -0.33037087321281433, -0.20916694402694702, 0.3282618820667267, 0.09911037236452103, -0.2853655517101288, 0.10041937977075577, -0.023740429431200027, 0.07258646190166473, -0.27026796340942383, -0.3016398251056671, -0.09795710444450378, -0.3390747904777527, -0.24499855935573578, -0.12940965592861176, 0.2666045129299164, -0.19071049988269806, 0.23340356349945068, -0.15223702788352966, 0.009521890431642532, 0.21379238367080688, 0.10259146988391876, 0.2569366693496704, -0.319283127784729, 0.3359629809856415, -0.20333707332611084, 0.06137610599398613, 0.00027146769571118057, 0.10495687276124954, -0.1823359876871109, 0.13843874633312225, 0.15152409672737122, -0.2082790583372116, 0.12188126146793365, -0.1265438199043274, -0.10507238656282425, 0.15463651716709137], [0.15422910451889038, 0.184578076004982, 0.3305034935474396, -0.26740777492523193, 0.12870654463768005, 0.08709373325109482, -0.24668803811073303, -0.032646067440509796, 0.16054946184158325, 0.3168048560619354, 0.16817140579223633, -0.23265136778354645, -0.048071056604385376, 0.03720643371343613, -0.060027752071619034, 0.08484765142202377, -0.07552064210176468, 0.23460017144680023, 0.1470929980278015, -0.0365147665143013, 0.1910955160856247, 0.1199188306927681, 0.13589701056480408, 0.0340866856276989, 0.09300313889980316, 0.13112753629684448, -0.21906863152980804, 0.060359057039022446, 0.3317567706108093, -0.14264968037605286, -0.29575973749160767, -0.1490374654531479, -0.27422279119491577, 0.19121979176998138, 0.2522960901260376, -0.10999960452318192, 0.17571334540843964, -0.26253053545951843, 0.11212790757417679, 0.036640629172325134, 0.15848152339458466, -0.16040009260177612, 0.22753700613975525, -0.26900148391723633, 0.2323315590620041, -0.27303504943847656, -0.2815451920032501, -0.11482598632574081, 0.03827379643917084, 0.1387547105550766, -0.0928645133972168, 0.26226168870925903, 0.19737514853477478, 0.0035098944790661335, 0.04152951017022133, -0.17129358649253845, 0.13025882840156555, 0.10970158874988556, 0.21249142289161682, 0.1831684410572052, -0.043859608471393585, 0.04143446311354637, -0.06867463141679764, 0.13817237317562103, 0.06604643166065216, -0.2385987639427185, -0.0653797835111618, -0.13101227581501007, 0.18015576899051666, 0.2141852229833603, -0.20644511282444, -0.2681356966495514, 0.2657443881034851, -0.027254553511738777, -0.14351853728294373, -0.2405702918767929, -0.10877005010843277, -0.008871491998434067, 0.009761234745383263, 0.11533356457948685, -0.16901321709156036, 0.1203765943646431, 0.16942457854747772, -0.19994062185287476, -0.15310055017471313, -0.12499680370092392, -0.21680361032485962, -0.04967551678419113, 0.032915182411670685, -0.06699569523334503, -0.16876915097236633, 0.023993603885173798, -0.05378223955631256, 0.1676853597164154, 0.02231510728597641, 0.05476502701640129, 0.24478952586650848, -0.23890221118927002, -0.19173800945281982, -0.14860203862190247, -0.026438681408762932, 0.25984135270118713, 0.06744799762964249, 0.20595964789390564, 0.144895538687706, -0.2449561208486557, -0.2643517255783081, 0.1349264532327652, 0.17117314040660858, -0.04317260906100273, -0.1545092910528183, -0.23432902991771698, 0.14466609060764313, 0.10414783656597137, -0.14651218056678772, 0.2113872766494751, 0.18403930962085724, -0.03414146229624748, 0.04652542248368263, 0.19412711262702942, -0.29043617844581604, -0.023367898538708687, 0.12904883921146393, 0.1521560102701187, -0.25839799642562866, 0.21426446735858917, -0.07266505807638168, 0.21318845450878143], [-0.11251989752054214, 0.23955118656158447, -0.036191198974847794, 0.06593538075685501, 0.328340619802475, -0.1302824169397354, 0.22498971223831177, 0.2390967458486557, 0.0705680251121521, -0.001449774601496756, 0.03755025565624237, -0.08565972745418549, -0.11412427574396133, -0.33079755306243896, -0.23256826400756836, -0.23024176061153412, -0.21137139201164246, 0.24808993935585022, 0.2684566080570221, 0.027831707149744034, 0.22840151190757751, -0.08408955484628677, -0.0074525498785078526, -0.273027628660202, 0.20273151993751526, 0.3222247064113617, -0.2350936084985733, 0.1000034436583519, 0.2563113272190094, -0.21518804132938385, 0.200344979763031, -0.12482539564371109, 0.18291737139225006, 0.1538958102464676, 0.24725346267223358, 0.15789972245693207, -0.20923085510730743, 0.30830255150794983, -0.23806028068065643, -0.28416475653648376, 0.01778355799615383, -0.2818053662776947, 0.09548864513635635, 0.19936591386795044, 0.05159803479909897, -0.026339994743466377, 0.07220172137022018, -0.22248642146587372, -0.1817036122083664, -0.2562827169895172, 0.07041957974433899, -0.25468555092811584, 0.17671287059783936, 0.030381428077816963, 0.1480780392885208, 0.1300281584262848, -0.16731193661689758, -0.16202762722969055, -0.14239501953125, -0.15972450375556946, 0.16171516478061676, -0.06986865401268005, -0.04236951842904091, 0.19844071567058563, -0.09924255311489105, -0.24228088557720184, 0.2276354432106018, 0.18927593529224396, -0.2667592763900757, -0.04721991345286369, 0.1210334375500679, 0.0903816893696785, 0.23073673248291016, -0.2875218987464905, 0.16271436214447021, -0.06176783889532089, 0.32761532068252563, 0.2629246711730957, -0.32777392864227295, -0.11695083230733871, 0.021591026335954666, -0.1569068282842636, -0.05669279396533966, -0.026616718620061874, -0.1883905529975891, 0.12857408821582794, -0.005338520742952824, 0.038959238678216934, -0.10750392079353333, -0.1475171595811844, -0.02287331409752369, 0.2559681236743927, -0.17787568271160126, 0.2429659366607666, -0.029488874599337578, -0.04134652763605118, 0.15606632828712463, -0.16256380081176758, 0.0899026095867157, 0.055508993566036224, 0.036192793399095535, -0.22304591536521912, 0.2225942462682724, -0.10358742624521255, -0.2162686139345169, -0.0902804508805275, -0.1341109424829483, 0.2250901758670807, -0.1750086545944214, -0.18185396492481232, -0.3007846772670746, -0.2544832229614258, -0.22942078113555908, 0.2432354986667633, 0.2532268762588501, 0.1953536868095398, 0.26941943168640137, 0.09715188294649124, -0.07591592520475388, -0.22382362186908722, -0.3151319622993469, 0.10224208235740662, 0.2784869074821472, -0.3047308623790741, -0.2975381314754486, 0.11024096608161926, -0.22617276012897491, -0.1393543928861618], [-0.2535703778266907, 0.21022246778011322, 0.10559149086475372, 0.15301325917243958, -0.06423847377300262, -0.12798964977264404, 0.21068842709064484, -0.24062852561473846, -0.310019850730896, -0.0014144291635602713, -0.04088302701711655, 0.3525678515434265, 0.08093903958797455, 0.020508915185928345, -0.1308211088180542, -0.16793105006217957, -0.06917696446180344, -0.30035269260406494, 0.287383109331131, 0.014612806029617786, 0.1707908660173416, -0.3067122995853424, 0.1691080778837204, 0.22512470185756683, 0.1939210593700409, -0.14713792502880096, -0.27827438712120056, -0.16235576570034027, -0.11588133871555328, 0.07581368088722229, -0.15292689204216003, -0.152886763215065, -0.000924991094507277, 0.3624776303768158, 0.18632331490516663, 0.19428059458732605, -0.01881929114460945, -0.2110326588153839, 0.1278848946094513, -0.21251951158046722, 0.12980437278747559, -0.042960140854120255, 0.15211212635040283, 0.3212601840496063, 0.05336364358663559, 0.14254507422447205, -0.18983733654022217, 0.18465709686279297, -0.09567399322986603, -0.057282816618680954, 0.012485357001423836, -0.21780268847942352, 0.08605193346738815, -0.1365923434495926, 0.18394188582897186, 0.19598795473575592, 0.2923951745033264, 0.13467130064964294, 0.24874338507652283, -0.17806990444660187, -0.2791871130466461, -0.254871129989624, 0.1677815318107605, -0.044088903814554214, -0.2675955891609192, 0.14657720923423767, 0.04565705358982086, -0.28934749960899353, 0.12606500089168549, -0.1184530258178711, 0.11529836803674698, 0.2589735686779022, -0.10123921930789948, 0.12166580557823181, -0.2734723687171936, -0.16180987656116486, -0.004665105603635311, 0.05631612241268158, 0.08674655854701996, 0.055821292102336884, 0.34452709555625916, 0.06452927738428116, -0.27341195940971375, 0.28259968757629395, 0.05525705963373184, -0.1899677813053131, -0.3013937771320343, -0.2062578797340393, -0.22675584256649017, -0.2941610515117645, 0.08810080587863922, -0.14140667021274567, 0.19927655160427094, 0.17227588593959808, 0.16136932373046875, -0.036020874977111816, 0.1575486958026886, 0.007111333776265383, 0.06923873722553253, 0.2869657874107361, 0.08034534752368927, 0.15113626420497894, -0.0437052845954895, 0.18986542522907257, -0.054077621549367905, -0.27292579412460327, 0.3083852231502533, -0.1000152975320816, 0.3177085518836975, 0.029772557318210602, 0.07021589577198029, -0.1389869749546051, -0.09143519401550293, 0.1918310523033142, 0.19263221323490143, -0.1993212103843689, -0.144663468003273, 0.1090083196759224, 0.28596216440200806, 0.11180523782968521, 0.1647414267063141, 0.2988741397857666, -0.23240803182125092, -0.006284345407038927, 0.06732352077960968, 0.1681821197271347, -0.13780882954597473, 0.14360255002975464], [-0.270454466342926, -0.23728856444358826, 0.0666041448712349, -0.14550897479057312, 0.28815779089927673, -0.043516792356967926, -0.0001776015997165814, -0.18004821240901947, -0.2604353427886963, 0.0025207072030752897, -0.25970911979675293, -0.1777026355266571, 0.05866957828402519, 0.2893935441970825, 0.19811899960041046, 0.0867857113480568, 0.14552731812000275, 0.17909806966781616, -0.00046182615915313363, 0.014405565336346626, 0.03773927688598633, -0.09046562016010284, 0.08032051473855972, -0.11548353731632233, 0.13308139145374298, -0.041613876819610596, -0.2953423261642456, -0.1628413200378418, 0.27083203196525574, -0.0453612357378006, 0.1566067785024643, -0.03936725854873657, -0.022530291229486465, 0.10445166379213333, -0.27691328525543213, 0.10221634805202484, -0.045054253190755844, -0.04045688733458519, -0.0815257653594017, -0.27248451113700867, -0.24486252665519714, -0.08182267844676971, 0.016435915604233742, 0.06534278392791748, 0.10936423391103745, 0.03574662655591965, -0.19213712215423584, -0.16463899612426758, -0.052594561129808426, 0.019717028364539146, -0.18397042155265808, -0.1549212485551834, 0.06748499721288681, 0.03902949020266533, 0.21449850499629974, -0.21342985332012177, -0.2256530076265335, 0.2762371301651001, -0.003991447854787111, 0.1522156000137329, 0.0816243514418602, -0.17596828937530518, 0.07948049157857895, 0.1943790316581726, 0.03382009640336037, 0.2682231068611145, -0.041155602782964706, 0.14069153368473053, 0.24833661317825317, -0.2366996556520462, 0.13882191479206085, -0.2661837637424469, 0.19863341748714447, 0.17904745042324066, -0.14939548075199127, -0.0710441991686821, 0.0018994668498635292, 0.1343180388212204, 0.2763279378414154, -0.24128511548042297, -0.031659871339797974, -0.2048683911561966, 0.27934208512306213, 0.023082580417394638, -0.2213522046804428, 0.2069748193025589, -0.16792671382427216, -0.20862393081188202, 0.1882721334695816, -0.29544582962989807, 0.13411769270896912, 0.028708597645163536, -0.19055981934070587, -0.14557623863220215, 0.04783483222126961, -0.26011115312576294, -0.037242691963911057, -0.13974995911121368, -0.16410906612873077, 0.1641853004693985, -0.006991242058575153, 0.2841542065143585, -0.2864992320537567, -0.012235494330525398, -0.22268706560134888, -0.10766381025314331, 0.1132766604423523, 0.19640658795833588, -0.26504215598106384, 0.017069421708583832, 0.12734292447566986, -0.17915324866771698, -0.036778226494789124, -0.16667325794696808, 0.14896228909492493, 0.04226710647344589, 0.04744303598999977, -0.15131694078445435, 0.09675337374210358, 0.08791595697402954, 0.09967350959777832, -0.15569674968719482, -0.30340176820755005, -0.042062461376190186, -0.25530698895454407, 0.190145805478096, 0.2268848568201065, 0.2272597998380661], [-0.019467143341898918, 0.2262433022260666, -0.07618879526853561, -0.011098522692918777, -0.21279188990592957, 0.09797681868076324, 0.105132557451725, -0.057147011160850525, -0.17112843692302704, 0.046433452516794205, 0.01846851408481598, -0.12012907862663269, -0.26415300369262695, -0.2195008397102356, -0.232526034116745, 0.0887097418308258, 0.09837975353002548, -0.22562220692634583, -0.3061872124671936, -0.089258573949337, 0.05721762776374817, -0.017974933609366417, 0.07521317154169083, -0.04581369087100029, 0.0456666499376297, -0.05950208753347397, -0.08671729266643524, 0.13566821813583374, 0.03587067872285843, 0.1670437455177307, -0.05235844478011131, 0.2501048147678375, -0.062873475253582, 0.1603577882051468, -0.20076914131641388, -0.09998732805252075, -0.13055717945098877, 0.247989684343338, 0.09612343460321426, 0.24912427365779877, 0.07137834280729294, -0.03936547040939331, -0.04458291456103325, 0.220272496342659, 0.18687409162521362, 0.2673768401145935, -0.037791866809129715, -0.2794416546821594, -0.2266266793012619, -0.18906831741333008, -0.16760967671871185, 0.23298771679401398, -0.190337672829628, -0.12846292555332184, 0.09940764307975769, -0.1151624321937561, -0.10318799316883087, -0.12629953026771545, -0.22652296721935272, -0.056032221764326096, -0.1764710396528244, 0.24071314930915833, -0.12671446800231934, 0.2725653052330017, -0.020562414079904556, 0.12611529231071472, -0.12938258051872253, 0.19821986556053162, -0.22499723732471466, -0.26127004623413086, 0.31468117237091064, 0.1662064790725708, -0.25052186846733093, -0.0864359438419342, 0.07799145579338074, -0.20921316742897034, -0.24449661374092102, 0.22727414965629578, 0.22570474445819855, -0.3107340633869171, 0.2586670219898224, 0.17669537663459778, 0.2685985565185547, -0.2602619528770447, 0.0811280831694603, 0.040664371103048325, 0.1111983209848404, -0.2610877454280853, -0.24313193559646606, 0.19798044860363007, -0.3308037519454956, -0.08301831781864166, 0.24367964267730713, 0.22756636142730713, 0.18724453449249268, -0.057233065366744995, -0.02727624960243702, 0.051433462649583817, 0.23458901047706604, 0.25944945216178894, -0.08790797740221024, 0.12071666866540909, -0.2682918906211853, -0.06750355660915375, 0.07475573569536209, 0.2641090750694275, 0.1129918023943901, -0.32851138710975647, -0.25614646077156067, -0.12267739325761795, -0.14272268116474152, -0.22543379664421082, -0.20720255374908447, -0.27424734830856323, -0.0021618655882775784, 0.02646133117377758, -0.026893572881817818, 0.257274866104126, -0.13486064970493317, -0.2544024884700775, -0.18053263425827026, 0.2925916314125061, 0.19778834283351898, -0.2344358116388321, 0.27036020159721375, 0.04619785398244858, 0.036328401416540146, -0.007496959529817104], [-0.29724815487861633, 0.23918941617012024, -0.18674008548259735, 0.1897198110818863, -0.15158435702323914, 0.14217841625213623, -0.05097980052232742, -0.2840382158756256, -0.12813258171081543, -0.2502904236316681, 0.16474653780460358, -0.20980150997638702, -0.22831302881240845, -0.11985412985086441, 0.25325581431388855, 0.17807024717330933, 0.1423577517271042, 0.2747671604156494, -0.2151581346988678, 0.2818063497543335, 0.0280709620565176, -0.12098610401153564, 0.06131283566355705, -0.013936624862253666, 0.08112213015556335, -0.16446715593338013, 0.16772887110710144, 0.30593234300613403, 0.24537280201911926, -0.19705519080162048, 0.2596248388290405, -0.15356099605560303, -0.17313392460346222, -0.1570802628993988, 0.13715803623199463, -0.24233105778694153, 0.3005504012107849, 0.14957918226718903, -0.12693801522254944, 0.14057448506355286, 0.28146591782569885, 0.0243671964854002, 0.033850282430648804, -0.0694035142660141, 0.2152467966079712, 0.31682640314102173, -0.06432492285966873, -0.06435977667570114, -0.10853807628154755, -0.12460954487323761, 0.07738249003887177, 0.19107890129089355, -0.25121644139289856, 0.22639475762844086, 0.1267959475517273, -0.1223367229104042, 0.29131820797920227, 0.28759223222732544, 0.2891668975353241, -0.10405348986387253, 0.11129314452409744, -0.23079681396484375, -0.29924488067626953, 0.13539251685142517, 0.14586050808429718, -0.19725780189037323, -0.19374294579029083, 0.0659184381365776, -0.2278023213148117, -0.051918644458055496, 0.11839985847473145, 0.14485801756381989, 0.12322799116373062, 0.1748993843793869, -0.17482194304466248, 0.31268325448036194, -0.09532546997070312, 0.24193093180656433, -0.22758348286151886, 0.1293458342552185, 0.19374018907546997, 0.011444534175097942, 0.08801133185625076, -0.06933339685201645, -0.08508070558309555, 0.09697917103767395, -0.3219926953315735, 0.27344557642936707, -0.1265403926372528, -0.11816269159317017, -0.05124852433800697, 0.24473676085472107, 0.04387944936752319, -0.22973977029323578, -0.0074155800975859165, -0.28144946694374084, 0.13549160957336426, 0.26348644495010376, 0.13605165481567383, -0.08031045645475388, 0.10538133233785629, 0.16565853357315063, -0.15091215074062347, -0.1239105761051178, -0.2792007327079773, 0.10497401654720306, 0.09639206528663635, 0.01428650040179491, -0.200162872672081, 0.18185076117515564, 0.13127265870571136, 0.17217929661273956, 0.11987525969743729, 0.2865109145641327, -0.32575106620788574, 0.028134053573012352, -0.22399799525737762, -0.0832585021853447, -0.31252533197402954, 0.23744063079357147, 0.18828551471233368, 0.06639414280653, -0.012809925712645054, 0.3326103389263153, 0.00558399548754096, -0.03923657909035683, -0.2418489158153534, 0.12111862748861313], [-0.25089380145072937, 0.04452143609523773, 0.24709884822368622, -0.02637903206050396, 0.20713123679161072, 0.023657092824578285, -0.2362542599439621, 0.15947049856185913, -0.24102848768234253, 0.274980753660202, -0.16542984545230865, 0.15130440890789032, 0.25236594676971436, -0.22239309549331665, -0.20574896037578583, 0.07470830529928207, -0.23745140433311462, -0.1042247861623764, -0.11953523010015488, -0.11556313931941986, -0.19400663673877716, -0.15756560862064362, -0.016364524140954018, 0.22226932644844055, -0.3138619661331177, 0.11588253825902939, -0.16063746809959412, 0.11604710668325424, -0.0798393189907074, -0.11433624476194382, 0.26981738209724426, 0.05853092297911644, 0.2427404522895813, 0.004743985366076231, 0.07217913120985031, 0.034698083996772766, 0.23366039991378784, 0.15136300027370453, -0.012417393736541271, 0.1309310793876648, 0.0015373521018773317, 0.1337316632270813, -0.009906903840601444, 0.20170746743679047, 0.04313957318663597, -0.15304191410541534, -0.2090805321931839, 0.158529132604599, 0.08459030836820602, 0.09492562711238861, 0.025054655969142914, -0.27616798877716064, 0.03542947769165039, 0.12126969546079636, 0.05527925118803978, -0.23105944693088531, -0.01847435161471367, -0.021051205694675446, -0.1623009592294693, 0.08279118686914444, 0.14595262706279755, 0.23363108932971954, -0.31312626600265503, -0.2047031670808792, 0.05165542662143707, 0.041981831192970276, 0.2546554505825043, -0.0012892673257738352, -0.11713221669197083, 0.1970468908548355, 0.08847130089998245, -0.138034388422966, 0.1571500152349472, -0.04813269153237343, 0.20652148127555847, 0.2753887176513672, -0.15928691625595093, -0.11006327718496323, -0.01018989272415638, 0.16965828835964203, -0.0270293690264225, 0.24716511368751526, -0.1866408884525299, 0.1893390566110611, 0.038157831877470016, -0.03954038396477699, 0.00043004314647987485, -0.16569603979587555, 0.15762972831726074, -0.15350450575351715, -0.1453944742679596, -0.02542949840426445, -0.05383607745170593, 0.29778867959976196, 0.2212413102388382, -0.04164040461182594, -0.03211577609181404, -0.04199300333857536, 0.19833210110664368, -0.12159906327724457, -0.22870776057243347, 0.17051950097084045, 0.08027119934558868, -0.01858510449528694, 0.12549559772014618, -0.15771469473838806, 0.09362398087978363, -0.12577608227729797, 0.2401227355003357, 0.11428562551736832, -0.007182764355093241, 0.19002309441566467, 0.20596952736377716, 0.2173585146665573, -0.10017435997724533, 0.205867201089859, -0.08740672469139099, 0.04963495209813118, 0.21223017573356628, 0.18892121315002441, -0.0698220282793045, 0.12773364782333374, -0.20479078590869904, 0.23263028264045715, 0.24622616171836853, -0.23146894574165344, -0.18082855641841888, -0.14091305434703827], [0.10324198007583618, -0.06280625611543655, 0.14206010103225708, 0.1606789231300354, -0.21140044927597046, 0.174382284283638, -0.11555525660514832, 0.27948781847953796, -0.16460999846458435, 0.1259995996952057, 0.24748606979846954, -0.25227534770965576, -0.06259454041719437, -0.008901113644242287, 0.015734435990452766, -0.055544860661029816, -0.020400911569595337, 0.18516364693641663, -0.12061143666505814, -0.05736030638217926, 0.25741976499557495, 0.030841391533613205, -0.0012785897124558687, 0.1966801881790161, 0.21310539543628693, -0.03033985197544098, 0.07671604305505753, -0.2099989503622055, -0.12166225910186768, -0.03755486384034157, 0.1742458939552307, 0.283388614654541, -0.1583280712366104, 0.05921728536486626, 0.13102760910987854, 0.3045674264431, 0.05309109762310982, -0.12817032635211945, 0.12147916108369827, 0.019025739282369614, 0.22196771204471588, -0.00851028598845005, 0.15223407745361328, -0.024487057700753212, 0.10525069385766983, 0.07933979481458664, -0.1351149082183838, -0.02243635803461075, -0.10531196743249893, 0.24856260418891907, 0.16677597165107727, 0.30198872089385986, 0.22669774293899536, 0.039133161306381226, 0.17619384825229645, 0.13448835909366608, 0.12502913177013397, 0.11576709896326065, -0.2674596607685089, -0.07382684201002121, -0.016744140535593033, 0.00837307795882225, 0.21131406724452972, -0.22723308205604553, -0.025232726708054543, -0.23774732649326324, 0.1770055741071701, -0.25381824374198914, 0.22422660887241364, -0.1756947636604309, -0.2967654764652252, -0.11292530596256256, -0.144998699426651, 0.23062631487846375, 0.2832545042037964, -0.3152906894683838, 0.3207482099533081, 0.2473936825990677, -0.14224988222122192, -0.07156253606081009, -0.2286570817232132, 0.19089573621749878, 0.2516261041164398, -0.020037919282913208, 0.15030141174793243, -0.008366832509636879, -0.06661935150623322, -0.07514727860689163, 0.12131801247596741, 0.05707274749875069, 0.24361640214920044, 0.09851399064064026, 0.1530294120311737, 0.031393177807331085, 0.01635958068072796, 0.14146126806735992, 0.20971745252609253, 0.2480689436197281, -0.018248438835144043, -0.17035700380802155, 0.009976128116250038, -0.2764121890068054, -0.15606021881103516, -0.1520191878080368, -0.2594314515590668, 0.18984590470790863, -0.05620337650179863, -0.16078175604343414, 0.14596959948539734, 0.24487613141536713, 0.29926812648773193, -0.03445565328001976, -0.20952045917510986, 0.152315154671669, 0.11999596655368805, -0.02848462015390396, 0.1767267882823944, 0.15925902128219604, -0.2944677174091339, 0.03624018281698227, -0.12123404443264008, 0.22623133659362793, 0.2273067831993103, -0.1804468333721161, -0.11544489115476608, 0.2151411473751068, -0.1772262156009674, -0.003288302104920149], [-0.019443677738308907, -0.07863197475671768, 0.23920080065727234, 0.11445459723472595, 0.30643323063850403, 0.03235287219285965, -0.10007576644420624, 0.06862044334411621, -0.2518647313117981, -0.026274511590600014, 0.10766007751226425, 0.042968280613422394, 0.05718833953142166, -0.09738996624946594, -0.03732502460479736, -0.023675212636590004, 0.18801641464233398, 0.21837706863880157, -0.15067143738269806, 0.04036569967865944, 0.14822766184806824, 0.053163353353738785, -0.055207811295986176, 0.13697928190231323, 0.27780091762542725, 0.26545488834381104, -0.1185884103178978, -0.13078878819942474, 0.19320958852767944, 0.01766827329993248, 0.1855231523513794, 0.27324751019477844, -0.1347445547580719, -0.030425842851400375, -0.17310194671154022, -0.07071372121572495, 0.23101501166820526, -0.14377950131893158, 0.04533347487449646, 0.012305252254009247, -0.03890342265367508, 0.20399333536624908, -0.16923634707927704, -0.1107482761144638, -0.19870640337467194, -0.06532751768827438, -0.1550774723291397, 0.29065385460853577, 0.13338811695575714, 0.19709248840808868, -0.11441997438669205, 0.28837186098098755, 0.1302681863307953, -0.06133062765002251, -0.15246376395225525, -0.022013522684574127, 0.13635064661502838, -0.11368944495916367, -0.12915517389774323, -0.10593658685684204, 0.0443962998688221, -0.07356922328472137, 0.31820395588874817, -0.045661743730306625, 0.06014573946595192, -0.21086838841438293, 0.038674723356962204, -0.17177711427211761, 0.16373710334300995, -0.029182255268096924, 0.191587433218956, -0.011949612759053707, 0.2813788056373596, -0.13988155126571655, -0.07951322942972183, -0.015086360275745392, -0.004597293678671122, -0.18677280843257904, -0.25282081961631775, -0.028651602566242218, -0.03936546668410301, -0.24537540972232819, -0.25166046619415283, -0.19003884494304657, -0.1766241490840912, -0.03752811253070831, -0.20146162807941437, -0.245475634932518, 0.15276993811130524, 0.1325100213289261, -0.11839817464351654, -0.19014041125774384, 0.300910621881485, -0.1133616492152214, -0.20214378833770752, -0.09833049774169922, 0.17473864555358887, 0.26039522886276245, -0.060503777116537094, 0.13071751594543457, 0.0010526764672249556, 0.25659310817718506, -0.24909652769565582, 0.2313830554485321, -0.1655580699443817, 0.0007749877404421568, -0.021462349221110344, -0.06713202595710754, 0.13983258605003357, -0.08867024630308151, -0.14530698955059052, 0.007062023505568504, 0.0071416934952139854, 0.028903063386678696, -0.1779290735721588, 0.22304069995880127, -0.20630207657814026, 0.10864491760730743, 0.12324165552854538, -0.2663674056529999, -0.0819256529211998, -0.14099940657615662, -0.2195402979850769, 0.16496466100215912, 0.16093815863132477, -0.04967521131038666, -0.17268408834934235, -0.11768253892660141]], "bias": [0.06103089451789856, 0.07057806104421616, 0.05899292975664139, -0.183940127491951, 0.28659725189208984, 0.04932869225740433, 0.053960371762514114, -0.02140076458454132, 0.04194806143641472, 0.24627026915550232, -0.22496995329856873, 0.2903379201889038, -0.09337098896503448, 0.011587709188461304, 0.026911413297057152, 0.1954980045557022, 0.09925416111946106, -0.2580198347568512, -0.2819925844669342, -0.021380813792347908, -0.0025659846141934395, 0.1077623963356018, 0.05977397412061691, -0.11544542759656906, -0.2819423973560333, -0.29342788457870483, -0.13652674853801727, 0.20435336232185364, -0.018749220296740532, 0.018886057659983635, 0.2250342071056366, 0.2837778925895691, 0.010187874548137188, 0.026406515389680862, 0.12657755613327026, 0.20179980993270874, -0.029811229556798935, 0.02834996022284031, -0.19679585099220276, 0.050333235412836075, 0.28673186898231506, -0.19758759438991547, 0.15251125395298004, 0.28024840354919434, 0.2556597590446472, -0.052797116339206696, -0.017342859879136086, 0.25106528401374817, -0.06779675930738449, 0.1239461675286293, -0.13241702318191528, -0.009693053551018238, 0.06986812502145767, 0.13330523669719696, -0.10073477774858475, 0.15352021157741547, -0.09922049194574356, 0.02809545025229454, 0.2945137321949005, 0.2828805446624756, -0.21001863479614258, 0.06405560672283173, 0.1216723695397377, -0.12887021899223328, 0.1504361480474472, 0.04716235399246216, -0.06804830580949783, 0.1675385683774948, 0.01999383233487606, -0.20447179675102234, -0.14774297177791595, 0.09601154178380966, 0.057273540645837784, -0.05862924084067345, -0.051696669310331345, 0.12444259971380234, -0.041804563254117966, -0.18408805131912231, -0.10133758187294006, 0.09891600906848907, 0.09713677316904068, 0.1589289754629135, -0.20556627213954926, 0.08515643328428268, -0.09964024275541306, -0.03557068482041359, 0.017080815508961678, 0.23983465135097504, 0.14278604090213776, -0.16503338515758514, 0.14767244458198547, 0.17424216866493225, 0.17196142673492432, -0.10488379001617432, -0.06781856715679169, -0.27585020661354065, 0.03537210077047348, 0.11681747436523438, -0.0244622640311718, -0.22452029585838318, -0.11016327887773514, 0.2610527276992798, -0.009262100793421268, -0.19840963184833527, -0.26209893822669983, -0.053554415702819824, 0.13556547462940216, 0.18700011074543, 0.1817026287317276, 0.05617838725447655, -0.10635272413492203, 0.27434131503105164, -0.2163935899734497, -0.2918471395969391, -0.2505233883857727, 0.04175615310668945, 0.10596531629562378, 0.0529518686234951, -0.1333218663930893, -0.04106777533888817, -0.015526963397860527, 0.1568768322467804, -0.25213631987571716, -0.2808450162410736, 0.051398977637290955, 0.2663421332836151, 0.04698650538921356, -0.21140740811824799], "activation": "relu", "bn": {"gamma": [0.9868370890617371, 1.0305523872375488, 0.9509775638580322, 1.005159854888916, 0.9506176114082336, 1.0355409383773804, 0.9943527579307556, 1.0243383646011353, 0.9859299063682556, 0.9553888440132141, 0.9895354509353638, 0.9762058258056641, 1.014888048171997, 0.9609031081199646, 0.9890465140342712, 1.027657389640808, 0.97758549451828, 0.966446042060852, 1.0001884698867798, 0.9667577147483826, 1.0082359313964844, 1.0465317964553833, 1.0459024906158447, 1.0000230073928833, 0.9532735347747803, 0.9530558586120605, 0.9701582789421082, 1.025267481803894, 0.9986728429794312, 0.9998874068260193, 0.9819924235343933, 0.9770052433013916, 0.9832369685173035, 1.0258015394210815, 1.0206968784332275, 1.0112559795379639, 0.9548333287239075, 0.9762195348739624, 1.0549284219741821, 1.0347315073013306, 0.9696006774902344, 0.9725604057312012, 1.034695029258728, 1.0246777534484863, 0.9982721209526062, 0.9690394997596741, 1.0400962829589844, 0.9717541933059692, 0.9897088408470154, 0.9701527953147888, 0.98659747838974, 0.9948151111602783, 1.020066499710083, 0.9715582132339478, 1.0216891765594482, 0.9620937705039978, 0.9558316469192505, 0.9543278217315674, 1.0342159271240234, 1.0028001070022583, 0.9737230539321899, 1.0033576488494873, 1.0183799266815186, 1.0366618633270264, 1.0528286695480347, 1.0189622640609741, 1.0176284313201904, 1.0552563667297363, 1.0101889371871948, 0.9752210378646851, 0.9780899882316589, 1.0363945960998535, 0.9864923357963562, 0.9686245918273926, 0.9996562004089355, 0.9585472941398621, 1.025059700012207, 0.9968900680541992, 0.9558565020561218, 1.0008301734924316, 1.0572503805160522, 0.990838885307312, 0.9618813395500183, 1.054672122001648, 0.9957550764083862, 1.0467525720596313, 0.975419819355011, 1.0135282278060913, 0.9876379370689392, 0.9979676008224487, 1.0329142808914185, 1.038178563117981, 0.9562889337539673, 0.9938775300979614, 1.0003377199172974, 0.9862256646156311, 1.0259228944778442, 0.970180094242096, 1.0036365985870361, 0.9804381132125854, 1.0171538591384888, 0.974027156829834, 0.9690011143684387, 1.0003262758255005, 1.0292280912399292, 0.9659394025802612, 1.0339940786361694, 1.031606674194336, 0.9791200160980225, 0.9821959733963013, 0.9638944268226624, 0.978917121887207, 0.9905823469161987, 1.0201828479766846, 1.0379619598388672, 1.0395041704177856, 0.9940742254257202, 1.044996976852417, 0.97670578956604, 1.028127908706665, 0.9694951176643372, 1.00499427318573, 0.9799907207489014, 0.9464855194091797, 0.973159909248352, 1.0182303190231323, 0.9846981763839722, 1.0359865427017212], "beta": [-0.047206733375787735, 0.0347297266125679, 0.022471889853477478, -0.012219268828630447, -0.04647357761859894, -0.055433936417102814, -0.05075906589627266, -0.02871798165142536, -0.05540056899189949, -0.03873717784881592, 0.00021693605231121182, -0.020815683528780937, -0.0208514966070652, -0.04560822993516922, 0.019830089062452316, -0.04757959768176079, -0.03249748423695564, -0.030002830550074577, -0.026953857392072678, -0.04864467307925224, 0.03313643857836723, -0.009100111201405525, 0.0017500994727015495, -0.013192928396165371, -0.02870856784284115, -0.03397656977176666, -0.016729438677430153, 0.01537752989679575, 0.026104643940925598, 0.03327309340238571, -0.011902093887329102, -0.007207745686173439, -0.00688329990953207, 0.03618507832288742, -0.0041008940897881985, 0.012665711343288422, -0.03873554989695549, -0.019692551344633102, -0.02839594893157482, 0.03811541944742203, -0.024816887453198433, -0.02968871220946312, -0.02452780120074749, 0.01944185420870781, -0.028358079493045807, -0.040787748992443085, -0.06211608275771141, -0.020789483562111855, -0.05843579024076462, -0.03210006654262543, -0.01939210295677185, 0.02138213999569416, 0.036448340862989426, -0.015672704204916954, -0.055577632039785385, -0.03985101729631424, -0.05159401148557663, -0.04072926566004753, -0.008320997469127178, -0.007583559490740299, 0.005387443583458662, 0.0095599964261055, 0.032350026071071625, 0.03860970214009285, 0.05365320295095444, 0.0215179231017828, 0.0057716513983905315, 0.015821360051631927, 0.03562764823436737, -0.017855171114206314, -0.03645692393183708, 0.04206903651356697, 0.008451884612441063, -0.02244453877210617, 0.023310858756303787, -0.018792467191815376, 0.036755118519067764, 6.953338743187487e-05, -0.056843552738428116, 0.00884572509676218, 3.2887590350583196e-05, -0.04804045706987381, 0.016764257103204727, 0.05246433615684509, 0.010107573121786118, -0.04474581032991409, -0.04731712490320206, 0.01691931113600731, -0.005793283693492413, -0.05223792791366577, 0.04608629643917084, 0.0322994738817215, 0.021539457142353058, -0.037821777164936066, 0.021901503205299377, 0.005912493914365768, 0.0460311695933342, -0.01790424808859825, -0.0005543564329855144, -0.04387496039271355, 0.014748040586709976, -0.03189262002706528, -0.009523851796984673, 0.018582206219434738, 0.0004970317822881043, -0.03693867847323418, -0.04346850886940956, 0.023098694160580635, -0.01883111521601677, 0.04997251555323601, -0.048940807580947876, -0.0055492050014436245, -0.01379356998950243, -0.005823609419167042, 0.03936963155865669, 0.018254710361361504, 0.04033922776579857, 0.029856804758310318, -0.007064875215291977, -0.04448099061846733, -0.031567126512527466, -0.03629607707262039, -0.01659911870956421, -0.026219837367534637, -0.02939273975789547, 0.0214682687073946, -0.05058424174785614, -0.023792702704668045], "mean": [0.060996972024440765, 0.07052572816610336, 0.05894914269447327, -0.18379093706607819, 0.2864076495170593, 0.049265895038843155, 0.053926415741443634, -0.021406417712569237, 0.041927602142095566, 0.246138796210289, -0.22478091716766357, 0.29015052318573, -0.09330211579799652, 0.011565295979380608, 0.02689332701265812, 0.19541604816913605, 0.09920050203800201, -0.257847398519516, -0.2817995250225067, -0.02135360613465309, -0.002546099480241537, 0.10772914439439774, 0.059709805995225906, -0.11536560207605362, -0.28176456689834595, -0.2932368516921997, -0.1364489048719406, 0.20421528816223145, -0.01873348280787468, 0.018887359648942947, 0.22489669919013977, 0.28358766436576843, 0.010173335671424866, 0.026394711807370186, 0.12649618089199066, 0.20177489519119263, -0.029804524034261703, 0.02834099717438221, -0.1966751366853714, 0.050295352935791016, 0.28655338287353516, -0.19744908809661865, 0.1524127572774887, 0.2800913453102112, 0.255480021238327, -0.05276860296726227, -0.017317399382591248, 0.250895231962204, -0.06776014715433121, 0.123871348798275, -0.13238516449928284, -0.009687965735793114, 0.06984499841928482, 0.13325351476669312, -0.10062787681818008, 0.15346479415893555, -0.09913270175457001, 0.028073349967598915, 0.2942966818809509, 0.2826294004917145, -0.20992465317249298, 0.064012810587883, 0.12161457538604736, -0.12876224517822266, 0.15043728053569794, 0.04714619368314743, -0.06805403530597687, 0.16736982762813568, 0.019956408068537712, -0.20435883104801178, -0.14763398468494415, 0.09593872725963593, 0.057222962379455566, -0.05861293151974678, -0.051677506417036057, 0.12435902655124664, -0.04176132008433342, -0.1839599311351776, -0.1012878492474556, 0.0988374724984169, 0.09710631519556046, 0.15881268680095673, -0.20546197891235352, 0.08511287719011307, -0.09957614541053772, -0.03553568571805954, 0.017071865499019623, 0.2396860271692276, 0.14268533885478973, -0.1649157702922821, 0.14757201075553894, 0.17415893077850342, 0.17184630036354065, -0.10483149439096451, -0.06775897741317749, -0.2756813168525696, 0.03534265235066414, 0.11674018204212189, -0.024452587589621544, -0.22438284754753113, -0.11009570211172104, 0.26088887453079224, -0.009253256022930145, -0.19826079905033112, -0.2619200050830841, -0.053525637835264206, 0.1354919970035553, 0.18692925572395325, 0.18158462643623352, 0.05616477131843567, -0.1062946692109108, 0.2741670310497284, -0.21627570688724518, -0.2916681170463562, -0.25029656291007996, 0.04169353470206261, 0.10590119659900665, 0.05292079597711563, -0.13317246735095978, -0.04104558750987053, -0.015513275749981403, 0.15679827332496643, -0.2519741356372833, -0.2806636393070221, 0.05136113613843918, 0.26615747809410095, 0.04693370312452316, -0.21127736568450928], "var": [0.9376342296600342, 0.33626171946525574, 0.46450117230415344, 0.10762766003608704, 0.2012946456670761, 0.11085685342550278, 0.32939884066581726, 0.18107819557189941, 0.8869242072105408, 0.28256312012672424, 0.17864592373371124, 0.41342252492904663, 0.2780734896659851, 0.17048321664333344, 0.7729345560073853, 0.11479755491018295, 0.41941091418266296, 0.788580060005188, 0.5862075686454773, 0.13571545481681824, 0.26118505001068115, 0.2133103758096695, 0.07450787723064423, 0.45798781514167786, 0.3771972954273224, 0.3200496733188629, 0.5618951320648193, 0.24523088335990906, 0.5227002501487732, 0.1865868717432022, 0.6827308535575867, 0.6885071396827698, 0.30849897861480713, 0.7214064598083496, 0.8438062071800232, 0.062231745570898056, 0.5899808406829834, 0.15721654891967773, 0.12356612086296082, 0.1097918301820755, 0.15326005220413208, 0.4430887997150421, 0.3187905251979828, 0.4024622142314911, 0.20780549943447113, 0.28931573033332825, 0.2961082458496094, 0.19989176094532013, 0.2673509418964386, 0.20101603865623474, 0.12203207612037659, 0.3573755621910095, 0.34433236718177795, 0.18622805178165436, 0.19123508036136627, 0.16025732457637787, 0.3978048264980316, 0.6529865264892578, 0.5259063243865967, 0.07195029407739639, 0.2316572368144989, 0.6594628691673279, 0.3009309768676758, 0.18523554503917694, 0.06071438640356064, 0.5649067163467407, 0.17776136100292206, 0.14695461094379425, 0.22129283845424652, 0.15515780448913574, 0.32730117440223694, 0.22755330801010132, 0.3591802716255188, 0.36107438802719116, 0.11827442795038223, 0.4460402727127075, 0.34466516971588135, 0.4108135402202606, 0.3941004276275635, 0.33422237634658813, 0.5623081922531128, 0.3228415548801422, 0.14844785630702972, 0.1925169974565506, 0.15186183154582977, 0.06774809956550598, 0.6984454989433289, 0.3927851617336273, 0.15822073817253113, 0.3236844837665558, 0.5948778986930847, 0.16142188012599945, 0.2890394628047943, 0.4833841919898987, 0.5062931180000305, 0.19460450112819672, 0.34863317012786865, 0.33424198627471924, 0.12365423887968063, 0.156015545129776, 0.17079658806324005, 0.5854982733726501, 0.37452948093414307, 0.15258070826530457, 0.634493350982666, 0.43503594398498535, 0.3616686165332794, 0.17591369152069092, 0.26223307847976685, 0.36301887035369873, 0.49219921231269836, 0.35537391901016235, 0.10867544263601303, 0.8301953077316284, 0.15438763797283173, 0.3528296649456024, 0.2466406226158142, 0.12005197256803513, 0.10833010077476501, 0.3187587261199951, 0.5552160143852234, 0.38387826085090637, 0.778576135635376, 0.6128819584846497, 0.30914634466171265, 0.12345610558986664, 0.5800940990447998, 0.18506065011024475], "eps": 1e-05}}, {"weights": [[-0.04303036630153656, -0.004506271798163652, 0.003696906380355358, -0.07161768525838852, -0.019412124529480934, 0.09105560928583145, 0.08594433218240738, 0.07766419649124146, 0.007899845018982887, 0.03326646238565445, -0.0445878803730011, 0.05756551772356033, -0.09334929287433624, 0.051555559039115906, -0.015501315705478191, -0.024971913546323776, -0.013832494616508484, 0.003927305340766907, 0.05129830166697502, -0.051551900804042816, 0.11532776802778244, -0.020060040056705475, -0.04790033400058746, 0.05641815811395645, 0.055798985064029694, -0.04974721372127533, -0.04318194091320038, -0.06401988118886948, 0.04792708158493042, 0.019946610555052757, -0.06594899296760559, 0.05565033480525017, -0.05140961706638336, 0.01247352734208107, -0.013860701583325863, 0.009297052398324013, 0.04506329819560051, -0.08188445121049881, -0.05039488896727562, -0.026245102286338806, 0.05635939911007881, 0.06706269085407257, -0.03006047196686268, 0.023884769529104233, -0.04139329120516777, 0.040248461067676544, -0.035510510206222534, 0.009441635571420193, 0.006117512006312609, -0.04782417044043541, -0.09611691534519196, 0.061318255960941315, -0.019465770572423935, -0.05626421794295311, -0.01885249838232994, -0.011487714946269989, -0.06099504232406616, 0.0013372524408623576, -0.023715654388070107, -0.03737702965736389, 0.023471146821975708, -0.02685961127281189, -0.0086436802521348, -0.09569539874792099], [0.032771285623311996, -0.07850416004657745, 0.11972595751285553, 0.09592683613300323, -0.03051011450588703, 0.025619911029934883, 0.009120840579271317, -0.0028938872274011374, 0.026843300089240074, 0.0005018641240894794, 0.0983312800526619, -0.015420937910676003, 0.05756533145904541, -0.02235516719520092, 0.025338884443044662, 0.0010777098359540105, 0.08928535878658295, -0.07665156573057175, 0.04544810950756073, -0.01864716224372387, -0.01927768997848034, -0.024261994287371635, -0.04596605524420738, 0.001383809489198029, 0.0678454264998436, -0.05253429338335991, 0.012660017237067223, 0.07704661786556244, -0.005495952907949686, 0.003225094871595502, 0.04341477155685425, -0.048689790070056915, -0.014285808429121971, 0.03319152072072029, -0.04316825047135353, 0.016494721174240112, 0.011782857589423656, 0.06288649886846542, 0.04245001822710037, -0.025769896805286407, -0.05522037670016289, -0.05440953001379967, -0.04219571128487587, 0.05142606794834137, -0.0538543239235878, -0.0060258712619543076, 0.042313363403081894, -0.05696919187903404, 0.031719788908958435, -0.0750165581703186, -0.1013321578502655, -0.09339389204978943, 0.00787312537431717, -0.04158898442983627, -0.11521632224321365, -0.07277469336986542, 0.06586071848869324, -0.11417022347450256, 0.024119414389133453, -0.08487165719270706, -0.03893372789025307, -0.017139650881290436, 0.059962376952171326, 0.03762365132570267], [-0.06533121317625046, -0.03836880251765251, 0.01307123713195324, 0.04753242805600166, -0.05930071324110031, 0.03267459198832512, -0.04171129688620567, -0.013805259019136429, 0.06106939911842346, -0.04976992681622505, 0.04167495667934418, -0.01932300254702568, -0.009157842956483364, 0.05862120911478996, 0.0849919468164444, -0.039865411818027496, -0.07022810727357864, -0.006269561592489481, -0.012538579292595387, 0.007820624858140945, 0.051860272884368896, -0.050130948424339294, -0.016129551455378532, 0.005843169987201691, -0.020173560827970505, -0.0004989277804270387, -0.09350569546222687, -0.0376187302172184, -0.02010214887559414, -0.07185447961091995, -0.02255852334201336, 0.04296991601586342, 0.018136946484446526, 0.02876988612115383, 0.06529665738344193, -0.008223295211791992, -0.008188062347471714, 0.05449826642870903, 0.03998278081417084, 0.022147007286548615, 0.026292597874999046, 0.04411039501428604, 0.07986810058355331, 0.09277213364839554, -0.0796828418970108, -0.03371647372841835, 0.036792054772377014, 0.07687509804964066, 0.009154574014246464, 0.08853041380643845, 0.03461477905511856, -0.029753347858786583, -0.04499775916337967, -0.07304850965738297, 0.04898880422115326, -0.06989327818155289, 0.00405941903591156, -0.006729773245751858, 0.06379486620426178, 0.04765010252594948, 0.04957239702343941, -0.032406922429800034, -0.09013223648071289, 0.012549424543976784], [0.028148768469691277, 0.08732901513576508, -0.0360344722867012, 0.03323095291852951, -0.048488374799489975, -0.0432344526052475, -0.05999861657619476, -0.038360483944416046, 0.06092489883303642, -0.05726534500718117, 0.058960769325494766, -0.04295880347490311, 0.07572902739048004, -0.02762630581855774, 0.015436033718287945, -0.04122020676732063, 0.03650900349020958, -0.08573494851589203, 0.05698695778846741, 0.05729571357369423, 0.038787681609392166, -0.04106766730546951, 0.03757115826010704, -0.018456850200891495, 0.05927792564034462, 0.028262050822377205, 0.03206679970026016, -0.02295280434191227, 0.06009278818964958, 0.07762943208217621, 0.015249757096171379, -0.006802685558795929, -0.010720016434788704, 0.07687072455883026, -0.01304643228650093, 0.07526172697544098, -0.04878987371921539, -0.039028238505125046, 0.08012182265520096, -0.06117565184831619, 0.04517154023051262, -0.0731782540678978, -0.10755743831396103, -0.07173324376344681, -0.01112451869994402, 0.03258000686764717, -0.040270086377859116, -0.04600748419761658, -0.10047554969787598, 0.0651295930147171, 0.015423244796693325, -0.05330687761306763, -0.04845519736409187, 0.021314768120646477, -0.027959998697042465, 0.08213706314563751, 0.003489726223051548, -0.0938318595290184, 0.028585853055119514, 0.05961908400058746, 0.001649696147069335, 0.02383684553205967, 0.0829976350069046, 0.07126817852258682], [-0.06948171555995941, 0.045232143253088, -0.001382538815960288, -0.06081569567322731, -0.006043213419616222, 0.04274687170982361, 0.029088154435157776, -0.06845780462026596, -0.02748854272067547, -0.004739372991025448, 0.04641043767333031, 0.04139730706810951, -0.01218463759869337, 0.0739431083202362, 0.025677192956209183, 0.019093085080385208, -0.02041134238243103, 0.08244975656270981, -0.07050943374633789, 0.015802906826138496, -0.0025344190653413534, -0.010271827690303326, 0.10164692997932434, -0.01007057260721922, 0.08032330125570297, 0.011208780109882355, -0.08143260329961777, 0.015131638385355473, -0.0011724279029294848, -0.05107944458723068, -0.009245414286851883, 0.06222210079431534, 0.1012570783495903, -0.0874592512845993, -0.042650025337934494, 0.06700526922941208, 0.08232628554105759, -0.04017128795385361, 0.03357521817088127, -0.09580299258232117, 0.002833943348377943, -0.08664433658123016, 0.0609002560377121, -0.0394834466278553, -0.05782856419682503, -0.04445575177669525, 0.0587795116007328, 0.07030563056468964, -0.034198012202978134, -0.04513225704431534, 0.054194044321775436, 0.10140762478113174, -0.01408457476645708, -0.06949611753225327, -0.05635998398065567, 0.024748802185058594, -0.02284081093966961, 0.04356652498245239, 0.0009701261878944933, -0.0540945902466774, 0.04079018160700798, -0.05959457904100418, -0.018176928162574768, 0.01705532893538475], [-0.006406533997505903, -0.0451480895280838, 0.009945112280547619, 0.0037643162067979574, 0.03049827367067337, -0.025081126019358635, 0.001515196985565126, 0.04387754946947098, 0.02213895693421364, -0.09148222208023071, -0.008962161839008331, -0.04571082070469856, 0.02855992503464222, 0.044851385056972504, -0.07199184596538544, -0.0018291488522663713, -0.040051743388175964, 0.0030595732387155294, -0.08924046158790588, 0.06766872107982635, 0.03624926880002022, -0.09389060735702515, 0.006141641642898321, 0.08941730856895447, -0.09355650842189789, -0.06147371232509613, -0.07749375700950623, -0.05691761523485184, -0.07170319557189941, -0.07297369092702866, -0.007582193706184626, -0.014699309132993221, 0.007370319217443466, -0.0249235387891531, 0.03215755894780159, -0.025691436603665352, 0.01623990572988987, 0.027035493403673172, -0.05089571699500084, -0.0037353653460741043, -0.014900603331625462, 0.04328896105289459, -0.040593214333057404, -0.06211395189166069, -0.06955504417419434, -0.053827110677957535, -0.07361622899770737, 0.1171787828207016, 0.019777044653892517, 0.08153382688760757, 0.07010547816753387, 0.1031857579946518, -0.04867086559534073, 0.01907219924032688, 0.10847992449998856, 0.09716460853815079, -0.07847168296575546, -0.011007623746991158, -0.08207281678915024, 0.022003863006830215, -0.02776794694364071, -0.018228892236948013, -0.01844060607254505, 0.004590081982314587], [-0.048240747302770615, 0.016675332561135292, 0.11184712499380112, 0.06175445765256882, -0.00926628801971674, -0.017088649794459343, -0.04429608955979347, 0.0581376738846302, -0.11375287920236588, 0.012732647359371185, 0.08824514597654343, -0.03889840096235275, 0.05722685903310776, -0.008933214470744133, 0.014154119417071342, 0.035064589232206345, -0.041187506169080734, -0.08543543517589569, 0.07618169486522675, 0.03876690939068794, 0.001854476984590292, 0.09816811233758926, 0.016696685925126076, -0.05423656105995178, -0.04000173509120941, 0.029787378385663033, -0.05273183062672615, 0.03475085645914078, 0.007970579899847507, -0.03250414878129959, -0.027110297232866287, -0.0606100969016552, -0.056203052401542664, -0.02413041703402996, -0.059105485677719116, -0.07328128814697266, -0.025626640766859055, -0.02971779741346836, 0.007096481509506702, 0.008859124965965748, -0.08010886609554291, 0.009283571504056454, -0.055182039737701416, -0.09363740682601929, 0.0024930115323513746, -0.033367473632097244, 0.007608592510223389, -0.09455112367868423, 0.02111963741481304, 0.009507117792963982, 0.04825356975197792, -0.020528852939605713, -0.024879662320017815, -0.08071934431791306, 0.02992173843085766, 0.0379125252366066, 0.019250668585300446, -0.08060967177152634, 0.04929019883275032, -0.09805111587047577, 0.07773346453905106, 0.08451441675424576, -0.015655754134058952, -0.016902239993214607], [-0.029273653402924538, 0.038630034774541855, -0.06937643885612488, -0.03084009699523449, 0.04018769785761833, 0.01542374212294817, 0.11013495922088623, 0.04738491773605347, 0.009060178883373737, -0.05338657647371292, -0.0861189216375351, 0.0878748744726181, -0.07803180813789368, -0.017836937680840492, 0.06966475397348404, 0.04830858111381531, -0.03850787505507469, 0.04818286374211311, 0.035642120987176895, -0.0472797267138958, 0.08286602050065994, 0.06370598077774048, 0.06199383735656738, 0.01448509655892849, -0.04392734169960022, 0.012848651967942715, -0.015470168553292751, 0.022484609857201576, -0.016460666432976723, -0.11590851098299026, -0.024121589958667755, -0.0935073047876358, 0.08049213886260986, -0.07892384380102158, 0.0015403678407892585, -0.08205070346593857, 0.11337661743164062, 0.08636844158172607, -0.07067494839429855, -0.10146575421094894, 0.06419245153665543, 0.011114721186459064, 0.04212397709488869, 0.01855316385626793, -0.033716678619384766, -0.011340712197124958, -0.09568679332733154, -0.05044277012348175, 0.04403584823012352, -0.0739276111125946, -0.042729709297418594, 0.0828818753361702, -0.02326665259897709, 0.008383296430110931, -0.1041024774312973, -0.057106226682662964, -0.04866017773747444, 0.06287047266960144, 0.036195505410432816, -0.04577464982867241, 0.11261030286550522, 0.00394706754013896, 0.029526306316256523, -0.028330674394965172], [0.042976681143045425, 0.05235480144619942, -0.035019971430301666, -0.03967463970184326, -0.013903268612921238, 0.06615518778562546, -0.02172517217695713, 0.040061961859464645, -0.10094276070594788, -0.015002100728452206, 0.02614799700677395, 0.003545053070411086, 0.06533902138471603, -0.045002955943346024, -0.019145796075463295, -0.026453321799635887, -0.03324829041957855, 0.054809167981147766, 0.006686174776405096, 0.033353205770254135, 0.014263167046010494, 0.03507155179977417, 0.03396519273519516, 0.04021777957677841, 0.027169059962034225, -0.035735148936510086, -0.04917542636394501, -0.03549036756157875, -0.07609405368566513, -0.07876130938529968, 0.014893436804413795, -0.004298523999750614, -0.0054169283248484135, -0.02892463281750679, -0.04112166538834572, 0.014881493523716927, 0.08613604307174683, 0.02733195200562477, -0.01834707334637642, -0.08864788711071014, -0.02304593287408352, 0.04902831092476845, 0.07853960245847702, -0.015603089705109596, -0.11740176379680634, -0.08350406587123871, -0.07088003307580948, -0.014167560264468193, 0.06731933355331421, 0.053706131875514984, -0.017828812822699547, -0.0031900915782898664, 0.04450090602040291, -0.10273737460374832, -0.05030974745750427, 0.030231444165110588, -0.0018172857817262411, 0.03917454928159714, -0.00474384892731905, 0.031231006607413292, 0.04755483940243721, 0.06033498793840408, -0.01773153990507126, -0.0687202662229538], [0.04387497156858444, 0.049700312316417694, -0.022099371999502182, 0.035300321877002716, -0.03144081309437752, -0.05247507244348526, -0.0813329815864563, 0.013217265717685223, -0.09732820838689804, -0.00015750886814203113, 0.052486829459667206, 0.023850440979003906, -0.05519306659698486, -0.048950739204883575, -0.04050537571310997, 0.07546591758728027, -0.04342709854245186, -0.0927833542227745, -0.012265599332749844, -0.016349276527762413, 0.03505954146385193, 0.05559920519590378, -0.02972925826907158, 0.02226768620312214, -0.05861830711364746, 0.023949995636940002, 0.026273399591445923, 0.02578863315284252, 0.020625097677111626, -0.034682851284742355, 0.04157286509871483, -0.07565023005008698, 0.06406322866678238, 0.05908094719052315, 0.05573338270187378, 0.015296694822609425, -0.04032837226986885, 0.04332687705755234, 0.0649888664484024, 0.09667634218931198, -0.027239590883255005, -0.03371431306004524, 0.08536531776189804, 0.022992700338363647, 0.020282763987779617, -0.09879303723573685, 0.013892152346670628, 0.009502414613962173, 0.02426314912736416, -0.02170846238732338, -0.08900398761034012, 0.05613194406032562, -0.02484872378408909, 7.92081409599632e-05, 0.03473852574825287, -0.005148839205503464, 0.04491782560944557, 0.051977869123220444, -0.030347410589456558, -0.016848523169755936, -0.0318039208650589, -0.0006130078108981252, -0.05807897076010704, 0.0266511719673872], [-0.0859084501862526, 0.015560219064354897, 0.03807040676474571, 0.04055636376142502, -0.06317682564258575, 0.08602618426084518, -0.07325709611177444, 0.022516680881381035, 0.021458281204104424, -0.06663648784160614, 0.05104091390967369, -0.005326993763446808, 0.008214899338781834, -0.060350146144628525, -0.0028397878631949425, -0.07108136266469955, 0.03194175660610199, 0.05216395482420921, 0.10239104181528091, -0.05194023251533508, 0.019063912332057953, 0.0008660508901812136, 0.028793253004550934, -0.03255949169397354, -0.007676913868635893, -0.02999173104763031, -0.02430539019405842, 0.03324240446090698, 0.0722828283905983, 0.08468228578567505, 0.045933302491903305, 0.04480918496847153, 0.011890902183949947, -0.01738613285124302, 0.05176788195967674, 0.024546805769205093, 0.023675518110394478, -0.004014499019831419, 0.048354897648096085, -0.06910140067338943, 0.022877903655171394, -0.035249605774879456, 0.05539180338382721, -0.06185387074947357, 0.02127293311059475, 0.024862144142389297, 0.03806675598025322, -0.07586748898029327, 0.023351892828941345, -0.040780965238809586, 0.007049820851534605, 0.06154978275299072, -0.02362125739455223, -0.03485768660902977, 0.016203369945287704, -0.0034681304823607206, 0.08344341814517975, -0.057645056396722794, -0.04197182506322861, -0.01824929565191269, -0.006682113744318485, -0.04788569360971451, 0.04578953981399536, 0.028523607179522514], [-0.007625368423759937, -0.0583234466612339, -0.023969272151589394, 0.047804806381464005, 0.02234526537358761, 0.000826737261377275, 0.020686140283942223, 0.07884937524795532, -0.11246791481971741, 0.03920817747712135, 0.05982537940144539, -0.09273082762956619, 0.037059515714645386, -0.09252189844846725, 0.016486844047904015, 0.003414900740608573, 0.015972979366779327, 0.0201802309602499, 0.02431568130850792, 0.10473597049713135, -0.02476480044424534, 0.10941331088542938, -0.002111110370606184, -0.09455817937850952, 0.03355729952454567, -0.036942899227142334, 0.003986224066466093, 0.041907358914613724, 0.021358326077461243, 0.07589846849441528, -0.030711762607097626, 0.01521939504891634, 0.0242877546697855, 0.050129346549510956, -0.013269850984215736, 0.014255331829190254, 0.00034514302387833595, -0.05079403519630432, 0.016943346709012985, -0.00684820581227541, -0.010475607588887215, -0.04330911859869957, -0.021639810875058174, -0.10563798248767853, 0.02794167585670948, 0.054012641310691833, 0.13756906986236572, 0.016437672078609467, -0.004011489916592836, 0.09839615970849991, -0.03461969271302223, -0.09935057908296585, -0.07216405868530273, -0.0346999354660511, 0.004385653883218765, -0.04801112040877342, 0.09632839262485504, -0.031994909048080444, 0.041972219944000244, 0.03959334269165993, -0.07357942312955856, 0.08073127269744873, 0.029041780158877373, -0.019286397844552994], [-0.009461883455514908, 0.021217403933405876, -0.09482534974813461, -0.03378353267908096, -0.008015456609427929, 0.003904504468664527, -0.018405618146061897, -0.083534374833107, -0.04178066551685333, -0.004489383660256863, -0.029202112928032875, 0.10468867421150208, -0.017685173079371452, 0.0330919586122036, -0.015515079721808434, 0.06796681135892868, 0.0022065830416977406, -0.04233499988913536, -0.1017000749707222, 0.006382510531693697, 0.06527069211006165, -0.026432182639837265, 0.02468222938477993, -0.02425760217010975, -0.02055925317108631, 0.1119280681014061, 0.03917257487773895, -0.021606599912047386, 0.010832466185092926, -0.05023043230175972, 0.0008751165005378425, 0.025973301380872726, -0.045186836272478104, 0.05817687138915062, -0.05471246689558029, -0.02946517989039421, 0.05937293916940689, 0.09891638904809952, 0.03975623846054077, -0.02385646663606167, 0.08558119088411331, 0.05814649537205696, 0.031836897134780884, 0.06697238236665726, 0.010805061087012291, -0.08337952196598053, -0.05147884786128998, -0.10787834972143173, 0.059410978108644485, -0.07229705899953842, -0.01636713556945324, -0.02154972217977047, -0.03428039327263832, -0.11200229823589325, 0.047161463648080826, -0.08678313344717026, -0.06995311379432678, -0.09222292900085449, 0.0911472961306572, -0.09228430688381195, -0.03615487366914749, -0.019543465226888657, -0.025922700762748718, -0.079123355448246], [-0.01442702952772379, -0.047319117933511734, -0.07102108001708984, -0.02320796437561512, 0.12358902394771576, -0.019329523667693138, -0.09363307803869247, -0.04798521101474762, 0.017722394317388535, -0.05470558628439903, 0.01152269821614027, -0.0007720724097453058, 0.047676488757133484, -0.10407689958810806, -0.06172782555222511, 0.08952560275793076, -0.05529914051294327, -0.07030024379491806, -0.07496742159128189, 0.06634938716888428, 0.08072196692228317, -0.024820467457175255, 0.05653109773993492, 0.05336838215589523, -0.017454560846090317, 0.05824200063943863, 0.049328941851854324, -0.059999268501996994, -0.041179172694683075, -0.015968916937708855, -0.052062418311834335, 0.05791928246617317, 0.04201055318117142, 0.06549221277236938, 0.056228507310152054, 0.09488260746002197, -0.036852821707725525, 0.037459198385477066, -0.03606315702199936, 0.016786782070994377, -0.08232242614030838, -0.039584286510944366, -0.0011232158867642283, -0.07189330458641052, 0.12835825979709625, -0.06731291115283966, -0.06796558201313019, -0.025136960670351982, 0.05371358245611191, -0.07620879262685776, 0.02773151732981205, 0.00424751965329051, 0.01786767691373825, -0.014269454404711723, 0.01831447333097458, -0.037417322397232056, -0.013107256032526493, -0.012384331785142422, -0.0163828507065773, 0.007445315830409527, -0.014683576300740242, -0.050451915711164474, 0.008141598664224148, 0.028585711494088173], [0.012643867172300816, -0.014277694746851921, 0.04892878606915474, 0.02572423592209816, -0.0009160195477306843, 0.03027716465294361, -0.09832759201526642, -0.09515932202339172, 0.06468924134969711, -0.10038866102695465, 0.061977140605449677, -0.0630870908498764, -0.009379549883306026, 0.062783382833004, 0.04008956253528595, -0.0028149287682026625, -0.09372938424348831, -0.06697630882263184, 0.03818102180957794, -0.0847398042678833, -0.04252411797642708, -0.026637163013219833, 0.11298418790102005, -0.0003809852059930563, 0.05919032543897629, 0.033809684216976166, 0.09595194458961487, 0.0013631610199809074, -0.06287338584661484, -0.01355467177927494, -0.0323791541159153, -0.09140069782733917, -0.023712679743766785, 0.08287457376718521, 0.00169869523961097, -0.0312473326921463, 0.04045426473021507, -0.015199915505945683, -0.07651710510253906, -0.029852047562599182, -0.049451082944869995, -0.031225955113768578, -0.07004016637802124, 0.0924132764339447, 0.07377451658248901, -0.005963924806565046, -0.02859468013048172, 0.02714722417294979, -0.059080448001623154, 0.05331028252840042, 0.0625234842300415, 0.011882963590323925, 0.031969428062438965, -0.09276404231786728, -0.015465453267097473, -0.01586308144032955, -0.08097896724939346, 0.0028190624434500933, 0.0018714412581175566, -0.01279603224247694, -0.06660181283950806, -0.08886725455522537, 0.06165201589465141, -0.09523902088403702], [0.024219688028097153, 0.012354209087789059, 0.024403193965554237, 0.04725666344165802, 0.026356587186455727, 0.028971517458558083, -0.040918029844760895, -0.06068224459886551, -0.08520644158124924, 0.00010285871394444257, 0.0811406597495079, -0.06997188180685043, 0.05151466652750969, -0.0439237505197525, 0.04531295970082283, 0.060884103178977966, -0.03704240545630455, -0.11251670122146606, -0.09817957878112793, 0.02774565853178501, 0.026699068024754524, -0.014150161296129227, 0.02712632715702057, 0.03645641356706619, -0.11201846599578857, 0.030140092596411705, -0.029998810961842537, -0.03321792930364609, -0.0596226304769516, -0.04945634678006172, -0.014384581707417965, -0.018579630181193352, 0.013672826811671257, 0.053886182606220245, 0.10279259830713272, -0.0016083152731880546, -0.0014391859294846654, 0.018443536013364792, -0.0671539381146431, -0.001076256507076323, 0.048457011580467224, 0.029926542192697525, -0.10038261860609055, 0.005089018493890762, -0.01499633677303791, -0.0930560901761055, -0.1270015388727188, 0.08933451026678085, -0.015008586458861828, 0.09931956231594086, -0.02901565097272396, -0.06774938851594925, 0.027875753119587898, 0.11220206320285797, 0.05707377940416336, 0.1245555430650711, -0.020836498588323593, 0.010895805433392525, -0.03210730105638504, 0.014252443797886372, -0.013188638724386692, -0.06050215661525726, 0.03760485351085663, 0.03079303912818432], [0.022409338504076004, 0.022100677713751793, -0.027762698009610176, 0.031543828547000885, 0.09599065035581589, -0.004683598875999451, -0.07993485033512115, -0.031891223043203354, -0.020270362496376038, -0.060672130435705185, 0.06288497895002365, -0.08007221668958664, -0.023955706506967545, 0.025073600932955742, -0.06325744837522507, 0.03250310570001602, -0.0712314322590828, -0.07318353652954102, -0.0009476151317358017, -0.0861690416932106, 0.0868256613612175, 0.040794260799884796, 0.08563303202390671, -0.030496928840875626, -0.04388062655925751, -0.02140730246901512, -0.03129557892680168, 0.028928641229867935, -0.0429689884185791, 0.0308691319078207, -0.04206079617142677, 0.034009549766778946, -0.06420213729143143, -0.006781573873013258, 0.0014301808550953865, -0.0010034129954874516, -0.009211395867168903, -0.04275798425078392, -0.05373283475637436, -0.0549502968788147, -0.04084516316652298, 0.008098233491182327, -0.06820795685052872, -0.023752808570861816, -0.001976810162886977, -0.03165304660797119, 0.029712369665503502, 0.05080713331699371, -0.10363683849573135, 0.022815661504864693, 0.026297127828001976, 0.052627336233854294, 0.1230529323220253, 0.03266759216785431, -0.05028153210878372, -0.040890734642744064, 0.020392414182424545, -0.08922477811574936, 0.1166524589061737, -0.0484212264418602, -0.0952911302447319, 0.005649345461279154, 0.07010249048471451, -0.08816099911928177], [-0.10454344749450684, 0.0040291184559464455, -0.08466926217079163, -0.031131362542510033, -0.06694728881120682, -0.022473087534308434, -0.01821037009358406, -0.09900808334350586, 0.014911171980202198, -0.008561094291508198, -0.000124499827506952, 0.03494202718138695, -0.028673147782683372, 0.06677388399839401, -0.023145468905568123, -0.017400406301021576, 0.021781370043754578, 0.10428939014673233, -0.013395208865404129, 0.10607925057411194, 0.03710805997252464, -0.11552642285823822, -0.01790023408830166, 0.0211647916585207, 0.05670600384473801, -0.029739543795585632, 0.02534700185060501, -0.029056767001748085, -0.0648358091711998, 0.036365363746881485, -0.04397984966635704, -0.009612894617021084, -0.021907979622483253, 0.0066401055082678795, -0.04701630398631096, -0.05059964954853058, 0.0019424781203269958, -0.0025489379186183214, -0.060352619737386703, -0.005352109670639038, 0.010764488019049168, -0.045625463128089905, -0.01051438506692648, -8.298250031657517e-05, -0.09669478237628937, -0.021716363728046417, 0.05302343890070915, 0.022349152714014053, 0.04357986897230148, 0.1007886603474617, 0.04349377751350403, 0.007532494142651558, -0.025461427867412567, -0.059721689671278, 0.026482142508029938, -0.033794257789850235, -0.02862083539366722, 0.018024908378720284, 0.02136750891804695, -0.007862277328968048, -0.05986720323562622, -0.0395604707300663, -0.09579398483037949, -0.09836073219776154], [-0.0710342600941658, -0.0729193314909935, 0.05087777599692345, 0.0017495764186605811, -0.05082109197974205, -0.04773934930562973, -0.06601659953594208, 0.02092192880809307, 0.0366230309009552, 0.0055294763296842575, 0.08094846457242966, -0.023016981780529022, -0.02356184832751751, -0.03322594612836838, -0.0687151625752449, -0.08198224008083344, 0.03591545671224594, 0.03074919618666172, 0.04717756807804108, 0.021729571744799614, 0.026638658717274666, 0.07655943930149078, -0.0037419949658215046, 0.005734471138566732, 0.000726032187230885, -0.0561903677880764, 0.01879272609949112, 0.004872365389019251, 0.0927787497639656, 0.0513826459646225, -0.0026594919618219137, 0.037475790828466415, -0.05131228640675545, 0.01599252223968506, 0.06954101473093033, 0.04468473047018051, 0.02439458668231964, -0.12956184148788452, 0.12611430883407593, 0.0843782052397728, -0.03167634829878807, -0.08650832623243332, 0.024635346606373787, 0.03963390365242958, -0.05021858215332031, 0.01128430850803852, -0.04233986511826515, 0.047904714941978455, -0.0781848356127739, 0.02537449076771736, -0.01458409521728754, -0.09897008538246155, -0.009010259062051773, -0.031396523118019104, 0.0690692588686943, -0.03847643733024597, -0.053506217896938324, -0.044962603598833084, -0.06717308610677719, -0.030951136723160744, -0.0830993801355362, -0.011266449466347694, 0.002923115622252226, 0.08399709314107895], [-0.014539893716573715, 0.02948649413883686, -0.04600582644343376, -0.02907988801598549, 0.0005283061764203012, -0.0701104998588562, -0.07162746787071228, 0.03243562579154968, -0.037873148918151855, -0.011188821867108345, -0.0759994238615036, -0.020301181823015213, -0.042416367679834366, -0.08778661489486694, 0.0030114524997770786, 0.012283253483474255, -0.0025310900527983904, 0.012087870389223099, -0.006057930178940296, -0.010952538810670376, -0.06403248757123947, -0.08759091049432755, -0.023834768682718277, -0.006472654175013304, -0.001074348227120936, 0.029981713742017746, -0.0040316455997526646, -0.0219980850815773, 0.055264174938201904, 0.06885265558958054, 0.06525690853595734, 0.03427531570196152, -0.05172178894281387, -0.0001866861421149224, -0.09781351685523987, 0.012065867893397808, -0.013697808608412743, 0.04818739742040634, -0.03908291831612587, -0.03172209486365318, -0.03854081779718399, 0.000676903291605413, -0.011481457389891148, -0.06919614970684052, -0.04461235553026199, 0.10762887448072433, 0.016739796847105026, -0.04487064853310585, 0.014497466385364532, -0.047449152916669846, -0.07622945308685303, -0.015024637803435326, -0.02469199150800705, -0.004637029953300953, -0.07964443415403366, -0.05333361774682999, 0.09111853688955307, -0.08220057189464569, -0.01641652174293995, 0.00047049581189639866, 0.0003599516348913312, -0.010091540403664112, 0.11902038753032684, -0.014165680855512619], [0.0378517247736454, -0.009040389209985733, 0.005337580107152462, -0.04762914404273033, -0.034032367169857025, 0.0029611396603286266, 0.0018368614837527275, -0.02604503557085991, 0.015232828445732594, -0.002269946038722992, -0.0360431894659996, -0.039640117436647415, 0.08877989649772644, 0.028515882790088654, 0.0783572643995285, 0.03711847960948944, -0.06876755505800247, -0.044946979731321335, -0.01771686226129532, 0.03172605484724045, -0.0321902371942997, -0.07290717214345932, 0.09175185114145279, 0.03515344858169556, 0.11072491854429245, 0.02611931785941124, -0.056771375238895416, 0.0032394123263657093, -0.032772839069366455, -0.06615225970745087, -0.08742523193359375, 0.07050838321447372, -0.049810223281383514, -0.1003752276301384, -0.01546787191182375, -0.09502612054347992, -0.00019085114763583988, 0.09032927453517914, -0.05626640468835831, 0.06902913749217987, 0.011979702860116959, -0.020099014043807983, -0.0306322630494833, 0.07603790611028671, -0.11507819592952728, 0.04300766438245773, -0.0035237784031778574, -0.04811583086848259, -0.03245579078793526, 0.011916901916265488, 0.040960878133773804, 0.05576564744114876, -0.04371792823076248, 0.055914461612701416, -0.007199278566986322, -0.03120294213294983, -0.008928907103836536, 0.014870363287627697, 0.018623869866132736, -0.04134354367852211, -0.013821598142385483, -0.03818155825138092, 0.02625044621527195, -0.08152847737073898], [-0.031334105879068375, -0.0006452169036492705, -0.10798293352127075, -0.094204381108284, -0.012338506057858467, -0.034447867423295975, 0.08733953535556793, 0.04039746895432472, -0.022914385423064232, -0.023957865312695503, -0.09491903334856033, 0.04700477793812752, -0.009849514812231064, 0.06834890693426132, -0.013037089258432388, 0.0700952410697937, -0.09527580440044403, 0.046150948852300644, 0.015981748700141907, -0.05676020681858063, 0.08947500586509705, 0.07360982149839401, -0.053391505032777786, -0.012901529669761658, -0.03285772725939751, -0.06326210498809814, -0.009166747331619263, -0.028303751721978188, -0.018272899091243744, -0.05135306343436241, 0.04805674031376839, -0.05242794007062912, 0.12432797998189926, -0.032882627099752426, -0.007730481214821339, -0.08003415167331696, 0.09853284806013107, 0.01865999586880207, -0.026163022965192795, -0.07937837392091751, -0.02811599150300026, 0.036302484571933746, -0.017171518877148628, -0.013759242370724678, -0.10620986670255661, -0.00593614624813199, -0.12056376785039902, 0.03171263262629509, 0.027944406494498253, -0.006371614523231983, -0.021306641399860382, 0.04906333610415459, -0.006556801963597536, 0.053078025579452515, 0.02118617668747902, -0.030468802899122238, -0.01005774550139904, 0.08422708511352539, -0.028278827667236328, -0.03824450448155403, 0.04885810986161232, 0.08732257783412933, -0.028579184785485268, -0.06772767752408981], [-0.01277250424027443, -0.1081627756357193, -0.02637373097240925, -0.002591181779280305, -0.024776386097073555, 0.07245496660470963, -0.02846313640475273, -0.030334925279021263, -0.08178508281707764, -0.017580600455403328, 0.0566830076277256, 0.06099517643451691, -0.0007414086721837521, 0.04830492287874222, -0.023700162768363953, -0.08747750520706177, 0.01682346686720848, 0.09822481870651245, 0.01462735328823328, 0.03931669890880585, -0.07933605462312698, 0.06659670174121857, -0.022998636588454247, 0.011486212722957134, -0.03421321138739586, -0.026986902579665184, 0.018845679238438606, -0.0026065732818096876, 0.07871624082326889, -0.04308437556028366, 0.10251504927873611, 0.04053334891796112, -0.122543565928936, -0.06953354924917221, -0.07710310816764832, 0.03050166182219982, -0.08737186342477798, -0.018669577315449715, -0.006486057303845882, -0.003661006921902299, -0.013898804783821106, -0.1139557734131813, -0.07092278450727463, 0.023116065189242363, 0.0038842372596263885, 0.03319809213280678, 0.05393890291452408, -0.02160976454615593, -0.012490089982748032, -0.018150148913264275, -0.059785209596157074, 0.037200286984443665, 0.028450574725866318, -0.04174879193305969, -0.09797827899456024, -0.045252472162246704, 0.06986452639102936, -0.07109920680522919, -0.05323350057005882, 0.04237312823534012, -0.12143536657094955, 0.027680672705173492, 0.07566075772047043, 0.12188992649316788], [0.09771670401096344, 0.05380302667617798, 0.051562607288360596, -0.025578366592526436, 0.03674055635929108, 0.08380437642335892, -0.022882841527462006, -0.05619654431939125, 0.00522408913820982, -0.07497134804725647, -0.04548347741365433, 0.03934124484658241, -0.014662383124232292, 0.01668972708284855, -0.022673210129141808, 0.06709601730108261, -0.0695267766714096, 0.08495242148637772, -0.02226940169930458, -0.11649492383003235, -0.049744170159101486, 0.0051102708093822, 0.05331416055560112, -0.10924217849969864, -0.04216725751757622, 0.09644299745559692, -0.04188578948378563, -0.0014121365966275334, 0.04616455361247063, 0.0002911787305492908, -0.09989945590496063, -0.03651073947548866, 0.006404942832887173, -0.021100621670484543, 0.042842231690883636, 0.06034887582063675, 0.08816889673471451, 0.07559025287628174, 0.05159209296107292, -0.022852564230561256, -0.037571363151073456, -0.0350523367524147, 0.05679784342646599, 0.05282684788107872, -0.030506186187267303, 0.04374661669135094, -0.03756900504231453, -0.03882352262735367, -0.01849532127380371, -0.051036056131124496, -0.1127658411860466, -0.004037408623844385, -0.0017632312374189496, -0.05862473323941231, 0.022277405485510826, 0.04124651849269867, -0.08178523927927017, -0.08661973476409912, 0.10741033405065536, -0.09230715781450272, 0.040089160203933716, 0.006760271266102791, 0.004747081082314253, 0.05413752421736717], [0.007770536933094263, -0.09667153656482697, 0.02099052630364895, -0.02897067181766033, 0.013592508621513844, 0.016294727101922035, -0.021934594959020615, -0.045474402606487274, 0.014214999973773956, -0.1102956235408783, 0.0630902349948883, -0.023898685351014137, 0.04231013357639313, -0.024810688570141792, 0.061404455453157425, -0.0017080705147236586, -0.042103081941604614, -0.04116994887590408, -0.06250249594449997, -0.017604000866413116, 0.021725209429860115, -0.04293126240372658, -0.06385736167430878, -0.006581124849617481, -0.039674822241067886, 0.09176666289567947, -0.013041471131145954, -0.023404467850923538, 0.006898652296513319, -0.10109436511993408, 0.011039821431040764, 0.007097140420228243, 0.023637555539608, -0.0324041023850441, 0.05318363755941391, -0.057161979377269745, 0.05613158643245697, 0.10070335865020752, 0.021501360461115837, 0.013073926791548729, 0.06441151350736618, -0.048504091799259186, -0.02559499815106392, -0.0013678802642971277, 0.03688504919409752, 0.09115453064441681, 0.06499175727367401, -0.01685509644448757, -0.07665632665157318, 0.04126447066664696, 0.036316800862550735, 0.01963895373046398, 0.06709962338209152, -0.03372161462903023, 0.029930254444479942, -0.029881993308663368, -0.02408885955810547, 0.01242651604115963, -0.04138050228357315, 0.015655914321541786, 0.0462522953748703, 0.05312565714120865, -0.03662876412272453, 0.05068124085664749], [-0.08313437551259995, -0.022266149520874023, -0.0637555792927742, -0.0471557192504406, -0.03489159047603607, 0.02948783151805401, -0.030659710988402367, 0.059642888605594635, 0.016634372994303703, 0.0009393168147653341, -0.045440517365932465, -0.02402546815574169, 0.07785706222057343, 0.09937150776386261, 0.0323052816092968, -0.039819296449422836, 0.0028773469384759665, -0.0021303389221429825, -0.013389325700700283, 0.033786188811063766, 0.049033332616090775, -0.0792735293507576, 0.10572461038827896, -0.053739264607429504, -0.02736358903348446, 0.04352095350623131, 0.01796676032245159, 0.02802952565252781, 0.011919992975890636, -0.027090387418866158, -0.013386782258749008, 0.061719853430986404, -0.09107235074043274, -0.027012309059500694, -0.0289745032787323, 0.048156995326280594, 0.07415255159139633, -0.036614906042814255, -0.03913554921746254, -0.03384796157479286, -0.04887373000383377, -0.09491247683763504, -0.057708803564310074, 0.01537171471863985, -0.01830109767615795, 0.00805214699357748, 0.049007847905159, 0.009362839162349701, -0.06337056308984756, -0.06409360468387604, -0.07060910761356354, 0.078715480864048, 0.1006782278418541, 0.05553319305181503, -0.0462796650826931, -0.04265302047133446, 0.04765851050615311, 0.009865421801805496, -0.0840039923787117, -0.023239711299538612, 0.04210972040891647, -0.03450488671660423, -0.08473746478557587, -0.05527741461992264], [0.09673204272985458, 0.04662506282329559, -0.007898792624473572, 0.0030650661792606115, 0.03576810657978058, -0.04903995990753174, -0.026387343183159828, -0.03363288193941116, -0.03250812366604805, -0.012617510743439198, -0.08666198700666428, -0.04392777383327484, -0.1059022769331932, -0.029204532504081726, -0.06931598484516144, 0.03365301340818405, -1.3888020475860685e-05, -0.01489026378840208, -0.018449340015649796, 0.033112168312072754, 0.04063240811228752, -0.02868182770907879, 0.022665344178676605, 0.05154143646359444, -0.05756852403283119, -0.019579045474529266, 0.05426276475191116, 0.004753777291625738, 0.04042394459247589, 0.02664175070822239, 0.0305789764970541, -0.00345446914434433, 0.02694830298423767, -0.02728346735239029, 0.0557696558535099, 0.06543394923210144, 0.030318455770611763, -0.1034868136048317, -0.06087030842900276, -0.10173142701387405, -0.06394477188587189, -0.03314657509326935, -0.07679866254329681, 0.024878252297639847, -0.043815381824970245, 0.0583246648311615, -0.014134892262518406, 0.03905375674366951, 0.039210524410009384, -0.08691990375518799, 0.039404116570949554, 0.03484668210148811, -0.01774846576154232, -0.03369615226984024, -0.06438113749027252, -0.024073544889688492, 0.0016551577718928456, -0.03920276090502739, 0.0439428873360157, -0.05669006332755089, -0.024355243891477585, 0.021802885457873344, -0.049721747636795044, 0.011281418614089489], [-0.08683367073535919, -0.04389437288045883, 0.024686112999916077, -0.053191859275102615, 0.032215673476457596, -0.11871311813592911, -0.053536735475063324, 0.07369602471590042, -0.01146998256444931, -0.03304300829768181, -0.00652120728045702, -0.01859685592353344, 0.017223963513970375, -0.09075144678354263, -0.07082044333219528, 0.07136167585849762, -0.0076643251813948154, -0.02424410730600357, 0.019559402018785477, -0.0677332803606987, -0.015447533689439297, 0.04206998273730278, -0.014632204547524452, -0.10200575739145279, 0.009077966213226318, -0.10455317050218582, 0.04690944030880928, 0.017938746139407158, 0.06787995249032974, 0.011878781951963902, 0.10763922333717346, -0.0674140453338623, 0.08676718920469284, -0.09622488170862198, 0.027022451162338257, 0.022374527528882027, 0.084686279296875, -0.09713170677423477, -0.040038056671619415, 0.017818255349993706, 0.0254621934145689, 0.026043182238936424, -0.031691569834947586, 0.03903647139668465, 0.0629219114780426, 0.03992446884512901, 0.004312046803534031, -0.04999883472919464, 0.0691089928150177, -0.02789490856230259, -0.08634430170059204, -0.08633007854223251, -0.04758021980524063, 0.018382076174020767, -0.04542556405067444, -0.07016521692276001, 0.05011637508869171, 0.019392719492316246, -0.023523185402154922, 0.037549179047346115, 0.12423276901245117, -0.0017442511161789298, 0.07849309593439102, -0.029654648154973984], [-0.05960988625884056, -0.02060808427631855, 0.022187335416674614, -0.03571363165974617, -0.008481298573315144, 0.1045132726430893, -0.05287424102425575, 0.025344666093587875, -0.022155193611979485, 0.0428086593747139, 0.0022199549712240696, 0.032931163907051086, 0.06738262623548508, -0.041832439601421356, 0.021145673468708992, -0.04596685618162155, -0.06180262938141823, 0.05078091099858284, -0.010309906676411629, 0.020616693422198296, -0.013864977285265923, -0.08144591003656387, 0.0392892025411129, 0.01978369988501072, -0.010250669904053211, -0.0471157468855381, -0.028493912890553474, -0.017864996567368507, -0.06069537252187729, -0.10345584899187088, -0.09413179010152817, 0.10790792107582092, -0.0026697569992393255, -0.03879828006029129, 0.014912385493516922, -0.11565130203962326, -0.033978164196014404, -0.05310508981347084, 0.0482981875538826, -0.07130216062068939, 0.0017528778407722712, -0.08610130846500397, 0.08276618272066116, 0.03187473863363266, -0.07335592061281204, 0.0009173816652037203, 0.04837251827120781, 0.03683991730213165, 0.051620908081531525, -0.03321763873100281, 0.0726216584444046, 0.07247236371040344, -0.008495899848639965, 0.0005739837069995701, 0.06504465639591217, 0.018251484259963036, 0.04570530727505684, 0.08920132368803024, -0.08944985270500183, 0.05279860273003578, -0.0006312337354756892, 0.029744857922196388, 0.00634007528424263, -0.047218888998031616], [0.037086810916662216, -0.030128492042422295, 0.02177334763109684, 0.03055899403989315, 0.10676146298646927, -0.0657041147351265, -0.005767002701759338, -0.03806065395474434, -0.035237520933151245, -0.026491178199648857, -0.015146410092711449, -0.07815370708703995, -0.07644787430763245, -0.013464807532727718, 0.017304960638284683, 0.05267505347728729, 0.05995398387312889, -0.0737469345331192, 0.04074758291244507, -0.02300913631916046, -0.03806483745574951, 0.022723784670233727, 0.00449188519269228, -0.018976464867591858, 0.007289130240678787, -0.031752292066812515, -0.003706092480570078, 0.03725830093026161, -0.03766282647848129, -0.04749959334731102, -0.025870097801089287, -0.005369854159653187, 0.0034278843086212873, 0.02240700274705887, -0.056327175348997116, 0.1123243123292923, -0.021458737552165985, -0.0441841185092926, -0.0567672997713089, -0.06092347204685211, 0.006006777286529541, -0.033114511519670486, 0.04765113443136215, -0.0626717209815979, 0.04487784206867218, 0.0046375589445233345, 0.054767727851867676, -0.10307105630636215, 0.08640450239181519, 0.013314318843185902, 0.003491270123049617, -0.07927751541137695, 0.03359132260084152, -0.07770130783319473, -0.07937941700220108, -0.07195486128330231, -0.015522775240242481, -0.0014979148982092738, 0.07391808927059174, -0.021345775574445724, -0.01814895123243332, 0.044531144201755524, 0.00849978532642126, -0.04809648171067238], [0.07624626159667969, 0.06311239302158356, -0.07495024800300598, 0.02117246389389038, 0.08109939098358154, 0.041644420474767685, -0.07488619536161423, -0.03818265721201897, 0.018132714554667473, -0.09295232594013214, -0.03956487029790878, -0.053822003304958344, -0.012377865612506866, 0.06337838619947433, -0.03736165165901184, -0.00029372889548540115, -0.08710400015115738, 0.08589282631874084, -0.07912511378526688, 3.930360253434628e-05, 0.056334491819143295, 0.041280388832092285, -0.008341517299413681, -0.07263436913490295, -0.006251939572393894, 0.10009684413671494, 0.007507144007831812, -0.0393180176615715, -0.06904712319374084, 0.016302820295095444, -0.0926797166466713, -0.08339660614728928, 0.018745340406894684, 0.038123536854982376, 0.02049289457499981, 0.07390675693750381, -0.019061440601944923, 0.010044819675385952, -0.10230883210897446, 0.006469481159001589, -0.06471487879753113, -0.05958278849720955, -0.010805902071297169, 0.0030970044899731874, 0.0009412321378476918, 0.010016975924372673, 0.06560394912958145, 0.041974879801273346, -0.020587632432579994, -0.07370956242084503, -0.07658826559782028, 0.01281606126576662, -0.042835235595703125, -0.0441959910094738, -0.010436191223561764, 0.012293560430407524, 0.0008032390032894909, 0.0289679653942585, -0.01898672804236412, 0.026051172986626625, 0.0012127627851441503, -0.059443701058626175, 0.07714707404375076, 0.027455464005470276], [0.034251678735017776, -0.009887591004371643, -0.01667291857302189, 0.014987489208579063, -0.01735786348581314, 0.03279822692275047, 0.0649823248386383, -0.04895670339465141, 0.026314469054341316, -0.03102138452231884, -0.0008550423081032932, 0.04988931119441986, -0.023538043722510338, -0.04784207046031952, -0.047764573246240616, 0.05022192373871803, -0.027321860194206238, -0.05002620816230774, -0.02706662006676197, -0.037590738385915756, -0.05441167205572128, 0.03426305577158928, 0.05021455138921738, -0.021654793992638588, -0.034432366490364075, 0.07714686542749405, 0.06023020297288895, 0.061751775443553925, -0.012672561220824718, 0.078618124127388, 0.04702725633978844, -0.075375497341156, 0.029918648302555084, -0.04360170662403107, -0.08438331633806229, 0.026327019557356834, 0.0548890195786953, 0.024872492998838425, -0.05294625461101532, 0.044879134744405746, -0.08117783069610596, -0.01051675621420145, -0.06716885417699814, 0.08685674518346786, 0.11218640953302383, 0.027671923860907555, -0.01825442910194397, -0.09528364986181259, -0.014969234354794025, -0.04456538334488869, -0.042773518711328506, 0.03029210865497589, 0.047711893916130066, 0.023023366928100586, -0.09769753366708755, -0.07117743790149689, -0.04661942273378372, 0.021183447912335396, 0.034726496785879135, -0.05470318719744682, 9.732553735375404e-05, 0.029923690482974052, -0.030743736773729324, 0.008144854567945004], [-0.010522075928747654, 0.06782440841197968, 0.09151113778352737, 0.026019567623734474, -0.09328524023294449, -0.04127456620335579, 0.02528470940887928, -0.03647856041789055, -0.047357600182294846, 0.05257364735007286, 0.005219174548983574, 0.012369020842015743, -0.009824822656810284, -0.013265118934214115, -0.1083921417593956, 0.07098308950662613, 0.008924177847802639, 0.013629376888275146, -0.016060009598731995, 0.01146126538515091, -0.04065287113189697, 0.0405602790415287, -0.04209309443831444, -0.10211656987667084, -0.05515647307038307, 0.03559985011816025, -0.041977353394031525, 0.10789607465267181, -0.05468430742621422, 0.0031240221578627825, 0.04547693952918053, 0.025991035625338554, -0.020274480804800987, 0.013230103068053722, -0.01947461999952793, -0.010324496775865555, -0.03499295562505722, -0.07766653597354889, 0.0011722471099346876, -0.03402362018823624, -0.0846153050661087, -0.026011943817138672, -0.020222129300236702, 0.028979064896702766, 0.018577326089143753, 0.02726898528635502, -0.04754257947206497, -0.04014278203248978, 0.1056450754404068, -0.062238533049821854, -0.008913397789001465, -0.08131115138530731, -0.0867166817188263, -0.09350991249084473, -0.10927001386880875, -0.070478655397892, -0.06192934513092041, -0.06077319011092186, -0.03412440046668053, 0.006976923905313015, 0.11161979287862778, 0.08553086966276169, -0.00791099388152361, 0.09498769789934158], [0.012454798445105553, 0.013048537075519562, -0.005023199133574963, 0.053012676537036896, -0.07644490152597427, 0.03737114742398262, 0.0003235737094655633, -0.05496268346905708, -0.0506741963326931, -0.029062939807772636, 0.07439152151346207, 0.011441821232438087, 0.09143250435590744, -0.05391070246696472, -0.07647806406021118, -0.11463973671197891, -0.05348137766122818, -0.01978634111583233, -0.05146985501050949, 0.06464051455259323, -0.10183661431074142, 0.058049820363521576, -0.061852581799030304, 0.006123259663581848, -0.04529239982366562, 0.04286060854792595, 0.031428560614585876, 0.08733474463224411, -0.022106081247329712, 0.004174103029072285, -0.0690619945526123, 0.06223634257912636, -0.030685216188430786, -0.09922056645154953, 0.020555080845952034, 0.021258007735013962, 0.035067446529865265, 0.04445130005478859, -0.07461829483509064, 0.09340965747833252, -0.0389060452580452, -0.09257958084344864, -0.07981442660093307, 0.020822497084736824, -0.0782216489315033, 0.044739410281181335, 0.08822475373744965, 0.0911765769124031, -0.11523156613111496, 0.029079731553792953, 0.07412306219339371, 0.09785440564155579, -0.07244357466697693, 0.0649603009223938, 0.02630213275551796, -0.011295117437839508, -0.08749040961265564, 0.02908412553369999, -0.0685342475771904, -0.04565916210412979, 0.01853698119521141, -0.013488058932125568, 0.052222300320863724, -0.06873364746570587], [-0.042208220809698105, -0.03099743090569973, -0.027072127908468246, 0.034724846482276917, 0.04964527487754822, -0.05958648398518562, -0.0842263251543045, 0.01674998179078102, -0.08815639466047287, -0.02499070204794407, -0.034389056265354156, -0.04967975988984108, -0.027086136862635612, -0.023790515959262848, 0.001969931647181511, -0.0845709815621376, 0.08177994191646576, -0.006248624064028263, 0.03892859071493149, 0.10825295746326447, -0.04900428280234337, -0.09255778789520264, 0.03382189944386482, -0.01862492971122265, -0.01929459348320961, -0.04408572241663933, 0.057467758655548096, -0.053614597767591476, -0.04445445537567139, 0.0009085768833756447, 0.1040567010641098, 0.08435345441102982, -0.09861580282449722, -0.048081543296575546, 0.10171621292829514, -0.06439357250928879, -0.09680112451314926, -0.08381635695695877, 0.11920686066150665, 0.048473287373781204, -0.0700366422533989, -0.07120756804943085, -0.09732528775930405, -0.018339378759264946, -0.05623709782958031, 0.05496382713317871, -0.05343939736485481, 0.08300185948610306, 0.05645044893026352, 0.09591308236122131, -0.0261167511343956, 0.009408112615346909, -0.0791795551776886, -0.04004676267504692, 0.034701284021139145, -0.0263335183262825, 0.05121312662959099, 0.036380160599946976, 0.023779692128300667, 0.12550249695777893, -0.08149321377277374, -0.08453568071126938, 0.06339330226182938, -0.05901174619793892], [0.020458603277802467, -0.08811578899621964, -0.003831184469163418, 0.058025021106004715, -0.03618435934185982, 0.05864882841706276, 0.031030084937810898, -0.07107799500226974, 0.10284581035375595, -0.022876013070344925, 0.0628863051533699, 0.03875062242150307, -0.09973526746034622, 0.03769386187195778, 0.08099314570426941, 0.045887306332588196, -0.029999691992998123, 0.020264947786927223, -0.03662905842065811, -0.07219227403402328, -0.021745536476373672, 0.001460836734622717, -0.03461843729019165, -0.09479191899299622, -0.005237141158431768, 0.10023422539234161, -0.029630903154611588, -0.020173219963908195, -0.06572345644235611, -0.055322229862213135, 0.046743880957365036, 0.06784428656101227, 0.018444159999489784, -0.069758340716362, -0.007790715899318457, -0.029201384633779526, -0.07315638661384583, 0.049386218190193176, -0.05096492916345596, 0.0447339303791523, 0.09773097187280655, 0.04116310551762581, -0.023394545540213585, 0.06422679871320724, -0.07370423525571823, 0.07364355772733688, 0.06719006597995758, -0.0582977719604969, -0.06841430813074112, 0.03431534394621849, -0.06963690370321274, 0.03131788223981857, 0.07775010168552399, -0.04388528689742088, -0.11621464788913727, -0.03426911309361458, -0.031371183693408966, -0.0759417861700058, -0.09850785881280899, 0.035692643374204636, 0.03123730793595314, -0.057459451258182526, 0.005505588836967945, -0.024983227252960205], [-0.07888735085725784, 0.021258031949400902, 0.028582926839590073, -0.02821126952767372, -0.039930325001478195, -0.028895629569888115, 0.0107340756803751, 0.03285878896713257, -0.0359635092318058, -0.10035084187984467, 0.0802709311246872, 0.011704018339514732, 0.0714440569281578, 0.002606839407235384, -0.02559497021138668, 0.03818710893392563, -0.031659115105867386, 0.018161658197641373, -0.03396644815802574, -0.04931076243519783, 0.0034312366042286158, -0.06702695786952972, -0.0290079303085804, 0.10234631597995758, -0.041294731199741364, -0.048187505453825, -0.0453890785574913, -0.01866445131599903, 0.10713470727205276, -0.052255358546972275, 0.008761005476117134, 0.03125773370265961, -0.035204414278268814, -0.01481461338698864, 0.04085006192326546, -0.08600308746099472, -0.05306774377822876, 0.039949383586645126, 0.03843051195144653, -0.06056269258260727, 0.0363093800842762, 0.011562434025108814, -0.03766784444451332, -0.08263812214136124, 0.049877408891916275, 0.052047111093997955, -0.01892681047320366, -0.025367943570017815, 0.028465760871767998, -0.041790671646595, 0.06632022559642792, 0.09034965932369232, 0.032819073647260666, 0.01114701759070158, 0.09657935053110123, 0.08642744272947311, 0.022328320890665054, 0.07234714180231094, -0.07343793660402298, 0.10510258376598358, 0.025754418224096298, -0.010998787358403206, 0.050262972712516785, 0.05711083486676216], [-0.038405537605285645, 0.10709680616855621, -0.03199265897274017, -0.04871533066034317, -0.06077844649553299, 0.02478601783514023, 0.046593762934207916, -0.0003168905386701226, -0.08131889998912811, -0.04952483996748924, 0.021193457767367363, -0.10203205794095993, -0.06175615265965462, 0.0010191771434620023, 0.04502946510910988, 0.03431163355708122, 0.007691691629588604, -0.0722011998295784, 0.10794343799352646, 0.015511222183704376, 0.06837433576583862, -0.03553253039717674, -0.08292858302593231, 0.01991138607263565, 0.03408542647957802, 0.03913693130016327, -0.08532657474279404, -0.04432562366127968, -0.08611360192298889, -0.016800180077552795, 0.050550129264593124, -0.06498584151268005, 0.06275433301925659, -0.0884392261505127, -0.08849140256643295, -0.04716937243938446, 0.04692905768752098, -0.09037502855062485, 0.03625273331999779, 0.02498762123286724, -0.06232728436589241, 0.03469335287809372, 0.027995528653264046, 0.002297794446349144, -0.07576553523540497, 0.040741316974163055, 0.04567740485072136, -0.04623836278915405, 0.06370644271373749, 0.09556765854358673, 0.05334850773215294, 0.03823442757129669, -0.01072877086699009, 0.0198976993560791, 0.04776477813720703, 0.03845280408859253, -0.07859112322330475, 0.022074926644563675, -0.023097315803170204, -0.08679433912038803, 0.12991833686828613, 0.10611625760793686, -0.07108081877231598, 0.05289283022284508], [-0.03247205913066864, -0.027931559830904007, 0.11031994223594666, 0.05992300808429718, 0.008341792970895767, 0.0019392623798921704, -0.09000196307897568, -0.02710721269249916, 0.004710485227406025, 0.02107042819261551, 0.032541148364543915, -0.05731726065278053, -0.05539814010262489, -0.10264112055301666, -0.027245687320828438, -0.07351665943861008, -0.03978252410888672, -0.10071613639593124, -0.0782766044139862, 0.017594613134860992, 0.003752599935978651, 0.0759730339050293, 0.008091564290225506, 0.051881834864616394, -0.09514746069908142, 0.03374045342206955, 0.017371775582432747, 0.029202532023191452, -0.06703224778175354, -0.11115443706512451, 0.004242613445967436, -0.04886341094970703, -0.058099888265132904, -0.05287766829133034, 0.021806636825203896, -0.07743330299854279, 0.04002060741186142, -0.08875960111618042, -0.09860154241323471, -0.02273491770029068, 0.03322277218103409, 0.011538290418684483, -0.04840776324272156, -0.0023483727127313614, -0.07797139883041382, -0.029835689812898636, 0.09061307460069656, 0.08726037293672562, -0.05437822267413139, 0.0797165110707283, -0.012677718885242939, 0.06913917511701584, -0.05467937886714935, 0.026166152209043503, -0.010558024048805237, 0.11948465555906296, -0.029715711250901222, 0.04928688704967499, -0.010630790144205093, -0.07354754954576492, 0.05135174095630646, 0.09991404414176941, -0.00564293609932065, 0.04770936071872711], [0.11111943423748016, -0.03489130362868309, -0.013847844675183296, -0.0742148831486702, 0.037358492612838745, 0.037346187978982925, -0.062378108501434326, 0.06337922066450119, 0.09587658196687698, -0.027612080797553062, -0.07283990830183029, -0.06596820801496506, -0.03007018379867077, -0.04853767901659012, 0.00453209551051259, 0.07030094414949417, -0.06633195281028748, -0.06590983271598816, 0.06009503826498985, -0.11995965242385864, 0.08695273101329803, 0.04053918644785881, 0.04550456255674362, -0.03897077217698097, -0.09035032987594604, 0.06803873926401138, 0.01817629672586918, -0.04808269068598747, 0.02821371518075466, -0.01038969773799181, -0.08515223115682602, -0.007420866750180721, 0.05023328959941864, 0.11730927973985672, -0.06740216910839081, 0.10187239199876785, 0.04845987260341644, -0.11082147806882858, -0.08809207379817963, -0.04677308723330498, -0.04510708153247833, 