{"format": "smartglove_mlp_v1", "created": "2026-04-20T01:58:50.792407", "accuracy": 1.0, "labels": ["BAD", "CALL", "GOOD", "HELLO", "LOVE", "MILK"], "n_features": 22, "feature_names": ["R.Thumb", "R.Index", "R.Middle", "R.Ring", "R.Pinky", "L.Thumb", "L.Index", "L.Middle", "L.Ring", "L.Pinky", "aX1", "aY1", "aZ1", "gX1", "gY1", "gZ1", "aX2", "aY2", "aZ2", "gX2", "gY2", "gZ2"], "normalization": {"mean": [0.12246237602440252, 0.2823213426783107, 0.9286209870280503, 0.921674026970007, 0.30552342913133196, 0.0779097430683773, 0.25103612253984947, 0.43189328399642496, 0.3264155939384381, 0.3022613588477009, 0.31072424318514913, 0.35940269682240933, -0.054092088756946356, 0.5081360979833484, -0.29987611311679874, 0.6552261511615877, 2.2231202321937316, -0.8577273142303967, 0.809612829459635, 0.2731646071338594, -0.7844745048607388, 0.6660866729147056], "std": [0.31779744233998736, 0.4155045922774901, 0.2550457580601221, 0.26859584534684117, 0.4598386503206378, 0.2679213714149948, 0.32620739285326916, 0.481428606041633, 0.38871358457827804, 0.40687182545912615, 0.4971769540534881, 0.6090100319620094, 0.42103064999206563, 0.3168678921128606, 0.4010299821830967, 0.289639366518463, 14.053946702566558, 19.214470957611763, 14.15615783364852, 15.004515300377138, 6.694714269524035, 11.107134139182776]}, "layers": [{"weights": [[0.19482429325580597, -0.0807332918047905, 0.1582205891609192, 0.11870253831148148, 0.19480589032173157, -0.14289841055870056, -0.11706829816102982, -0.08032121509313583, -0.14461445808410645, 0.12984374165534973, 0.008915909565985203, 0.04961181432008743, -0.21807602047920227, -0.06925947219133377, -0.07066965848207474, -0.047845665365457535, -0.024337125942111015, -0.07040832936763763, -0.10471318662166595, 0.18394431471824646, 0.08784474432468414, 0.14679323136806488, -0.022892652079463005, 0.06094260886311531, -0.03649023920297623, -0.18751363456249237, -0.02850029431283474, 0.11716368049383163, 0.09756865352392197, -0.16102828085422516, -0.04100452736020088, 0.012133297510445118, -0.17044705152511597, -0.14543397724628448, 0.14825767278671265, 0.1830495148897171, 0.08058550953865051, 0.08041704446077347, 0.10621809959411621, -0.019239507615566254, 0.14476348459720612, -0.0713486522436142, -0.004304902162402868, -0.051948439329862595, -0.15504559874534607, -0.10070478916168213, -0.23727145791053772, 0.23579004406929016, 0.021148283034563065, -0.15352080762386322, 0.10753291845321655, -0.03544969484210014, -0.08068232238292694, -0.055413905531167984, -0.1276901513338089, -0.17047296464443207, 0.17047607898712158, -0.07489971816539764, -0.11691249907016754, 0.03017638809978962, 0.1142781674861908, -0.1301979273557663, 0.1797424703836441, 0.1903078705072403, 0.12649977207183838, -0.18974290788173676, 0.18702498078346252, 0.014928859658539295, 0.03753596544265747, -0.0018231166759505868, 0.18391869962215424, -0.20117542147636414, 0.10913775861263275, -0.050669051706790924, 0.23661474883556366, 0.01504816859960556, -0.14742086827754974, 0.10000675916671753, 0.14316371083259583, -0.05827926844358444, 0.19792897999286652, 0.21201041340827942, 0.14954006671905518, -0.09182991087436676, -0.1781848520040512, -0.006775643210858107, -0.2094341665506363, 0.12645329535007477, 0.1954697221517563, 0.02330726571381092, -0.17093193531036377, 0.10768483579158783, 0.03735505789518356, -0.2392178177833557, 0.03649173304438591, 0.018198871985077858, 0.1219799593091011, 0.12900887429714203, -0.07941487431526184, 0.03052091971039772, 0.08832184970378876, -0.20271848142147064, 0.1599861979484558, -0.009146383963525295, 0.09233897179365158, -0.0118537787348032, 0.12898321449756622, -0.12878169119358063, -0.04597785323858261, -0.055278293788433075, -0.14896732568740845, -0.0040429020300507545, -0.01571461744606495, 0.14844264090061188, 0.03442089632153511, 0.09185229241847992, -0.0334501713514328, -0.06370695680379868, -0.118355393409729, 0.19801078736782074, -0.18160241842269897, -0.07901020348072052, 0.19534924626350403, -0.1976131945848465, 0.05063829571008682, 0.15101642906665802, -0.11646488308906555, -0.08784691989421844], [-0.09045270830392838, -0.255063533782959, -0.15732954442501068, -0.0007142826216295362, 0.1384374052286148, -0.17692166566848755, 0.030379611998796463, -0.12544669210910797, -0.011912018060684204, 0.141495943069458, -0.05312397703528404, 0.08903992176055908, 0.08386778086423874, 0.14990267157554626, 0.04474203661084175, 0.2322787642478943, 0.08890079706907272, -0.08259131014347076, 0.17275020480155945, 0.24948032200336456, 0.15023164451122284, -0.14201106131076813, 0.0062959566712379456, 0.1570284217596054, -0.07337643951177597, 0.034429121762514114, -0.15784549713134766, 0.03167431429028511, 0.07324086874723434, -0.07120577245950699, -0.18285375833511353, -0.028348932042717934, -0.02655191905796528, -0.058729927986860275, -0.02386721968650818, 0.2274359166622162, 0.07018685340881348, -0.04125623777508736, -0.2127275913953781, -0.06938217580318451, -0.1322602480649948, 0.05720259249210358, 0.13852381706237793, 0.10380551964044571, 0.09183401614427567, 0.12097093462944031, 0.12238696962594986, -0.11370357125997543, 0.07203620672225952, 0.06235779449343681, 0.21278037130832672, 0.13049085438251495, 0.005935491994023323, -0.02008112147450447, -0.022498859092593193, -0.06351345032453537, 0.1553826928138733, 0.054682906717061996, 0.034855131059885025, 0.13031667470932007, -0.15720053017139435, -0.03954014554619789, -0.197174072265625, 0.047531526535749435, 0.1875808835029602, 0.16742606461048126, 0.20427270233631134, 0.024348152801394463, 0.11506591737270355, 0.13736025989055634, -0.12655866146087646, -0.16057255864143372, -0.22352102398872375, -0.14704589545726776, -0.18155193328857422, 0.06630510836839676, 0.1142803430557251, -0.21995681524276733, -0.053348589688539505, 0.1413089781999588, 0.09978646039962769, -0.15516965091228485, 0.19211675226688385, -0.19901500642299652, 0.19242461025714874, -0.1484384536743164, -0.05085480585694313, -0.07124239951372147, -0.10363605618476868, 0.048316456377506256, 0.13590669631958008, 0.05402699112892151, 0.22383664548397064, -0.12930303812026978, -0.21702872216701508, 0.1466701328754425, 0.13741637766361237, 0.037836845964193344, 0.03362879157066345, -0.014011451043188572, -0.12258563935756683, -0.2278098165988922, 0.15499833226203918, 0.06490547209978104, 0.253224641084671, 0.17346099019050598, 0.024570440873503685, -0.1782970130443573, -0.23981578648090363, -0.14494538307189941, 0.08986904472112656, -0.0775911882519722, -0.14971725642681122, -0.07876968383789062, 0.059162531048059464, -0.20555995404720306, 0.1566282957792282, 0.1022481694817543, -0.2512916326522827, 0.16326123476028442, -0.16919714212417603, 0.1572084128856659, 0.09540069103240967, -0.21714212000370026, -0.24811714887619019, -0.207310751080513, -0.07021865993738174, 0.1151319146156311], [-0.11536124348640442, 0.22630897164344788, 0.1300317496061325, 0.08318839222192764, -0.02124200575053692, 0.0017550901975482702, 0.12098513543605804, 0.1366899460554123, 0.012731910683214664, 0.19230087101459503, -0.2092185765504837, -0.15894749760627747, 0.17527073621749878, 0.08493367582559586, -0.034197334200143814, 0.15874125063419342, 0.11009529232978821, -0.10531734675168991, -0.12424890697002411, -0.1491115689277649, 0.08109837770462036, 0.12558375298976898, 0.04713362082839012, 0.12731947004795074, -0.002472973894327879, 0.18476107716560364, 0.1527886539697647, -0.07980653643608093, 0.06859871745109558, 0.10488453507423401, 0.053238645195961, 0.05074506625533104, -0.0014487700536847115, 0.1187240332365036, -0.1593177765607834, 0.07463362067937851, 0.04697488248348236, 0.16390740871429443, 0.1610257774591446, 0.08608253300189972, -0.0458630695939064, -0.0493607297539711, -0.08429655432701111, 0.14307686686515808, 0.1728772521018982, -0.10550367087125778, 0.027206160128116608, 0.13529083132743835, -0.0200112983584404, 0.24907836318016052, -0.06147183105349541, -0.0018079110886901617, 0.07680108398199081, 0.13594578206539154, -0.11101214587688446, -0.2190244048833847, -0.0505577027797699, -0.12056917697191238, -0.11733367294073105, 0.05274612456560135, 0.08958948403596878, -0.13474757969379425, 0.2124936431646347, -0.03680462762713432, -0.2107187956571579, 0.11190148442983627, -0.09960005432367325, -0.06737486273050308, 0.217921182513237, 0.14411747455596924, 0.1577243208885193, -0.053545188158750534, 0.18487556278705597, -0.03205830603837967, -0.024675926193594933, -0.23021700978279114, -0.12257944047451019, -0.045066069811582565, 0.10340827703475952, 0.09689408540725708, -0.09559187293052673, 0.0735493004322052, 0.1985936313867569, 0.14538583159446716, 0.07407304644584656, 0.008572664111852646, 0.15348029136657715, -0.1416100412607193, 0.06773985922336578, 0.08285313844680786, 0.1904447376728058, 0.12072202563285828, -0.2455493062734604, 0.1897161602973938, -0.08444288372993469, 0.023006156086921692, 0.036472074687480927, 0.032308921217918396, 0.020321941003203392, -0.09313303232192993, -0.25084733963012695, -0.1304302215576172, -0.06405127793550491, -0.16057150065898895, 0.059047576040029526, -0.17038613557815552, 0.14557857811450958, 0.08331380039453506, -0.17337194085121155, 0.05163412168622017, -0.0903533473610878, 0.25246545672416687, -0.03116362914443016, -0.08340737968683243, -0.05855058506131172, 0.1480797976255417, -0.10781065374612808, 0.08297812938690186, 0.07692970335483551, -0.03526037931442261, -0.12877610325813293, -0.053658805787563324, 0.022277047857642174, -0.21190394461154938, 0.10688836872577667, -0.14567060768604279, 0.14800280332565308, 0.20440617203712463], [0.1196506917476654, 0.19834403693675995, -0.07056161016225815, 0.11702276021242142, -0.024594295769929886, -0.057886261492967606, -0.18793697655200958, -0.03467242419719696, -0.196915864944458, -0.09690739959478378, 0.03918624296784401, -0.004630249924957752, 0.057981498539447784, -0.023029251024127007, -0.00829949602484703, 0.00821922067552805, -0.18891024589538574, -0.1108335480093956, -0.04575018212199211, 0.09451685100793839, -0.1625501811504364, -0.011529606766998768, -0.11169681698083878, 0.19041185081005096, 0.04061528295278549, 0.17987066507339478, 0.16072237491607666, -0.0384180024266243, -0.028343569487333298, 0.19577425718307495, -0.04417044669389725, 0.0052518341690301895, -0.05650480464100838, 0.0003328466264065355, -0.011987721547484398, 0.06762788444757462, -0.060636747628450394, 0.16513103246688843, 0.1590203493833542, 0.1565314531326294, -0.03643226623535156, 0.02084382064640522, -0.1947842538356781, -0.06038431078195572, -0.050756119191646576, -0.14189890027046204, 0.030899563804268837, -0.02874838560819626, -0.19592027366161346, 0.2530615031719208, 0.12740835547447205, 0.22520408034324646, -0.05752011388540268, 0.23478202521800995, -0.13704748451709747, -0.0034454185515642166, 0.1362009197473526, -0.09171174466609955, -0.021979155018925667, -0.15268270671367645, -0.18619553744792938, -0.13687823712825775, -0.03604861721396446, 0.06726808100938797, 0.056917913258075714, 0.13150419294834137, -0.06333384662866592, 0.01176539994776249, 0.09574129432439804, -0.11471337080001831, -0.21374428272247314, -0.14207617938518524, -0.17432016134262085, 0.07779211550951004, 0.08410994708538055, -0.010587743483483791, 0.1010674461722374, 0.11522455513477325, 0.12106778472661972, -0.03374975174665451, 0.03421708941459656, 0.011861641891300678, -0.16330301761627197, 0.2465347945690155, 0.13857907056808472, -0.12040898203849792, 0.06844945251941681, 0.1740352064371109, -0.03183027729392052, 0.09979233890771866, 0.20033632218837738, 0.09347459673881531, 0.15850532054901123, 0.1514023244380951, 0.16199475526809692, -0.16223439574241638, 0.06857176870107651, -0.041898250579833984, -0.06793881952762604, -0.1844383180141449, 0.15956439077854156, -0.028029628098011017, 0.05336833372712135, -0.018570415675640106, -0.029475953429937363, 0.06275368481874466, -0.05097276717424393, 0.04171965271234512, 0.03011026792228222, 0.18867884576320648, -0.04591090977191925, 0.20001430809497833, 0.08456592261791229, -0.1747867912054062, -0.12514612078666687, 0.0012330036843195558, -0.06282681226730347, 0.18629154562950134, -0.22951526939868927, 0.12910501658916473, -0.23682807385921478, -0.04143795743584633, 0.061286479234695435, -0.22959759831428528, -0.026169300079345703, -0.1293150633573532, -0.13062375783920288, -0.03071335330605507], [-0.10731497406959534, -0.17001193761825562, 0.09264563024044037, -0.05989623814821243, 0.11049270629882812, 0.21210649609565735, -0.03672616556286812, -0.08028861880302429, 0.16275885701179504, -0.06115409731864929, -0.09613734483718872, -0.1312674731016159, -0.17388713359832764, 0.16079045832157135, -0.20230551064014435, 0.04433371126651764, -0.252755731344223, 0.0731087476015091, -0.13245154917240143, -0.04399292916059494, -0.027450913563370705, -0.1832488477230072, 0.1627046912908554, 0.03655870631337166, 0.16566184163093567, 0.043490368872880936, 0.15377312898635864, 0.14314551651477814, -0.013586356304585934, 0.08162488043308258, -0.006490023341029882, -0.1858980655670166, 0.18901896476745605, -0.0308460034430027, -0.16030581295490265, -0.08494554460048676, 0.18850305676460266, 0.007556508760899305, -0.11877137422561646, 0.25211501121520996, -0.1251251995563507, -0.039772603660821915, -0.03211325407028198, 0.08953921496868134, -0.2561764419078827, -0.06084992736577988, 0.08923801779747009, -0.00619936641305685, 0.05849441885948181, -0.027107007801532745, -0.12761849164962769, -0.07221747189760208, 0.17755523324012756, -0.1529635190963745, -0.11810648441314697, 0.018074842169880867, 0.18818943202495575, 0.08638978749513626, 0.1667439192533493, 0.007975626736879349, 0.013034272938966751, 0.1988755613565445, 0.13382242619991302, -0.1320359855890274, 0.21421721577644348, 0.03251193091273308, -0.23547270894050598, -0.04011213406920433, -0.1926189810037613, -0.25351038575172424, -0.12535957992076874, 0.09899748116731644, -0.07294107228517532, 0.1937135010957718, 0.2417827546596527, 0.07159875333309174, 0.24217605590820312, -0.12219599634408951, -0.03184105455875397, -0.23089061677455902, -0.21879565715789795, 0.16064471006393433, -0.16495630145072937, -0.2650316655635834, 0.14244835078716278, -0.01492833998054266, 0.10451503843069077, 0.22104166448116302, -0.025769498199224472, -0.021099209785461426, -0.0914696455001831, -0.11904215067625046, 0.19915570318698883, 0.04725947976112366, 0.19210781157016754, 0.08323647826910019, 0.058261439204216, -0.16410329937934875, -0.04101479798555374, -0.18891768157482147, -0.17617779970169067, 0.023087644949555397, 0.20160996913909912, 0.11757051199674606, 0.004064764361828566, -0.08178940415382385, 0.0501498319208622, -0.023996626958251, -0.13115648925304413, 0.14187540113925934, -0.09145096689462662, -0.18775354325771332, 0.14228825271129608, 0.18860453367233276, -0.06062160059809685, -0.10710864514112473, -0.18013282120227814, 0.07808545976877213, -0.050101038068532944, 0.10587705671787262, 0.04382292181253433, 0.14925211668014526, 0.0370200090110302, 0.04977982118725777, 0.011392478831112385, -0.039115212857723236, -0.04990779608488083, -0.05054713413119316], [-0.21741648018360138, 0.13056635856628418, -0.020464768633246422, -0.05715295299887657, -0.0690343976020813, 0.01899764873087406, 0.00118954386562109, 0.20283496379852295, -0.08551477640867233, -0.05479316785931587, -0.23111364245414734, 0.16396178305149078, -0.08310837298631668, 0.1069578304886818, -0.025044666603207588, -0.21309807896614075, -0.05524986982345581, -0.10330470651388168, -0.045420266687870026, -0.035514164716005325, 0.1587260365486145, 0.07905945181846619, -0.08268821984529495, 0.24758510291576385, 0.11990924179553986, -0.16576403379440308, -0.08831974118947983, -0.048926617950201035, 0.12874475121498108, -0.15033921599388123, -0.2530331611633301, 0.03632489591836929, -0.20237092673778534, 0.06333062797784805, -0.20264914631843567, 0.04879959672689438, 0.21878978610038757, -0.041880372911691666, -0.09475992619991302, 0.19586898386478424, -0.17709217965602875, 0.13347291946411133, 0.01451012771576643, 0.02436308190226555, 0.1520056277513504, 0.11878660321235657, -0.02349814772605896, 0.1139853373169899, -0.041874758899211884, 0.18638849258422852, 0.07387695461511612, -0.1299261748790741, -0.014729310758411884, 0.20246344804763794, 0.044627539813518524, -0.16524554789066315, 0.20244920253753662, 0.10215301066637039, 0.0270172581076622, -0.004229420330375433, -0.16262857615947723, 0.15822197496891022, -0.03187888115644455, -0.01744713820517063, 0.10624007880687714, 0.2180638611316681, 0.09576636552810669, -0.0658041313290596, -0.22585397958755493, -0.012315364554524422, -0.17296922206878662, -0.005564549006521702, 0.10463819652795792, 0.030585628002882004, 0.128805011510849, 0.03605680912733078, 0.11211013048887253, 0.07291683554649353, 0.13582105934619904, -0.09618441760540009, 0.15326911211013794, 0.05227801948785782, -0.17578548192977905, -0.06318779289722443, 0.12579697370529175, 0.2291395515203476, 0.14976732432842255, 0.07323332130908966, 0.176516592502594, -0.17883418500423431, 0.1377052515745163, 0.13873016834259033, -0.10902450233697891, 0.09797372668981552, 0.20130997896194458, -0.03430776298046112, 0.26477694511413574, 0.016939546912908554, -0.16382944583892822, 0.0009619688498787582, 0.11485922336578369, -0.13702671229839325, 0.10355237126350403, -0.025375831872224808, 0.0532364621758461, -0.016575884073972702, -0.25485435128211975, 0.11488304287195206, -0.17503608763217926, -0.011956896632909775, -0.21436497569084167, -0.07466331124305725, 0.08285806328058243, -0.15933214128017426, -0.11588268727064133, -0.19148536026477814, -0.13876253366470337, 0.061671677976846695, -0.14642903208732605, -0.09598895162343979, 0.18583878874778748, -0.1273249238729477, -0.23694975674152374, 0.185397207736969, 0.11438856273889542, -0.2071397453546524, 0.12234991043806076, -0.12032852321863174], [0.01637527532875538, -0.1451399326324463, 0.0023203548043966293, -0.010441848076879978, -0.16058243811130524, -0.11233961582183838, 0.1395048052072525, 0.1461673378944397, 0.03323368355631828, -0.16028772294521332, -0.04822684824466705, 0.12462789565324783, -0.14757968485355377, -0.1185246929526329, -0.023687466979026794, -0.14127400517463684, -0.10077839344739914, 0.0836932584643364, -0.16431312263011932, 0.08365606516599655, -0.056286901235580444, -0.18803559243679047, 0.16762955486774445, 0.08137552440166473, -0.12572915852069855, 0.16193832457065582, 0.18355192244052887, -0.18134833872318268, -0.14296995103359222, 0.056585270911455154, -0.22771219909191132, 0.01810227334499359, -0.03783555328845978, 0.14034447073936462, 0.007148340810090303, -0.04254547506570816, 0.18412548303604126, 0.01502156164497137, -0.16453008353710175, -0.034791313111782074, -0.1870051473379135, 0.1178491860628128, 0.19990624487400055, 0.10728612542152405, 0.16522470116615295, 0.220209538936615, -0.17754514515399933, 0.09777716547250748, 0.04443337395787239, 0.06178352236747742, -0.14730942249298096, 0.10367850214242935, 0.09620896726846695, 0.16968953609466553, 0.07969065010547638, 0.2021283656358719, 0.15593521296977997, -0.10256718099117279, 0.049369752407073975, 0.048676345497369766, -0.05308578535914421, -0.1296362727880478, 0.11799905449151993, 0.13289718329906464, 0.05912461876869202, 0.03426310047507286, -0.20771144330501556, -0.20604023337364197, 0.05857587605714798, -0.06631477177143097, 0.17603009939193726, -0.14018899202346802, -0.2097015231847763, 0.03008885867893696, -0.034732334315776825, 0.043657299131155014, 0.13933449983596802, -0.1494971364736557, -0.12152638286352158, -0.03631694242358208, -0.0718918964266777, 0.24525685608386993, 0.16439424455165863, 0.009929893538355827, 0.11178260296583176, 0.09209410101175308, -0.16038878262043, 0.06176107004284859, 0.1372646987438202, 0.08812656253576279, 0.1047385185956955, 0.1599837988615036, -0.034915491938591, 0.01467898953706026, -0.22214250266551971, -0.03675057739019394, -0.03402445465326309, 0.08047974109649658, 0.10941190272569656, -0.022391388192772865, 0.19853095710277557, -0.07427319884300232, -0.07986491173505783, -0.1775720715522766, -0.07371392846107483, 0.06784651428461075, 0.12977519631385803, -0.030461832880973816, 0.009102211333811283, -0.015423637814819813, -0.09082060307264328, 0.025662861764431, 0.01144464686512947, -0.0663750171661377, -0.06563173234462738, 0.09355804324150085, -0.16825224459171295, 0.2227059155702591, -0.12958088517189026, 0.06383605301380157, 0.0578690767288208, 0.20068544149398804, -0.21266721189022064, 0.15019233524799347, -0.17898227274417877, -0.16050581634044647, -0.20264041423797607, -0.014119244180619717], [-0.12611493468284607, -0.22179795801639557, -0.19301292300224304, 0.0010246000019833446, 0.20122136175632477, -0.13504405319690704, 0.1545979082584381, -0.18738698959350586, 0.2364877462387085, -0.08483433723449707, 0.14137600362300873, -0.1425018310546875, 0.0020480186212807894, 0.09206528961658478, 0.011507423594594002, -0.0005374852917157114, 0.02536855824291706, -0.08013417571783066, 0.1370203197002411, 0.14455968141555786, -0.09247617423534393, -0.08877324312925339, 0.1253674477338791, -0.1559407114982605, 0.21692299842834473, -0.1821078658103943, -0.05086296796798706, 0.012037417851388454, -0.14454065263271332, -0.20241470634937286, -0.15420880913734436, 0.15315067768096924, 0.08249704539775848, -0.11232561618089676, -0.09994427114725113, 0.03921764716506004, 0.23448987305164337, 0.1767224222421646, 0.11966726183891296, 0.16087259352207184, -0.19159851968288422, -0.020545151084661484, -0.18488118052482605, 0.17768903076648712, -0.13783219456672668, 0.1974094957113266, -0.09232833236455917, -0.08034775406122208, -0.0924915224313736, -0.044720690697431564, 0.01998293586075306, -0.2614745497703552, -0.21863716840744019, -0.1754944920539856, 0.17978842556476593, 0.17109662294387817, -0.011037000454962254, 0.03086780197918415, -0.07198870927095413, -0.17852313816547394, 0.009741726331412792, -0.11375415325164795, 0.07132358103990555, 0.1663084328174591, 0.039854224771261215, -0.15885674953460693, -0.17386026680469513, 0.02202504128217697, -0.10430742055177689, -0.018039077520370483, 0.03431644290685654, 0.1311122179031372, -0.1585250049829483, 0.036424100399017334, 0.14342069625854492, -0.12803572416305542, -0.10216202586889267, -0.06406185030937195, 0.16122008860111237, -0.12485159188508987, -0.03567580133676529, -0.13449469208717346, -0.07680283486843109, -0.15269538760185242, 0.014815767295658588, -0.17705953121185303, 0.17255228757858276, 0.21592682600021362, -0.1589547097682953, -0.12663237750530243, 0.04979269579052925, 0.05800364166498184, -0.01736108772456646, 0.1927153766155243, -0.04589187353849411, -0.05117834359407425, -0.1707683801651001, -0.10562410205602646, 0.08161850273609161, 0.14426077902317047, -0.14386054873466492, 0.09401388466358185, -0.07529030740261078, 0.08436954021453857, 0.08331789821386337, -0.13989460468292236, -0.18752658367156982, -0.17330215871334076, 0.02357807196676731, -0.15208546817302704, -0.10856080800294876, -0.19086679816246033, 0.2271304428577423, 0.07988717406988144, 0.1269751936197281, -0.0042562540620565414, 0.1786007434129715, 0.11494173854589462, 0.08504903316497803, -0.028917819261550903, 0.11035136133432388, -0.10782849043607712, 0.0329393707215786, 0.08850466459989548, -0.10493002831935883, -0.0797121524810791, -0.11716633290052414, -0.1637502908706665], [0.12889328598976135, 0.10808087885379791, 0.237026184797287, 0.06914839148521423, -0.05781059339642525, -0.02099630795419216, -0.20754772424697876, -0.10268319398164749, -0.19189885258674622, 0.012093107216060162, -0.06036709249019623, -0.23302669823169708, 0.1158098354935646, -0.030089247971773148, -0.2378695160150528, -0.0745873749256134, -0.14977580308914185, 0.08699429035186768, -0.19126734137535095, 0.04839566722512245, 0.008105309680104256, -0.13264307379722595, 0.25672096014022827, -0.13674679398536682, -0.1484769582748413, 0.11394934356212616, 0.05027925223112106, -0.08765445649623871, 0.06530721485614777, -0.12507875263690948, -0.16381607949733734, -0.22411487996578217, 0.08502981066703796, 0.208311527967453, -0.15196213126182556, -0.007552396506071091, -0.1478119194507599, 0.2701578736305237, 0.05443033576011658, 0.20432361960411072, -0.001156147220171988, -0.05325361713767052, -0.12968310713768005, 0.06861881166696548, 0.04483677074313164, -0.21740512549877167, -0.04648486152291298, -0.18445265293121338, -0.04653620719909668, 0.19114485383033752, -0.024150971323251724, -0.06727871298789978, 0.20406898856163025, 0.0009454499231651425, -0.06264396011829376, -0.1945461481809616, -0.06707948446273804, -0.14323066174983978, -0.16312016546726227, 0.16348379850387573, -0.1267825961112976, 0.08608607947826385, -0.10396227985620499, -0.038900602608919144, 0.22556109726428986, 0.013864237815141678, -0.243682399392128, 0.22932246327400208, -0.1292092502117157, 0.1457452028989792, 0.16755031049251556, 0.07104998826980591, -0.16266842186450958, 0.055583465844392776, 0.046548519283533096, -0.07073988765478134, 0.024902917444705963, -0.10905664414167404, -0.03931572660803795, -0.06726957112550735, 0.04850055277347565, -0.1316826194524765, 0.005543884355574846, -0.07748837023973465, -0.05450370907783508, 0.14357978105545044, -0.17359822988510132, 0.1719876378774643, -0.13541904091835022, 0.03045370616018772, 0.036573246121406555, 0.0004931929870508611, -0.04731156677007675, 0.2161007970571518, -0.15768977999687195, -0.17814978957176208, -0.1477963775396347, -0.06474781781435013, 0.10891435295343399, 0.09260175377130508, -0.11668188869953156, 0.02045612595975399, 0.12065143138170242, -0.06898461282253265, -0.08726843446493149, -0.09334385395050049, 0.053457435220479965, 0.10339264571666718, -0.1882288157939911, 0.05635780096054077, -0.08183973282575607, -0.039558812975883484, -0.0388728603720665, -0.149959996342659, -0.152232363820076, 0.13940121233463287, -0.00234088022261858, -0.1984519362449646, 0.13453041017055511, 0.08808209747076035, -0.1561523824930191, 0.10150867700576782, -0.22744229435920715, 0.029553886502981186, -0.016371479257941246, 0.14108389616012573, -0.27039697766304016, 0.15833567082881927], [0.26075074076652527, 0.05812349170446396, 0.10417961329221725, 0.14788341522216797, 0.09006301313638687, 0.14075522124767303, 0.03798742964863777, -0.12914885580539703, 0.21306046843528748, -0.2146340310573578, -0.035027001053094864, -0.19809819757938385, 0.03450010344386101, 0.20406830310821533, -0.04620155692100525, 0.22788415849208832, -0.21979385614395142, -0.1324435919523239, -0.04863118380308151, -0.22988717257976532, 0.1335490196943283, -0.051210761070251465, 0.14387854933738708, 0.05119828134775162, 0.09723120182752609, -0.18209418654441833, -0.021521450951695442, -0.06617990136146545, -0.16781768202781677, 0.045629505068063736, 0.14111845195293427, -0.22605283558368683, 0.1982438862323761, 0.1880965381860733, -0.21104483306407928, 0.18793155252933502, 0.14456605911254883, 0.19655314087867737, -0.06371306627988815, 0.1858065128326416, -0.0644403025507927, -0.07913661748170853, -0.05162520706653595, -0.24783819913864136, -0.1928749531507492, -0.10524219274520874, 0.15807652473449707, -0.17258420586585999, -0.0242058914154768, 0.05831216648221016, 0.03901857137680054, 0.06273888796567917, 0.026132192462682724, -0.11363296210765839, -0.15515795350074768, -0.13212843239307404, -0.010781033895909786, -0.19871769845485687, -0.06076127663254738, 0.1910119652748108, -0.14949125051498413, 0.16407757997512817, 0.06709635257720947, -0.19806335866451263, -0.15697534382343292, 0.24298810958862305, 0.0951801985502243, 0.20307062566280365, 0.08358658850193024, 0.02076742611825466, 0.05636053904891014, -0.08650409430265427, -0.019558332860469818, -0.1064787432551384, 0.14073772728443146, 0.1447439044713974, -0.04744381085038185, -0.1909441202878952, -0.01869787462055683, -0.07292962074279785, 0.13804452121257782, -0.01627231575548649, 0.053813476115465164, -0.17841048538684845, -0.1633981466293335, 0.15730823576450348, -0.1262083500623703, -0.033057525753974915, -0.07098668813705444, -0.1254766583442688, -0.1487915962934494, -0.05316697433590889, -0.0039139422588050365, -0.014339429326355457, 0.0937981829047203, 0.20675598084926605, -0.021440189331769943, -0.2215643972158432, 0.1328033059835434, -0.11979930102825165, 0.10038311779499054, -0.13691921532154083, 0.024681005626916885, -0.12409718334674835, -0.16411429643630981, 0.252447247505188, 0.06670685112476349, 0.11496320366859436, -0.10626877099275589, 0.19096237421035767, 0.0012164076324552298, 0.12836915254592896, -0.08062369376420975, 0.13662411272525787, 0.20219126343727112, -0.1904122233390808, -0.07127811014652252, -0.2432704120874405, -0.06817910820245743, 0.13858217000961304, -0.007908985950052738, 0.0010627631563693285, -0.09605716913938522, 0.12946966290473938, -0.14900662004947662, 0.21383091807365417, 0.1614312082529068, -0.005352241452783346], [-0.08502864837646484, 0.04170344024896622, 0.08350072056055069, -0.06511422991752625, 0.052981700748205185, -0.004119281191378832, 0.2170964479446411, -0.0012923988979309797, -0.02933567948639393, -0.14701750874519348, -0.003200829029083252, 0.13151830434799194, -0.0688559040427208, 0.20158420503139496, 0.20528236031532288, -0.0846034586429596, -0.08249974995851517, -0.1016266942024231, 0.024434955790638924, 0.03058294579386711, -0.17198528349399567, -0.05466562137007713, 0.01271731499582529, -0.02438332512974739, -0.1273009479045868, -0.14893051981925964, 0.25338903069496155, -0.19583891332149506, 0.0012688628630712628, 0.030302155762910843, -0.1605837047100067, -0.23287251591682434, 0.11774385720491409, 0.1934019774198532, 0.07679139822721481, -0.09834664314985275, 0.13271231949329376, 0.15690656006336212, 0.19227872788906097, 0.04756026342511177, 0.10498574376106262, -0.01746673323214054, -0.0982607901096344, -0.11480453610420227, 0.07105948776006699, 0.1843700259923935, -0.1749567836523056, 0.09353097528219223, 0.08506016433238983, 0.06069560721516609, -0.19755062460899353, -0.1275015026330948, -0.08858081698417664, -0.12348325550556183, 0.22608810663223267, -0.12754526734352112, 0.12193673849105835, 0.17832070589065552, 0.07088290899991989, -0.17702510952949524, 0.16894280910491943, 0.16728433966636658, 0.08733644336462021, 0.07881351560354233, 0.0625661090016365, -0.022613657638430595, -0.1789197325706482, 0.08887196332216263, -0.11112644523382187, 0.16485649347305298, -0.24113155901432037, 0.09141139686107635, 0.14342725276947021, 0.13307704031467438, 0.07313883304595947, 0.1364271640777588, -0.06355822831392288, 0.14181391894817352, 0.11130435019731522, 0.09078489243984222, -0.01981387846171856, -0.1163281798362732, 0.10129638016223907, -0.1591142863035202, -0.13655255734920502, 0.010487072169780731, -0.17656272649765015, -0.17214642465114594, 0.15193264186382294, -0.020656226202845573, -0.06631054729223251, 0.02714071236550808, -0.11791539192199707, 0.09051462262868881, 0.015106630511581898, 0.09133902937173843, 0.21999788284301758, -0.20104940235614777, 0.08315348625183105, -0.1392318606376648, -0.13338389992713928, -0.03925883769989014, 0.14658333361148834, -0.19319190084934235, -0.13478244841098785, -0.18562021851539612, -0.09643666446208954, 0.2470013052225113, -0.1700960248708725, -0.010636799037456512, -0.07212833315134048, 0.06717531383037567, 0.08226906508207321, -0.058988071978092194, 0.09275761991739273, -0.0742032527923584, -0.18417887389659882, 0.020796742290258408, 0.0648358091711998, 0.10469736158847809, -0.15903827548027039, -0.10059857368469238, 0.18926075100898743, 0.17832638323307037, -0.17309334874153137, -0.10958319157361984, -0.15363352000713348, -0.09949550032615662], [-0.09837891161441803, -0.06321538239717484, 0.12306234240531921, 0.2008376568555832, 0.003978766035288572, -0.20358987152576447, 0.14524723589420319, 0.04750742018222809, -0.17063820362091064, 0.2297315001487732, 0.06782173365354538, 0.18750324845314026, 0.08172357082366943, 0.21381616592407227, 0.17416255176067352, 0.009656118229031563, 0.09111582487821579, -0.03944021463394165, -0.06547896564006805, -0.11492951214313507, -0.06338055431842804, 0.04806666448712349, 0.03609445318579674, 0.03455401211977005, -0.16789734363555908, -0.01676183007657528, -0.0003601927892304957, 0.18133831024169922, 0.1177666187286377, -0.10015064477920532, 0.05474067106842995, -0.13757191598415375, 0.13968174159526825, 0.15855741500854492, -0.21093477308750153, -0.13011105358600616, -0.2251935750246048, 0.07777252793312073, 0.021506862714886665, 0.19967913627624512, -0.060874033719301224, -0.13661223649978638, -0.01557004265487194, 0.0926041454076767, 0.034386858344078064, 0.10451032221317291, 0.013289852067828178, -0.15936261415481567, 0.2529846131801605, -0.039717838168144226, -0.14970487356185913, 0.13411018252372742, 0.08309075981378555, -0.24831844866275787, -0.08576717972755432, 0.18141424655914307, -0.02247542515397072, 0.22190909087657928, -0.21980413794517517, 0.13237538933753967, -0.24234840273857117, 0.009731178171932697, 0.014538288116455078, 0.10881251096725464, 0.03300387039780617, -0.13755375146865845, 0.147074356675148, 0.1616792380809784, -0.030006499961018562, 0.09996525198221207, -0.17278534173965454, -0.06727474927902222, 0.04429760202765465, -0.21238340437412262, -0.07838241755962372, -0.02830173447728157, -0.015709051862359047, 0.11592935770750046, -0.24319472908973694, 0.009264002554118633, 0.05385150760412216, -0.09984655678272247, 0.13602106273174286, -0.0888509601354599, -0.23688261210918427, -0.08880490064620972, 0.10197336226701736, -0.11625026911497116, -0.007372819818556309, 0.1290026605129242, -0.23590300977230072, 0.1535549759864807, 0.18335844576358795, -0.09049340337514877, -0.16904230415821075, 0.1627952754497528, -0.08775081485509872, 0.1587001085281372, 0.12566034495830536, 0.14895197749137878, 0.13400131464004517, 0.19004559516906738, -0.23596729338169098, -0.13670633733272552, -0.05399307981133461, 0.21083177626132965, 0.01775383949279785, 0.1345241814851761, -0.13606831431388855, 0.04257293790578842, 0.14619310200214386, 0.18730077147483826, -0.20085608959197998, -0.21295122802257538, 0.08853080123662949, -0.07254692912101746, -0.08876388520002365, 0.15195007622241974, 0.07225740700960159, 0.22660920023918152, -0.09660553187131882, -0.07164612412452698, 0.15651650726795197, -0.133097305893898, 0.11367475241422653, 0.0867413654923439, 0.18823839724063873, -0.08217818289995193], [-0.17033818364143372, 0.05426250025629997, 0.15603284537792206, 0.07281861454248428, 0.17724233865737915, 0.19487600028514862, 0.209759920835495, 0.013408605940639973, 0.1438779979944229, -0.022541388869285583, -0.041592419147491455, 0.1720549613237381, -0.015282109379768372, 0.09447390586137772, 0.03319818526506424, -0.0927257165312767, -0.018587743863463402, 0.1301366239786148, 0.07248125225305557, 0.12461444735527039, 0.2108595222234726, -0.1110435351729393, -0.11930935829877853, -0.19365562498569489, 0.06574660539627075, 0.052142877131700516, -0.1608833223581314, -0.02549324929714203, 0.0427420400083065, -0.1690777689218521, 0.03816484659910202, 0.1757749319076538, -0.08592776954174042, 0.039197660982608795, 0.09586738795042038, 0.046486273407936096, -0.06255043298006058, -0.15293708443641663, 0.01365679781883955, -0.14858880639076233, 0.16398541629314423, 0.23873966932296753, -0.09632036089897156, -0.19107341766357422, 0.05423268675804138, 0.07976061850786209, -0.15602919459342957, -0.0591302253305912, -0.0789504200220108, -0.09660857915878296, 0.14552481472492218, -0.035635001957416534, 0.1162099689245224, 0.10766100883483887, -0.20796936750411987, -0.048859626054763794, -0.1367170363664627, -0.19221584498882294, 0.08148360252380371, 0.02954094298183918, 0.013877924531698227, 0.2544192969799042, -0.2040843367576599, 0.10523484647274017, -0.17257213592529297, -0.24502304196357727, 0.043740078806877136, 0.12317954748868942, 0.03653858229517937, -0.14541764557361603, -0.13049942255020142, 0.08373311161994934, 0.14681017398834229, -0.21779219806194305, 0.12632201611995697, -0.10603273659944534, -0.0536007322371006, 0.13407757878303528, -0.09053945541381836, -0.20657481253147125, -0.05609412118792534, -0.168193519115448, 0.0728164091706276, -0.07843709737062454, -0.0036752496380358934, 0.04305874556303024, 0.16463924944400787, 0.048291005194187164, -0.04586150124669075, 0.01602790877223015, 0.23061741888523102, -0.029219133779406548, -0.1669302135705948, -0.17098882794380188, 0.03044954501092434, 0.09726971387863159, 0.12457320094108582, -0.11185365915298462, 0.034593500196933746, 0.04041386768221855, -0.007962722331285477, -0.10233739763498306, -0.10503190755844116, -0.07771073281764984, 0.08237923681735992, -0.13490216434001923, -0.13388961553573608, 0.09022966772317886, -0.0468294657766819, -0.0399966724216938, -0.17060737311840057, 0.15521128475666046, -0.20768678188323975, 0.2082744538784027, -0.10353436321020126, 0.10520312190055847, -0.1009061262011528, -0.07818842679262161, 0.14031538367271423, -0.08276621997356415, -0.08537881076335907, 0.1470576971769333, 0.13602140545845032, -0.046137288212776184, 0.1846572607755661, 0.05218242108821869, -0.024356914684176445, 0.020595218986272812], [0.15731403231620789, 0.16167223453521729, 0.11711198836565018, -0.02640826813876629, -0.056704822927713394, 0.17855577170848846, -0.1760210543870926, 0.21622711420059204, -0.05687304213643074, 0.08598650246858597, 0.06068497896194458, 0.17894408106803894, 0.016661979258060455, 0.009478332474827766, 0.17654260993003845, 0.09385710954666138, 0.11798017472028732, -0.180459663271904, -0.06352800875902176, 0.1928206980228424, -0.058965183794498444, 0.00784959364682436, -0.06481790542602539, -0.16031894087791443, -0.10162031650543213, 0.2024446427822113, -0.077104352414608, 0.20238496363162994, -0.03570220619440079, -0.23352652788162231, -0.20425139367580414, -0.18830864131450653, -0.035537686198949814, -0.04327860847115517, 0.018335659056901932, -0.02219553478062153, -0.03983287885785103, -0.1876286417245865, 0.16883300244808197, -0.16739286482334137, 0.20690104365348816, -0.18122848868370056, -0.17098405957221985, -0.1356092393398285, -0.09592381864786148, 0.16663207113742828, 0.0739554911851883, -0.12842826545238495, 0.10134296864271164, 0.12061570584774017, -0.20797887444496155, 0.06115173175930977, -0.07175302505493164, -0.198141410946846, 0.24228189885616302, -0.18136242032051086, 0.21156299114227295, -0.06065098196268082, -0.04093162342905998, -0.15887713432312012, -0.0559888556599617, -0.037175729870796204, 0.09672889858484268, -0.17551228404045105, -0.02368771843612194, 0.10833142697811127, 0.14462284743785858, -0.01735582947731018, 0.05795138701796532, -0.22013890743255615, -0.004246233031153679, 0.1389700174331665, -0.11641117930412292, -0.06076539680361748, 0.1992318034172058, -0.07288914173841476, 0.17812711000442505, -0.1285814791917801, -0.15804257988929749, 0.11247953027486801, -0.15525776147842407, 0.04619342461228371, -0.1403745412826538, 0.0497007817029953, 0.062312476336956024, -0.07873926311731339, -0.19705475866794586, 0.03893931955099106, -0.01124208141118288, 0.22947083413600922, -0.05092831328511238, -0.04864802211523056, -0.1417466402053833, 0.2134736031293869, -0.08212137222290039, 0.1769779771566391, -0.02052021585404873, -0.05092677101492882, -0.13065184652805328, -0.19502925872802734, -0.0373368076980114, 0.0894165188074112, -0.16490641236305237, 0.15662455558776855, -0.06994599848985672, 0.12170149385929108, -0.0513768307864666, 0.22033706307411194, 0.1295882761478424, 0.0755160003900528, -0.033986497670412064, 0.14701780676841736, 0.015632858499884605, -0.25436991453170776, 0.18472979962825775, -0.16690698266029358, 0.053601499646902084, -0.11745565384626389, 0.09406750649213791, 0.1533437818288803, 0.059752024710178375, -0.11580774933099747, 0.001877141185104847, -0.07647668570280075, -0.17629499733448029, -0.029018398374319077, 0.04441768303513527, 0.004801738075911999], [-0.24592360854148865, -0.04152485355734825, 0.07778601348400116, 0.15859632194042206, 0.09722070395946503, 0.23698119819164276, 0.12362644821405411, 0.019555404782295227, 0.08849910646677017, -0.18036997318267822, 0.1743186116218567, -0.14948680996894836, -0.22455790638923645, -0.09487525373697281, 0.09863340854644775, 0.08356183022260666, -0.2166094183921814, 0.2156936228275299, 0.10735360532999039, 0.1044686883687973, -0.12306460738182068, 0.02227519266307354, -0.06444834172725677, -0.22601570188999176, 0.20094843208789825, -0.12685520946979523, -0.02368221990764141, 0.1896773725748062, 0.19331207871437073, 0.06788308173418045, -0.09769266098737717, -0.2671494483947754, -0.24782243371009827, -0.2135685235261917, 0.05043909326195717, 0.09050779044628143, -0.03764142096042633, 0.15563562512397766, -0.07032059133052826, 0.21996118128299713, 0.1757400631904602, -0.046667687594890594, 0.05669457092881203, -0.2194334715604782, 0.15922310948371887, -0.12818780541419983, -0.06279677152633667, 0.19237388670444489, -0.10346172004938126, 0.02710181660950184, 0.18825499713420868, -0.12389498949050903, -0.056836146861314774, 0.09240638464689255, 0.13173699378967285, -0.1145610362291336, -0.02085026353597641, 0.03683079406619072, 0.007587660104036331, -0.12474502623081207, 0.12416531890630722, 0.1599491387605667, -0.1951695829629898, -0.22945986688137054, 0.02467234618961811, -0.09494100511074066, 0.0876268744468689, -0.18873094022274017, -0.25306278467178345, 0.2063809633255005, 0.07689084112644196, 0.12129426747560501, -0.021824831143021584, -0.0036627298686653376, -0.0719606950879097, 0.10920310765504837, 0.007529307622462511, 0.13150928914546967, 0.10418923944234848, -0.046828992664813995, 0.03129379451274872, -0.12078802287578583, 0.12244303524494171, -0.12306740134954453, 0.10679928958415985, 0.15811163187026978, 0.012973492033779621, -0.10893144458532333, 0.06277009844779968, 0.049038954079151154, -0.12407895177602768, -0.14109395444393158, 0.09383393824100494, -0.13581450283527374, 0.1313747763633728, 0.12891258299350739, 0.10872198641300201, -0.09334690868854523, -0.20530900359153748, 0.1826711744070053, -0.09284278005361557, -0.04043564945459366, 0.18889835476875305, 0.04785296693444252, -0.03855261206626892, -0.07569228112697601, -0.24356459081172943, 0.058866895735263824, 0.13028980791568756, 0.19338473677635193, 0.15698404610157013, 0.06517214328050613, 0.16246101260185242, 0.1915590614080429, -0.12995868921279907, -0.07400277256965637, 0.048676490783691406, -0.024266492575407028, 0.03140665218234062, -0.11682632565498352, -0.0620427206158638, -0.13183483481407166, 0.025732407346367836, -0.15781176090240479, -0.2119782567024231, -0.25318142771720886, 0.21390211582183838, -0.24520711600780487], [0.04178035631775856, 0.03313390910625458, -0.13376957178115845, 0.08245038241147995, -0.13091397285461426, 0.12617206573486328, -0.14511393010616302, -0.1291704773902893, 0.06157268211245537, 0.049000807106494904, -0.1242499127984047, -0.1501697301864624, -0.1514638364315033, 0.04413577914237976, 0.10815621167421341, 0.10581327974796295, -0.10338898748159409, -0.11208675056695938, -0.2258150577545166, -0.10386756807565689, 0.0749635398387909, -0.12981969118118286, -0.13320231437683105, -0.006363555323332548, 0.05245007947087288, 0.03988637402653694, 0.0018792980117723346, -0.24313992261886597, 0.03844505548477173, -0.05538734048604965, 0.08289534598588943, -0.22766318917274475, -0.03824319317936897, 0.14808866381645203, 0.016858184710144997, 0.10095669329166412, 0.16854384541511536, -0.047442540526390076, 0.2018311619758606, -0.06316673010587692, -0.06119433417916298, 0.010026573203504086, -0.036930300295352936, -0.04775339737534523, 0.12746895849704742, 0.10057606548070908, 0.11463258415460587, -0.1415286660194397, 0.16660086810588837, -0.1508757323026657, 0.07257433980703354, -0.05871943384408951, -0.10778441280126572, -0.00353069300763309, -0.11731966584920883, 0.007226619403809309, 0.08473082631826401, -0.026226211339235306, -0.1259566992521286, -0.06687633693218231, -0.0631023496389389, -0.20054543018341064, -0.050316303968429565, -0.12153107672929764, -0.13810771703720093, -0.2256811410188675, -0.0657220184803009, 0.23497134447097778, -0.2002343237400055, -0.11083772778511047, 0.13161051273345947, 0.07188931852579117, 0.038414016366004944, -0.1930646300315857, 0.0114059466868639, -0.09759172797203064, 0.11626772582530975, -0.022916758432984352, -0.14123301208019257, 0.16344714164733887, 0.1537306010723114, 0.17381399869918823, 0.0110252033919096, 0.10167887061834335, -0.016643188893795013, -0.08984646201133728, -0.05576425418257713, -0.22664061188697815, 0.10611752420663834, -0.09481371194124222, -0.1209106519818306, 0.16022105515003204, -0.18648497760295868, -0.11489103734493256, -0.1872732788324356, 0.08824734389781952, 0.19219784438610077, -0.10139378905296326, 0.12085969746112823, -0.04367663338780403, -0.0693093091249466, -0.05012312904000282, -0.050640590488910675, -0.17337042093276978, 0.1563100516796112, 0.13562627136707306, -0.21955159306526184, -0.06345026940107346, 0.018902799114584923, -0.16422630846500397, 0.1349928081035614, -0.14922519028186798, 0.11113186925649643, 0.0002815337502397597, 0.13739502429962158, 0.04257317632436752, 0.05518681928515434, -0.2340496927499771, 0.056607965379953384, 0.15434612333774567, -0.027833467349410057, 0.05089106410741806, -0.10138234496116638, 0.12413468956947327, -0.14411263167858124, 0.10917152464389801, 0.1164385974407196, -0.18100035190582275], [-0.01572239212691784, -0.1476757675409317, 0.2214128077030182, 0.1449102908372879, -0.16009961068630219, -0.04065326601266861, 0.054979220032691956, -0.09836495667695999, -0.06672073900699615, 0.028330495581030846, -0.1231461763381958, -0.13391803205013275, 0.06232365593314171, 0.11123471707105637, 0.02345590479671955, -0.038841214030981064, -0.06056961044669151, -0.12153730541467667, -0.08933157473802567, -0.11750824004411697, -0.014507758431136608, 0.0008871545433066785, 0.14216861128807068, 0.19802787899971008, 0.19124655425548553, 0.10717885941267014, 0.02388286218047142, 0.07789883017539978, -0.06142500042915344, 0.044673021882772446, -0.11074116080999374, -0.14148980379104614, -0.07361243665218353, -0.1651870310306549, -0.006944463588297367, -0.10390989482402802, -0.2100946009159088, 0.0761004090309143, 0.05587860569357872, 0.13137458264827728, -0.08402934670448303, -0.13325205445289612, -0.039847396314144135, 0.1263897866010666, 0.09749971330165863, -0.09435123950242996, -0.18414495885372162, -0.23514720797538757, -0.05404027923941612, 0.012183005921542645, -0.027979940176010132, -0.08190829306840897, -0.10410521924495697, 0.021074287593364716, 0.09824015200138092, 0.0793457180261612, 0.01003282144665718, 0.07731606811285019, -0.04183819890022278, -0.028241213411092758, -0.10960123687982559, 0.09966976195573807, -0.24945780634880066, -0.09506615996360779, -0.020602403208613396, 0.014366190880537033, 0.11593359708786011, -0.12301930785179138, 0.08660905808210373, -0.14318932592868805, -0.221989244222641, -0.0810854583978653, -0.05664806813001633, 0.05649596080183983, 0.12937955558300018, 0.0034886454232037067, 0.06940525770187378, -0.1547030657529831, -0.08334793150424957, -0.18681326508522034, -0.009732069447636604, 0.08155115693807602, -0.15278376638889313, 0.14614346623420715, 0.1281319111585617, 0.14606107771396637, -0.11484251171350479, 0.11606327444314957, 0.09305892884731293, -0.014125403948128223, 0.1816740483045578, 0.1374286562204361, 0.0649692490696907, 0.05330453813076019, 0.10225944966077805, 0.0033612744882702827, -0.027725525200366974, -0.0025498114991933107, 0.17811456322669983, 0.10033082962036133, -0.030269883573055267, -0.02863127738237381, 0.132077157497406, 0.01348456647247076, 0.1108829602599144, 0.010301089845597744, -0.12935814261436462, 0.15772855281829834, -0.14122678339481354, 0.04410768672823906, 0.011763624846935272, -0.16550664603710175, 0.011492349207401276, -0.03785320371389389, 0.05605769529938698, 0.1398419290781021, 0.021219909191131592, -0.15532146394252777, -0.1507946252822876, -0.007568905130028725, 0.1710323542356491, -0.04894288256764412, 0.18180985748767853, -0.14734740555286407, -0.03343864902853966, 0.097800612449646, -0.007246679626405239, 0.023626379668712616], [-0.01898859068751335, 0.11897258460521698, -0.070699043571949, -0.16820114850997925, -0.11575358361005783, -0.04806991294026375, 0.046988584101200104, -0.08976434171199799, 0.14879210293293, 0.09446372836828232, 0.0050697168335318565, -0.08517740666866302, -0.17409947514533997, -0.026959771290421486, 0.14841897785663605, -0.10171002894639969, 0.15078824758529663, 0.2026790976524353, -0.11741045862436295, -0.05263512209057808, 0.0458429791033268, -0.0635143369436264, 0.13358944654464722, -0.03299568593502045, 0.14221708476543427, -0.07285342365503311, -0.03301318362355232, -0.10813827812671661, 0.12750528752803802, -0.09508897364139557, 0.15766993165016174, -0.18675944209098816, 0.05843259021639824, -0.0796513482928276, 0.09486214071512222, -0.10103452950716019, -0.13424693048000336, 0.02195090800523758, -0.05577324703335762, 0.13248121738433838, 0.21234720945358276, 0.013488417491316795, 0.049217045307159424, -0.027509737759828568, 0.13319797813892365, 0.051898691803216934, 0.09096640348434448, 0.1509159952402115, 0.1022428348660469, 0.10054413229227066, -0.14936010539531708, 0.06368965655565262, -0.11522995680570602, 0.12387116998434067, -0.15082509815692902, -0.06413394212722778, 0.049525629729032516, -0.13713018596172333, 0.06295553594827652, 0.18506497144699097, 0.13072840869426727, 0.08276454359292984, 0.016688505187630653, -0.09852534532546997, -0.03699268400669098, -0.005943761207163334, 0.06494533270597458, 0.13987748324871063, 0.11794187873601913, 0.035341598093509674, 0.1833420842885971, -0.0604247972369194, 0.08689749985933304, 0.11650445312261581, -0.17810779809951782, 0.11314813047647476, -0.0470564179122448, -0.01220728736370802, -0.05436054617166519, 0.19776764512062073, 0.024403106421232224, -0.11108479648828506, -0.06040932610630989, 0.10768110305070877, -0.0016242945566773415, -0.13987284898757935, 0.17523306608200073, -0.09131674468517303, 0.040827393531799316, -0.13437409698963165, 0.198025181889534, 0.02269887737929821, 0.08294079452753067, -0.05779629200696945, -0.10219878703355789, 0.0912477895617485, 0.14631284773349762, -0.06316319108009338, 0.17608760297298431, 0.09655686467885971, -0.11249686777591705, 0.19994664192199707, -0.10212849080562592, 0.003713104873895645, -0.10739295184612274, -0.0863751769065857, 0.16655418276786804, -0.13883064687252045, -0.17407390475273132, -0.025513464584946632, -0.10214682668447495, 0.023257926106452942, -0.12841694056987762, -0.04841635003685951, -0.014253896661102772, 0.12222417443990707, -0.09531674534082413, -0.018747549504041672, -0.005824069958180189, -0.051570165902376175, 0.15747232735157013, 0.06275757402181625, -0.07035250216722488, -0.05470506101846695, 0.1149429902434349, -0.17827443778514862, -0.08653359860181808, -0.14710204303264618], [-0.006959840655326843, -0.007872253656387329, -0.04276000335812569, 0.08227929472923279, 0.13726592063903809, -0.001541494857519865, 0.0905686765909195, -0.1727844476699829, 0.02182106487452984, -0.08319143205881119, 0.041568558663129807, -0.05741677060723305, 0.08107705414295197, 0.025703873485326767, -0.11091725528240204, 0.11828248202800751, 0.051153868436813354, 0.17082226276397705, 0.02316526137292385, 0.013802428729832172, -0.0766095519065857, -0.06898863613605499, -0.01471068523824215, 0.02237137034535408, 0.059797413647174835, -0.046180352568626404, -0.1462469846010208, 0.05549599230289459, 0.0020831834990531206, -0.10647246986627579, 0.008670097216963768, -0.10160676389932632, 0.1025610938668251, 0.013222337700426579, 0.1338665783405304, -0.16439253091812134, -0.00939406268298626, -0.15518589317798615, 0.013893291354179382, 0.10378777980804443, 0.14048509299755096, -0.013847922906279564, 0.11962608993053436, -0.154484823346138, 0.0794600173830986, -0.12018506228923798, -0.05237739160656929, -0.11221782863140106, 0.053229738026857376, 0.008876515552401543, -0.05709654465317726, 0.03709050640463829, -0.10495668649673462, -0.07766740769147873, -0.036483876407146454, -0.04289758950471878, -0.14223748445510864, -0.1493995487689972, 0.17618729174137115, 0.11369425058364868, -0.11099480837583542, -0.18986006081104279, -0.21977530419826508, -0.0352633111178875, -0.1046680137515068, 0.00520001957193017, 0.029622849076986313, -0.04204251244664192, 0.07027602940797806, 0.12605899572372437, 0.10512949526309967, -0.06988023221492767, 0.01365995779633522, -0.07109779119491577, -0.000848381663672626, -0.02826848067343235, 0.09508206695318222, -0.11524391919374466, 0.03655015677213669, 0.16138339042663574, -0.1274581253528595, 0.1548534482717514, -0.12524914741516113, 0.07128224521875381, 0.15978045761585236, 0.11060605198144913, 0.09961364418268204, 0.20328643918037415, 0.14217698574066162, 0.04940774291753769, -0.12551771104335785, 0.16841650009155273, -0.06840861588716507, -0.12554174661636353, 0.10190776735544205, -0.10972832143306732, 0.14958757162094116, -0.13141341507434845, 0.17932306230068207, 0.11410347372293472, 0.031534235924482346, -0.06882530450820923, -0.0005192565731704235, 0.021741583943367004, -0.030168306082487106, 0.004890988580882549, -0.07406379282474518, 0.027046455070376396, -0.14406730234622955, -0.13923481106758118, -0.043267395347356796, 0.08470650762319565, -0.08178605884313583, 0.09490252286195755, 0.07713595777750015, -0.029477139934897423, 0.03805660456418991, 0.04837317764759064, -0.11821556836366653, -0.058897487819194794, 0.11297880858182907, 0.06883358955383301, 0.12262162566184998, 0.08331165462732315, 0.06435783952474594, 0.0026750415563583374, -0.011777476407587528, 0.018302274867892265], [0.05563654005527496, 0.058857809752225876, -0.05518034100532532, 0.08056041598320007, 0.17562803626060486, 0.13082857429981232, 0.03247072175145149, -0.18418769538402557, 0.062210116535425186, -0.022345924749970436, -0.073808453977108, -0.02123115211725235, -0.11760159581899643, -0.1333194226026535, -0.155085027217865, -0.05972873419523239, -0.13401280343532562, 0.0011753035942092538, 0.0021450675558298826, -0.06475088000297546, 0.060017332434654236, -0.0029800457414239645, -0.0054529947228729725, 0.12316597998142242, 0.1710045039653778, 0.015581664629280567, 0.08550868183374405, -0.13067980110645294, 0.1988847404718399, -0.0890934020280838, -0.14345420897006989, -0.14062732458114624, 0.1829114854335785, 0.032801441848278046, -0.03596328943967819, 0.00813321303576231, -0.15804985165596008, 0.13739264011383057, 0.13844789564609528, -0.15338045358657837, -0.1820879578590393, 0.1151459589600563, 0.20049934089183807, 0.047265879809856415, 0.14332395792007446, -0.10980672389268875, 0.20456300675868988, -0.11951875686645508, 0.18600285053253174, -0.044181592762470245, 0.06807959079742432, -0.13167251646518707, -0.02627778798341751, 0.0068688178434967995, -0.1563265472650528, -0.19737409055233002, 0.009829596616327763, 0.13820980489253998, 0.19309711456298828, 0.07219599187374115, -0.21902069449424744, 0.14761030673980713, 0.20486652851104736, 0.003010054584592581, -0.07764969021081924, 0.08037322014570236, 0.045121606439352036, -0.13246652483940125, -0.10507945716381073, 0.099039226770401, 0.14606772363185883, -0.1807159185409546, -0.1715199500322342, -0.13712316751480103, -0.11064508557319641, -0.055274609476327896, 0.1350926011800766, 0.007139408960938454, -0.11425702273845673, -0.21061743795871735, 0.17115333676338196, 0.05603942275047302, -0.026081718504428864, -0.039406657218933105, -0.15011169016361237, 0.05292131379246712, -0.11239641159772873, -0.00998647604137659, -0.047385409474372864, 0.03252550959587097, 0.10033649206161499, -0.07739124447107315, -0.09923581033945084, -0.18254852294921875, -0.08326840400695801, -0.12974628806114197, -0.14015446603298187, -0.07060428708791733, 0.0533256009221077, 0.17770656943321228, -0.038377467542886734, 0.13083168864250183, -0.05103007331490517, -0.05170280113816261, 0.1164344921708107, -0.17533089220523834, 0.08970288187265396, 0.2266032099723816, -0.03390141576528549, -0.23883941769599915, 0.24565795063972473, -0.1613849401473999, 0.021512338891625404, -0.037802182137966156, 0.12020889669656754, -0.004776904825121164, 0.23405790328979492, 0.023835239931941032, 0.005810094997286797, -0.09433915466070175, -0.12508104741573334, 0.04923088476061821, -0.07813132554292679, -0.03215247392654419, 0.11510524898767471, -0.0045465948060154915, 0.1037977784872055, -0.14971403777599335], [0.10879680514335632, 0.036751870065927505, 0.07772562652826309, -0.07199804484844208, 0.014163654297590256, -0.0001444121589884162, -0.11051087826490402, -0.09167899936437607, 0.09615930914878845, -0.08933509886264801, -0.13700145483016968, 0.15212507545948029, 0.05324523150920868, 0.1001792699098587, -0.11181233078241348, 0.11221350729465485, 0.04803401604294777, -0.006262958515435457, -0.14248202741146088, -0.09078686684370041, -0.03635762631893158, -0.030092613771557808, -0.0012143949279561639, -0.19735324382781982, 0.09463398903608322, 0.013914133422076702, 0.12448820471763611, -0.08891831338405609, -0.039273496717214584, -0.1642727106809616, 0.20795711874961853, -0.13154536485671997, -0.16129620373249054, -0.05852223560214043, 0.21108511090278625, -0.15482792258262634, 0.050793129950761795, 0.05309294909238815, 0.03889569640159607, -0.04309534654021263, 0.14789891242980957, -0.02074725180864334, 0.06382926553487778, 0.15498913824558258, 0.0911921039223671, 0.11442308872938156, 0.08139199763536453, 0.012495064176619053, 0.07477473467588425, 0.07189290225505829, -0.08343493938446045, 0.14972439408302307, -0.04904201626777649, 0.0171973779797554, 0.1388169378042221, -0.11916198581457138, 0.006226108409464359, 0.045749712735414505, 0.02111286297440529, 0.12574121356010437, -0.05349447950720787, -0.08904106169939041, 0.06218232959508896, 0.06125948578119278, 0.13362254202365875, 0.07621369510889053, 0.02874813973903656, 0.12235597521066666, 0.08788760006427765, 0.044641099870204926, 0.07126133143901825, -0.10096477717161179, -0.1859257072210312, 0.012721755541861057, 0.007731615100055933, 0.07696208357810974, 0.14621950685977936, -0.0933229848742485, -0.06726754456758499, -0.19971123337745667, 0.1595100313425064, -0.1382865607738495, 0.1526782512664795, 0.12597370147705078, 0.11641018837690353, -0.07923557609319687, 0.00616618525236845, -0.11060472577810287, 0.10284742712974548, -0.046929605305194855, 0.1224241703748703, -0.07968064397573471, 0.06171904876828194, 0.14630992710590363, 0.14796312153339386, -0.048016782850027084, 0.03838376700878143, -0.00876712054014206, -0.0032236026600003242, -0.01950586959719658, -0.1311383992433548, 0.070301853120327, -0.0764305368065834, 0.027044320479035378, -0.02004896104335785, -0.14396047592163086, 0.0822584480047226, 0.13415957987308502, -0.11782697588205338, 0.007246116641908884, -0.061967357993125916, 0.040510017424821854, -0.02942715398967266, -0.07009118050336838, -0.15376803278923035, -0.08684295415878296, -0.07781808078289032, 0.07350849360227585, -0.023790771141648293, -0.035053279250860214, 0.12815353274345398, -0.05975211784243584, -0.013358831405639648, 0.015548257157206535, 0.05728993937373161, -0.07854240387678146, -0.01787688210606575, -0.020686957985162735], [-0.14052726328372955, -0.06919819861650467, 0.11901409178972244, -0.0821947231888771, -0.18319830298423767, -0.07862896472215652, 0.06313738226890564, 0.05437672138214111, 0.058808524161577225, -0.14111363887786865, -0.14104421436786652, -0.0914614349603653, 0.12788517773151398, -0.11141753941774368, 0.1743588000535965, -0.16949476301670074, -0.08495628088712692, 0.04622061550617218, -0.000768178841099143, -0.010760056786239147, 0.02965431660413742, 0.05694768577814102, -0.04008737578988075, 0.09944456815719604, -0.03875867649912834, 0.0815621092915535, 0.08990209549665451, -0.06735961884260178, -0.11113045364618301, 0.08871883898973465, 0.03986899554729462, 0.14300258457660675, -0.09268778562545776, 0.14370763301849365, 0.10717377066612244, -0.016682712361216545, 0.14948724210262299, -0.1480063498020172, 0.06082450971007347, 0.06700728088617325, -0.02239042893052101, 0.014153430238366127, 0.1401674449443817, -0.15000636875629425, -0.05256173759698868, -0.04017629101872444, -0.12388741970062256, -0.013245073147118092, 0.05272098630666733, -0.07791998237371445, 0.036815620958805084, -0.0976620763540268, -0.03209357708692551, 0.14398300647735596, -0.19373154640197754, -0.11732999235391617, -0.031360600143671036, 0.04989704489707947, -0.13121606409549713, -0.0005253697163425386, 0.21605734527111053, 0.20630121231079102, 0.14806455373764038, -0.09711282700300217, 0.06372185796499252, 0.010491733439266682, 0.015361531637609005, -0.11966027319431305, 0.15015028417110443, -0.019759874790906906, -0.14841465651988983, 0.113628089427948, 0.18497341871261597, -0.12136254459619522, -0.11378800868988037, -0.07617908716201782, 0.003951450809836388, 0.014245928265154362, -0.04288056865334511, 0.06091800704598427, -0.07018738240003586, 0.18166068196296692, 0.12335910648107529, -0.15458446741104126, -0.14448927342891693, 0.098665751516819, -0.031884871423244476, 0.10118670761585236, -0.11057479679584503, -0.18529587984085083, 0.08030883222818375, -0.09038141369819641, -0.12545624375343323, 0.10624243319034576, -0.11498978734016418, -0.00032067345455288887, -0.17625971138477325, -0.019083529710769653, 0.10612009465694427, 0.00531897833570838, 0.0009792550699785352, 0.11108523607254028, -0.13192161917686462, 0.00812669936567545, -0.0702630802989006, 0.07141291350126266, -0.04958144575357437, 0.08828108012676239, 0.09063807129859924, -0.10909372568130493, -0.09763729572296143, 0.012854823842644691, 0.020121220499277115, -0.0810616984963417, 0.028830595314502716, 0.028689691796898842, -0.12792524695396423, 0.031674809753894806, 0.07971769571304321, -0.111933134496212, -0.033315449953079224, -0.00021738687064498663, -0.049061283469200134, -0.0030154201667755842, 0.0413113608956337, 0.13368703424930573, -0.09095501154661179, -0.15837666392326355]], "bias": [-0.0024173841811716557, 0.002725296188145876, -0.029429614543914795, 0.12320633977651596, 0.06833092123270035, -0.09441199898719788, 0.14026662707328796, -0.12820041179656982, -0.09875987470149994, 0.14403866231441498, -0.12140516936779022, -0.13614709675312042, 0.18755486607551575, 0.02021651715040207, 0.19168129563331604, -0.1264900416135788, -0.04028935730457306, -0.03149634227156639, 0.07683276385068893, -0.06802822649478912, -0.11803162842988968, 0.1529691517353058, 0.13163846731185913, 0.10563409328460693, -0.06289902329444885, 0.16949675977230072, -0.06358558684587479, 0.11153652518987656, 0.14058014750480652, -0.11369763314723969, 0.19220873713493347, -0.0052117942832410336, 0.18493621051311493, 0.049313925206661224, 0.022889556363224983, -0.180622860789299, -0.10725709050893784, 0.17787839472293854, -0.0024182552006095648, 0.13285943865776062, 0.05905278027057648, -0.06349190324544907, 0.0028507497627288103, 0.162120521068573, 0.14512857794761658, 0.10453536361455917, 0.10095468908548355, -0.11954937875270844, -0.16284415125846863, -0.07287472486495972, 0.15197065472602844, -0.0072289127856493, -0.09149596095085144, 0.2055872529745102, 0.09439697116613388, 0.04213417321443558, 0.07239485532045364, 0.202554851770401, -0.20475658774375916, -0.04962647333741188, 0.172979474067688, -0.016243791207671165, -0.05067974701523781, 0.05893954262137413, -0.03638267144560814, 0.06353621184825897, -0.1035703718662262, -0.11760375648736954, -0.1861584186553955, 0.006567693315446377, -0.1642719805240631, -0.015170382335782051, -0.07130487263202667, -0.02010694332420826, 0.2014312893152237, -0.20649540424346924, 0.19958680868148804, -0.08560249209403992, -0.0388331301510334, 0.16568608582019806, 0.11187417060136795, 0.18214140832424164, 0.000328841560985893, -0.14079274237155914, 0.07003980875015259, -0.16762776672840118, -0.08146362006664276, -0.02023191936314106, -0.177046537399292, 0.02334708347916603, -0.19238582253456116, 0.15728184580802917, -0.13244764506816864, 0.20363867282867432, 0.10563653707504272, -0.05171849578619003, 0.2110462188720703, -0.09311353415250778, 0.08072426915168762, 0.04671790078282356, -0.1643291413784027, 0.08704859018325806, -0.13039186596870422, 0.20999634265899658, 0.11689797788858414, -0.007958957925438881, -0.15938620269298553, -0.16054081916809082, 0.03720054030418396, -0.20947423577308655, -0.008265677839517593, -0.091725192964077, -0.19137102365493774, 0.16653476655483246, 0.08761335164308548, -0.10054316371679306, 0.14237916469573975, 0.14737196266651154, 0.16261979937553406, 0.19883303344249725, -0.06756141781806946, -0.161499485373497, -0.013061316683888435, -0.18073202669620514, -0.20621046423912048, 0.024249441921710968, 0.10634458065032959, -0.10412368923425674], "activation": "relu", "bn": {"gamma": [1.043320894241333, 0.9634110331535339, 0.9507507681846619, 0.96321702003479, 1.037447452545166, 1.0485421419143677, 0.9854546189308167, 0.9749163389205933, 1.0325229167938232, 0.9859846830368042, 0.9849664568901062, 1.03610360622406, 0.9506970643997192, 0.9779918789863586, 0.9769228100776672, 0.974232017993927, 1.0324684381484985, 0.9518640637397766, 1.0470489263534546, 1.047305703163147, 1.043211579322815, 1.054440975189209, 0.9835558533668518, 0.9610315561294556, 0.9874391555786133, 0.9450020790100098, 0.9952952265739441, 0.9886986613273621, 0.9815672636032104, 1.0092779397964478, 0.9965163469314575, 1.064794659614563, 1.0428876876831055, 1.0046892166137695, 0.9506571292877197, 1.029402256011963, 1.0040961503982544, 0.9786267876625061, 1.0448411703109741, 1.0034382343292236, 0.9738370180130005, 1.0205726623535156, 0.979763388633728, 1.0512845516204834, 0.9802499413490295, 1.0193313360214233, 1.0161337852478027, 0.9598000645637512, 1.0322281122207642, 0.9518833756446838, 1.019294261932373, 0.9743945002555847, 0.9929357171058655, 1.0206037759780884, 0.9659929275512695, 1.0205280780792236, 0.9772363305091858, 0.9666804671287537, 0.9527321457862854, 0.9689249992370605, 0.9876081943511963, 0.9550084471702576, 0.9618891477584839, 1.0597139596939087, 1.0411893129348755, 0.9822645783424377, 1.0662550926208496, 1.0245921611785889, 0.9895971417427063, 1.0178848505020142, 0.9638508558273315, 1.016435980796814, 0.9534838795661926, 1.0402741432189941, 0.9618616700172424, 0.9827772974967957, 0.9794944524765015, 0.9638312458992004, 0.9906182289123535, 0.9492533206939697, 1.0033886432647705, 0.9912819266319275, 0.9874179363250732, 1.0589889287948608, 1.048717737197876, 0.9932219386100769, 1.0490930080413818, 0.9514909386634827, 1.0051134824752808, 0.9585493206977844, 0.9868324995040894, 0.9788245558738708, 1.0335031747817993, 0.9626505970954895, 0.9623791575431824, 1.0594346523284912, 0.9630342721939087, 1.0297622680664062, 0.9789413809776306, 0.9696083068847656, 0.9665202498435974, 0.9686341285705566, 0.9594694972038269, 1.0290666818618774, 0.9642367362976074, 1.0061440467834473, 0.9669412970542908, 0.9686098098754883, 1.0243310928344727, 0.9625410437583923, 0.972434401512146, 0.9519572854042053, 1.0228163003921509, 0.9994919896125793, 1.006844162940979, 1.0580891370773315, 1.0296144485473633, 1.0039726495742798, 1.020788550376892, 1.044409155845642, 1.016208291053772, 1.0036368370056152, 0.9510535001754761, 0.9987052083015442, 1.0353487730026245, 0.994163453578949, 1.0459922552108765, 0.9859216809272766], "beta": [0.02212945558130741, -0.04204155504703522, -0.06030099093914032, -0.04565837234258652, -0.05774097144603729, 0.056575123220682144, -0.058431949466466904, -0.04634685814380646, 0.019561095163226128, 0.014254840090870857, -0.01562664471566677, 0.03829311951994896, -0.033831868320703506, 0.0009721257374621928, -0.061736274510622025, -0.03730446472764015, 0.005220609717071056, -0.03725888207554817, 0.05572939291596413, 0.010588620789349079, 0.03685973584651947, 0.03992939367890358, -0.031521275639534, -0.05467251315712929, -0.025221968069672585, -0.055809952318668365, -0.028016136959195137, -0.055338792502880096, -0.019856037572026253, 0.018813002854585648, 0.008031760342419147, 0.06265036016702652, 0.006746754050254822, -0.026900574564933777, -0.03392764553427696, -0.04127712547779083, -0.003015217138454318, -0.027223851531744003, 0.04538499936461449, -0.02099490910768509, -0.026474790647625923, -0.05446281284093857, -0.0341174490749836, 0.0006854094681330025, -0.020909221842885017, -0.04440953955054283, -0.009530561044812202, -0.033142104744911194, 0.02518388442695141, -0.04761029779911041, -0.03569328039884567, 0.032586488872766495, -0.03992123529314995, 0.034054119139909744, -0.02966987155377865, -0.017586391419172287, -0.05905447527766228, -0.03693408891558647, -0.045205023139715195, -0.05400407686829567, -0.018740054219961166, 0.02677879109978676, -4.590576281771064e-05, 0.007064268924295902, -0.052644506096839905, -0.04862387478351593, 0.04721185564994812, -0.0424211323261261, -0.007642442360520363, -0.060685716569423676, -0.01995522528886795, -0.015324977226555347, -0.03279292955994606, -0.02213657647371292, 0.017179355025291443, -0.05148564279079437, -0.026742884889245033, -0.03871077671647072, -0.04702252894639969, -0.026618685573339462, -0.002868998097255826, -0.058410484343767166, 0.003955604508519173, 0.0626620203256607, -0.004419360775500536, -0.03506411984562874, 0.03982914239168167, -0.05409512668848038, -0.02872351184487343, -0.041747573763132095, -0.05288261920213699, -0.0006819876143708825, 0.021154530346393585, -0.03505200147628784, -0.024031439796090126, 0.0036957119591534138, -0.050306130200624466, -0.0506284162402153, -0.03567364811897278, -0.05365920066833496, -0.049984365701675415, -0.03880632296204567, -0.0415947251021862, 0.03834819048643112, -0.04627246409654617, 0.0180173609405756, 0.025057991966605186, -0.035645656287670135, 0.030809786170721054, -0.04095994308590889, -0.03316877409815788, -0.042131055146455765, -0.026843471452593803, 0.013154604472219944, 0.02567365951836109, 0.062389861792325974, 0.010482145473361015, 0.0386057086288929, 0.030150102451443672, -0.03814014419913292, 0.010875508189201355, -0.02218466065824032, -0.05390733480453491, -0.020365513861179352, -0.0204369705170393, 0.054315920919179916, 0.029783599078655243, 0.042725592851638794], "mean": [-0.0025184950791299343, 0.0027112842071801424, -0.02927844040095806, 0.12297378480434418, 0.06818479299545288, -0.09421904385089874, 0.13995467126369476, -0.1279907524585724, -0.09870395809412003, 0.14377209544181824, -0.12113752216100693, -0.1359143704175949, 0.18722431361675262, 0.020138783380389214, 0.19123491644859314, -0.12629108130931854, -0.040250424295663834, -0.03143230453133583, 0.07658937573432922, -0.06784123927354813, -0.11772353202104568, 0.15270383656024933, 0.13141611218452454, 0.1054447591304779, -0.06281611323356628, 0.16921570897102356, -0.06351415067911148, 0.11128978431224823, 0.14030559360980988, -0.1134781688451767, 0.19181326031684875, -0.005203395616263151, 0.18462587893009186, 0.04924122244119644, 0.022874251008033752, -0.1803637146949768, -0.1070590540766716, 0.17755946516990662, -0.002432354958727956, 0.1326148808002472, 0.05894308537244797, -0.06338585913181305, 0.002834330778568983, 0.1618674397468567, 0.14495648443698883, 0.10430939495563507, 0.10078732669353485, -0.11928605288267136, -0.16255132853984833, -0.07274630665779114, 0.151678204536438, -0.0072579700499773026, -0.09125079214572906, 0.2051904946565628, 0.0942293107509613, 0.042004480957984924, 0.07228594273328781, 0.20213982462882996, -0.20438796281814575, -0.04952167347073555, 0.17267125844955444, -0.016155052930116653, -0.05061807483434677, 0.058879077434539795, -0.036271266639232635, 0.0634041577577591, -0.10337125509977341, -0.11737608909606934, -0.18578575551509857, 0.006486336700618267, -0.16395936906337738, -0.015135794878005981, -0.07114310562610626, -0.019907871261239052, 0.2010727971792221, -0.20614953339099884, 0.19929885864257812, -0.08543598651885986, -0.0387682169675827, 0.16541559994220734, 0.1116519346833229, 0.1817869246006012, 0.00033213989809155464, -0.14042548835277557, 0.06991146504878998, -0.167383074760437, -0.08136686682701111, -0.020201070234179497, -0.17674477398395538, 0.023263348266482353, -0.1920253336429596, 0.15697655081748962, -0.132225900888443, 0.20327973365783691, 0.10545935481786728, -0.05157497525215149, 0.21064209938049316, -0.09269344806671143, 0.08059479296207428, 0.04669249430298805, -0.16398221254348755, 0.08685845136642456, -0.13014960289001465, 0.20960049331188202, 0.11672669649124146, -0.007949098944664001, -0.15911275148391724, -0.16030073165893555, 0.03720398619771004, -0.20916666090488434, -0.008264359086751938, -0.09155093133449554, -0.19097831845283508, 0.16622337698936462, 0.08749476075172424, -0.1002197265625, 0.141985684633255, 0.14715273678302765, 0.16237343847751617, 0.19839827716350555, -0.06749038398265839, -0.161252960562706, -0.01307043619453907, -0.18039943277835846, -0.20576050877571106, 0.02421019785106182, 0.10618986934423447, -0.1039619892835617], "var": [0.13405369222164154, 0.29284384846687317, 0.5050694346427917, 0.42184343934059143, 0.33061549067497253, 0.22764873504638672, 0.14057593047618866, 0.346854031085968, 0.17540596425533295, 0.2566722333431244, 0.2885746955871582, 0.2743845283985138, 0.42470312118530273, 0.17732463777065277, 0.22876453399658203, 0.29115939140319824, 0.28282663226127625, 0.28858456015586853, 0.1626875251531601, 0.14989709854125977, 0.11091207712888718, 0.09470212459564209, 0.3868166208267212, 0.6187608242034912, 0.17441615462303162, 0.29296594858169556, 0.17846019566059113, 0.2704533636569977, 0.23268459737300873, 0.44329044222831726, 0.43829476833343506, 0.21175642311573029, 0.26423826813697815, 0.2375655323266983, 0.6556323766708374, 0.19851259887218475, 0.41220998764038086, 0.5068626403808594, 0.18366499245166779, 0.6113921403884888, 0.3766787350177765, 0.15287698805332184, 0.3161959648132324, 0.22694453597068787, 0.1451554000377655, 0.2853943109512329, 0.33823996782302856, 0.36539411544799805, 0.23499628901481628, 0.6584994792938232, 0.23689424991607666, 0.2440251111984253, 0.16571368277072906, 0.2371663749217987, 0.317757785320282, 0.19490782916545868, 0.3626055419445038, 0.4820551574230194, 0.4187343716621399, 0.20584933459758759, 0.7489916086196899, 0.3412364721298218, 0.2536085247993469, 0.1362963616847992, 0.18739302456378937, 0.3042891323566437, 0.10563724488019943, 0.1431296020746231, 0.33908745646476746, 0.20669515430927277, 0.36822518706321716, 0.2264830321073532, 0.4255434572696686, 0.12884023785591125, 0.4413049817085266, 0.18552164733409882, 0.1418682485818863, 0.1587008386850357, 0.14744210243225098, 0.58575838804245, 0.1527671366930008, 0.3339923620223999, 0.19159355759620667, 0.26402193307876587, 0.2931872606277466, 0.37353551387786865, 0.22329413890838623, 0.5311806797981262, 0.3445548117160797, 0.2652915418148041, 0.4302992522716522, 0.19796833395957947, 0.2463933527469635, 0.7413662672042847, 0.23413211107254028, 0.131749227643013, 0.8488911986351013, 0.10990621894598007, 0.10701560229063034, 0.38482484221458435, 0.28917986154556274, 0.3825884163379669, 0.6972795724868774, 0.0805121511220932, 0.3694482147693634, 0.18869751691818237, 0.19828908145427704, 0.41960611939430237, 0.29680323600769043, 0.39125433564186096, 0.4895927608013153, 0.6831958293914795, 0.12785911560058594, 0.5342461466789246, 0.18145425617694855, 0.12622074782848358, 0.30178725719451904, 0.24513950943946838, 0.3290266990661621, 0.2234257161617279, 0.36605262756347656, 0.1557997614145279, 0.6474032998085022, 0.5358893871307373, 0.08562273532152176, 0.2663048207759857, 0.17193610966205597, 0.17094439268112183], "eps": 1e-05}}, {"weights": [[0.0637894943356514, -0.006973134353756905, -0.04605183005332947, -0.029043009504675865, -0.10097943246364594, 0.10819872468709946, -0.04653384909033775, 0.011763428337872028, 0.07798632234334946, -0.027114002034068108, -0.11874479800462723, -0.12018927186727524, -0.0396897979080677, -0.04770679399371147, -0.06532501429319382, 0.07769792526960373, 0.07414828985929489, -0.0428314246237278, -0.09775806218385696, 0.006406037136912346, -0.05387633293867111, 0.02299032174050808, 0.06082010269165039, -0.007582309190183878, -0.07458687573671341, -0.0683877095580101, 0.007433827966451645, -0.009088841266930103, -0.11861690133810043, -0.01380035001784563, -0.01957794651389122, 0.047411706298589706, -0.027724694460630417, -0.011305902153253555, 0.09080132097005844, -0.0818798616528511, -0.031512025743722916, 0.06973591446876526, 0.04086010903120041, -0.05072282999753952, 0.017663832753896713, 0.04211334139108658, 0.09844693541526794, 0.004003141541033983, -0.04751497879624367, -0.03306431323289871, -0.04191190004348755, 0.03350866958498955, -0.0018328232690691948, 0.0700288936495781, 0.06909575313329697, 0.0070937019772827625, -0.006376474630087614, -0.00975427683442831, -0.025738483294844627, -0.009518105536699295, -0.05759650841355324, 0.09212267398834229, 0.015124944038689137, 0.0355786494910717, -0.13087545335292816, 0.13347071409225464, -0.12052065134048462, -0.00939171202480793], [-0.059534747153520584, -0.08379007875919342, 0.0032710053492337465, 0.09418486058712006, -0.059129465371370316, 0.029790138825774193, -0.022145956754684448, -0.013340863399207592, 0.038717467337846756, -0.07929538935422897, -0.030023429542779922, -0.04140019044280052, 0.007047727704048157, 0.02190243825316429, -0.08423484861850739, -0.009642565622925758, 0.0188375785946846, 0.030245941132307053, -0.00020494445925578475, -0.031566448509693146, 0.009865520521998405, 0.017678482457995415, 0.09418752789497375, -0.03497222438454628, -0.0016147817950695753, 0.03865989297628403, -0.02374888025224209, 0.020217327401041985, 0.026030173525214195, -0.09609145671129227, 0.05728224664926529, 0.11026087403297424, 0.12795527279376984, 0.06866282224655151, -0.054818764328956604, 0.06791964918375015, -0.06682264804840088, 0.015349474735558033, 0.08223865926265717, 0.030976271256804466, -0.04763665795326233, -0.007849338464438915, -0.04476222023367882, -0.041515953838825226, -0.07475659251213074, 0.048952918499708176, -0.03153856098651886, 0.06986336410045624, 0.10617636889219284, -0.0009548650123178959, 0.012531067244708538, -0.0445404089987278, 0.015715476125478745, -0.04122638702392578, -0.010630848817527294, 0.08760838210582733, 0.09831593185663223, 0.034791141748428345, -0.02153371460735798, 0.030971845611929893, 0.05290229246020317, 0.101226806640625, -0.023776793852448463, 0.032333362847566605], [-0.04010524973273277, 0.0065780398435890675, 0.02734248712658882, 0.04838082939386368, -0.016519371420145035, 0.013303671963512897, -0.07745910435914993, 0.017487911507487297, 0.08119834214448929, -0.03553947061300278, -0.04541242495179176, -0.008002867922186852, 0.05842984467744827, -0.02763788402080536, 0.05107484385371208, 0.06716478615999222, 0.0037270155735313892, 0.030247762799263, 0.043666813522577286, 0.018928343430161476, -0.020788833498954773, -0.057802993804216385, -0.06843354552984238, 0.004325782880187035, -0.07757672667503357, 0.03413648158311844, -0.0833040177822113, -0.0822305828332901, 0.018704185262322426, -0.02685590274631977, -0.025423364713788033, 0.00786927342414856, -0.05429840460419655, 0.019430777058005333, 0.048827603459358215, 0.046283185482025146, 0.06520072370767593, 0.03418642655014992, -0.05733790248632431, -0.02848605252802372, 0.0743759498000145, 0.061020106077194214, -0.04877760261297226, -0.047417640686035156, -0.018066300079226494, -0.04172307252883911, 0.04537096619606018, 0.020267736166715622, 0.011064691469073296, 0.04065578058362007, 0.04248708859086037, 0.002046023029834032, 0.04415685310959816, -0.049352388828992844, -0.030460160225629807, 0.12014836072921753, -0.07103165984153748, -0.05008088797330856, 0.06934783607721329, -0.02059534564614296, -0.058321263641119, 0.07112741470336914, -0.0336608923971653, 0.03241311386227608], [0.006671060808002949, 0.05194685980677605, 0.013891405425965786, -0.0046049002557992935, 0.12795338034629822, -0.02375047467648983, 0.017129508778452873, 0.011740374378859997, -0.038774747401475906, -0.13124820590019226, 0.06676623970270157, 0.05422525852918625, -0.018985290080308914, 0.04131222143769264, 0.004792498890310526, 0.00241150613874197, 0.005361685995012522, -0.04647239297628403, -0.01744607463479042, 0.036109019070863724, -0.02555348165333271, 0.0007687835022807121, 0.04732373356819153, -0.04421776905655861, -0.05863442271947861, 0.008526680059731007, -0.04490325599908829, -0.027215100824832916, -0.026700574904680252, -0.044418614357709885, 0.032630667090415955, -0.0430331826210022, 0.05477790907025337, -0.008563178591430187, -0.04661962389945984, 0.06317086517810822, 0.08689096570014954, -0.00550828268751502, 0.11146194487810135, -0.022328414022922516, 0.03556360676884651, 0.05834093317389488, -0.07708679884672165, -0.09439025074243546, 0.06941366195678711, 0.02733120135962963, 0.022901836782693863, 0.011203453876078129, 0.05286945402622223, -0.018842224031686783, 0.07047545909881592, -0.00623077480122447, 0.06257465481758118, -0.011546867899596691, 0.0022513987496495247, 0.058502037078142166, -0.03006197325885296, -0.026079971343278885, 0.03312624245882034, -0.06150827184319496, -0.06463126093149185, 0.02065497636795044, -5.2186951506882906e-05, 0.0582083985209465], [-0.0630686804652214, -0.013230281881988049, 0.051061391830444336, -0.00441407598555088, 0.07731682062149048, -0.052635230123996735, 0.12840820848941803, 0.04956243187189102, -0.005453235935419798, -0.07851880043745041, -0.00453261798247695, 0.027894744649529457, -0.026436856016516685, 0.057198911905288696, -0.08966147154569626, -0.032582275569438934, 0.001946924370713532, -0.08472415059804916, 0.09605737030506134, -0.04233204200863838, 0.03942098096013069, -0.004930415190756321, -0.00789390504360199, 0.04844032973051071, -0.09748904407024384, -0.022636335343122482, 0.06425624340772629, -0.03282081335783005, -0.004387141205370426, -0.01617017760872841, 0.05443396419286728, 0.09895201772451401, -0.02182486094534397, -0.017296595498919487, 0.010867205448448658, -0.06381029635667801, -0.07870769500732422, -0.021767664700746536, -0.0068677617236971855, 0.056318625807762146, 0.014192085713148117, -0.05861160159111023, -0.08021364361047745, -0.07604290544986725, 0.041772376745939255, 0.024359671398997307, 0.06747179478406906, -0.0880119726061821, -0.10435960441827774, 0.0427359938621521, -0.09578739106655121, 0.007436226587742567, 0.023191800341010094, 0.06578370183706284, 0.07197175174951553, -0.05400582402944565, 0.09762538224458694, -0.0011802009539678693, -0.0970391109585762, -0.07413209974765778, 0.1300499588251114, -0.0973757803440094, -0.04813481494784355, 0.023328879848122597], [0.01206300687044859, 0.02414623275399208, -0.05062345042824745, -0.008457161486148834, 0.0020314641296863556, -0.09467216581106186, -0.04690985009074211, 0.01835121028125286, -0.03784462809562683, 0.03245146572589874, 0.0774761438369751, -0.06946224719285965, -0.09884608536958694, -0.07567144185304642, -0.043280862271785736, 0.015718022361397743, 0.06562615931034088, -0.027052415534853935, 0.011587368324398994, -0.02060004696249962, 0.061003196984529495, -0.03326781094074249, 0.010131687857210636, -0.01111654657870531, 0.012068795040249825, 0.047805894166231155, -0.06179603189229965, -0.03579248860478401, 0.04800831526517868, -0.04189736768603325, 0.005683475639671087, -0.0847892090678215, 0.108100026845932, -0.005519966594874859, -0.0013848687522113323, -0.035196349024772644, 0.05549965426325798, -0.034731533378362656, 0.059788063168525696, -0.006228383630514145, 0.09346197545528412, -0.003929504659026861, 0.03715252876281738, 0.03292078524827957, -0.07572231441736221, 0.07045763731002808, 0.12068457156419754, -0.06347529590129852, -0.07555891573429108, -0.049302347004413605, 0.04027506709098816, 0.11657257378101349, -0.015107621438801289, 0.13443253934383392, 0.04877927154302597, 0.07361336797475815, -0.004227367229759693, -0.1155058741569519, 0.050620291382074356, 0.025390353053808212, 0.018984301015734673, 0.0037566160317510366, -0.02896881103515625, 0.06123980134725571], [0.051092762500047684, 0.05706677585840225, -0.07778607308864594, -0.08208564668893814, -0.0012774767819792032, 0.013142367824912071, -0.007180158048868179, 0.04691896215081215, -0.0433853343129158, -0.016652777791023254, 0.05740966647863388, 0.07888762652873993, -0.027963068336248398, -0.0548936165869236, 0.051053643226623535, -0.032227855175733566, 0.0864165648818016, -0.014076127670705318, 0.08819352090358734, 0.017748666927218437, 0.0809188261628151, -0.007718231994658709, 0.009747582487761974, -0.015689902007579803, -0.06983722001314163, -0.021550239995121956, 0.10347692668437958, 0.04125969111919403, 0.0459301583468914, 1.3607030268758535e-05, -0.0168348029255867, 0.07383260130882263, -0.028551993891596794, 0.009771289303898811, -0.049217890948057175, -0.06138187646865845, -0.13927623629570007, -0.02084115706384182, 0.09702476114034653, -0.07511654496192932, -0.042611267417669296, -0.006643013097345829, 0.019449234008789062, 0.030587319284677505, -0.02491007372736931, 0.044432561844587326, 0.0487663671374321, -0.09190632402896881, -0.06756021082401276, -0.058753348886966705, -0.10879314690828323, 0.10287931561470032, -0.056718114763498306, 0.02226627804338932, -0.01911206915974617, 0.020685981959104538, 0.020101431757211685, -0.02062362991273403, -0.023741016164422035, -0.04013877362012863, -0.007790000643581152, -0.04350465163588524, -0.07339858263731003, 0.023788198828697205], [-0.04005209356546402, -0.00269110850058496, 0.0831468477845192, -0.0494440533220768, 0.04905150830745697, -0.013426103629171848, 0.09233402460813522, 0.027943097054958344, 0.028286034241318703, -0.09639383852481842, 0.027490559965372086, 0.020218579098582268, -0.04688391461968422, 0.04731108620762825, -0.05278441309928894, 0.013246482238173485, 0.016917819157242775, 0.02505713328719139, -0.03717730566859245, -0.06654918193817139, 0.10762012749910355, 0.0608636736869812, -0.042231425642967224, -0.00553263071924448, -0.035703305155038834, 0.013490605168044567, 0.06490764766931534, -0.023678230121731758, 0.07221505045890808, 0.003150898963212967, 0.0734938234090805, 0.10547967255115509, -0.09889278560876846, 0.016038943082094193, -0.04535454884171486, 0.02911296859383583, 0.04981813207268715, -0.04183077812194824, -0.06203486770391464, -0.084415502846241, -0.05023174732923508, -0.07248621433973312, -0.03171033784747124, -0.02729307860136032, -0.012926655821502209, -0.007435942068696022, -0.07871237397193909, -0.041652701795101166, -0.05747592821717262, -0.03282098099589348, -0.007810467854142189, -0.04782088100910187, -0.06693542748689651, -0.023296326398849487, 0.006532223429530859, -0.015642493963241577, 0.06306415051221848, -0.00029049135628156364, -0.06428980082273483, 0.028889881446957588, 0.09023144841194153, 0.0020539448596537113, -0.031060369685292244, -0.0618203729391098], [-0.06163518503308296, 0.043238863348960876, 0.018672291189432144, -0.03614097461104393, -0.02448374032974243, -0.02574271708726883, 0.013074714690446854, -0.056533873081207275, -0.05647677555680275, -0.03943931683897972, -0.019387155771255493, 0.07299806922674179, -0.07083211094141006, 0.04839625954627991, 0.07481144368648529, 0.019635334610939026, 0.053750064224004745, -0.07407338172197342, 0.04776286333799362, -0.039902213960886, -0.08364778757095337, -0.0005223767948336899, -0.01498252060264349, 0.13191215693950653, 0.008666443638503551, 0.09426876157522202, -0.009887715801596642, 0.00583492498844862, -0.026944182813167572, -0.0405433215200901, 0.0977499932050705, -0.04323931783437729, 0.06713960319757462, -0.039626047015190125, 0.06318272650241852, 0.018966780975461006, -0.11097684502601624, 0.05829931050539017, 0.09175210446119308, -0.10667768120765686, 0.11828586459159851, -0.09283176809549332, -0.027208473533391953, 0.050763364881277084, -0.03318944200873375, -0.04657841846346855, 0.11162810772657394, -0.03623544052243233, -0.013242712244391441, -0.009989939630031586, -0.048533570021390915, 0.11307352781295776, -0.026898499578237534, 0.012128328904509544, 0.09063418954610825, 0.01301974430680275, 0.026529740542173386, -0.046620018780231476, 0.06399857252836227, -0.06813976913690567, -0.047203272581100464, -0.030538061633706093, -0.06133903190493584, 0.09176166355609894], [0.036716680973768234, 0.002813211642205715, 0.009871981106698513, -0.08595218509435654, -0.024587253108620644, 0.034767623990774155, 0.01694377325475216, -0.04794551804661751, -0.021890290081501007, -0.011466626077890396, -0.08873112499713898, -0.02745371311903, 0.03577534109354019, -0.01868172362446785, -0.10102386772632599, -0.0660085380077362, 0.08371001482009888, 0.009499267674982548, -0.005049803294241428, 0.09989368915557861, 0.0635630413889885, 0.002389136701822281, 0.06642111390829086, 0.00561763159930706, -0.03033635765314102, -0.04214911535382271, -0.00987378042191267, -0.023349203169345856, -0.0019472850253805518, 0.05423928424715996, 0.0465707890689373, 0.027974147349596024, -0.03333013877272606, 0.07756944000720978, -0.059586286544799805, -0.04460475966334343, 0.040378838777542114, -0.05123500898480415, -0.0896931067109108, 0.015301850624382496, -0.11989912390708923, -0.06851058453321457, 0.0800258219242096, 0.07397186756134033, 0.0244751013815403, 0.0006694374023936689, -0.08748325705528259, 0.01885942742228508, 0.04155076667666435, -0.10021036863327026, -0.00842724647372961, 0.03584305942058563, 0.039199355989694595, -0.07367347180843353, -0.034833312034606934, 0.0031299125403165817, 0.043802306056022644, -0.04918525367975235, 0.03614987060427666, -0.07525857537984848, -0.05541088432073593, -0.0999281108379364, 0.028473353013396263, -0.09437762200832367], [-0.046074867248535156, -0.00042058498365804553, -0.05934366583824158, -0.08369168639183044, 0.047060392796993256, -0.007721873000264168, 0.046361520886421204, -0.07244503498077393, -0.04443932697176933, 0.049571335315704346, -0.0018116486025974154, 0.08284982293844223, -0.06501644849777222, -0.04320366308093071, 0.07655039429664612, -0.04307640343904495, -0.05645598843693733, 0.07313278317451477, 0.013865897431969643, -0.05419422686100006, 0.018402090296149254, -0.004789532162249088, 0.10634829103946686, 0.06511782854795456, -0.07370367646217346, -0.03173946961760521, -0.007616020739078522, 0.04417956992983818, 0.01836361177265644, -0.08386386930942535, 0.005342562682926655, -0.06978073716163635, -0.025773407891392708, -0.12257048487663269, 0.022350303828716278, 0.05533832684159279, 0.057019609957933426, -0.009995939210057259, 0.03648926690220833, -0.10784041881561279, 0.016728701069951057, 0.0466158464550972, 0.023726288229227066, 0.0022212150506675243, -0.0282468069344759, 0.03098335862159729, 0.062574103474617, 0.05164968594908714, -0.06765984743833542, -0.07168759405612946, 0.05552666634321213, 0.00857558660209179, 0.01228684838861227, 0.029957158491015434, -0.03816986829042435, 0.04921727627515793, -0.09666616469621658, -0.018466603010892868, -0.050706908106803894, 0.004134440794587135, -0.07238316535949707, -0.039332613348960876, -0.019885292276740074, 0.024910209700465202], [-0.06406091153621674, 0.07488995045423508, 0.02304248884320259, -0.06426025927066803, -0.013246720656752586, 0.01272114273160696, 0.07156383991241455, 0.034028347581624985, 0.0052275583148002625, -0.06411400437355042, 0.049214575439691544, 0.05597713589668274, -0.016440004110336304, 0.0669228807091713, -0.010128036141395569, -0.031151125207543373, 0.05943166837096214, 0.06429488956928253, 0.04710736498236656, -0.03689795732498169, 0.04026135057210922, 0.08031751215457916, 0.02384265884757042, -0.008223073557019234, 0.0040123374201357365, -0.11634252965450287, 0.0033312635496258736, 0.09978175163269043, 0.014512928202748299, 0.10392908751964569, 0.0348736047744751, 0.010889189317822456, -0.02064288593828678, 0.07499191910028458, -0.1008310616016388, -0.12863580882549286, -0.11379827558994293, -0.04668788984417915, 0.04009299352765083, 0.045392993837594986, -0.10585187375545502, -0.06730183213949203, 0.07019177824258804, -0.02239868976175785, 0.06540398299694061, -0.032192766666412354, -0.046432893723249435, 0.014284354634582996, -0.006128046195954084, 0.015253139659762383, -0.049411922693252563, 0.01490905974060297, -0.028720557689666748, 0.07144201546907425, -0.06152867153286934, -0.10890762507915497, -0.017235927283763885, 0.01529503520578146, -0.04032573848962784, -0.058779750019311905, -0.03922247141599655, -0.09449794143438339, -0.03980918601155281, -0.07225900143384933], [0.06681141257286072, -0.07002124935388565, -0.09050792455673218, 0.022322874516248703, -0.049623195081949234, -0.0011196733685210347, -0.10132580250501633, 0.021667592227458954, 0.043539490550756454, 0.056535884737968445, -0.10784155875444412, -0.031304262578487396, -0.08453422039747238, -0.09340815991163254, -0.060998689383268356, -0.061905909329652786, 0.028388241305947304, 0.051879946142435074, 0.02775697223842144, 0.03634476661682129, -0.0037826639600098133, 0.0204441137611866, 0.042776767164468765, 0.036619916558265686, -0.03275974839925766, -0.02795541100203991, 0.04251248762011528, 0.021466081961989403, -0.02894655242562294, 0.012323698960244656, 0.015883805230259895, -0.001135384663939476, 0.05157220736145973, -0.0023114827927201986, -0.0525909848511219, -0.01680668443441391, 0.007385211531072855, 0.027372218668460846, -0.012382916174829006, -0.1136166900396347, -0.03571563959121704, 0.01844034716486931, 0.09156791120767593, 0.05858177691698074, -0.08968549966812134, -0.001464190543629229, -0.04524130001664162, 0.01037842221558094, -0.005205848719924688, -0.025654340162873268, 0.04031489044427872, -0.0009148234385065734, -0.021300218999385834, -0.06875231117010117, -0.06035115569829941, 0.02479124814271927, 0.02473844401538372, 0.033218663185834885, -0.036620400846004486, -0.02886010706424713, -0.10070807486772537, 0.06029346585273743, -0.04854791238903999, -0.054099518805742264], [0.027126405388116837, 0.04861926659941673, 0.006551067810505629, 0.04786321148276329, 0.0589086152613163, 0.02728857845067978, 0.01557151135057211, 0.05490894988179207, -0.03437410295009613, -0.003820147132501006, 0.030038725584745407, -0.01423251535743475, 0.03735737502574921, 0.08402995020151138, 0.05028124153614044, -0.10125131905078888, 0.01737017184495926, -0.06632556021213531, 0.06155501306056976, -0.02594847045838833, 0.06527982652187347, -0.04585884138941765, -0.07801606506109238, -0.057164475321769714, 0.0037883883342146873, 0.023224972188472748, 0.0641033872961998, -0.11576775461435318, -0.09639962017536163, -0.0627981573343277, -0.01622069999575615, 0.05474278703331947, -0.048790041357278824, 0.07479865849018097, -0.022623132914304733, 0.0022914730943739414, -0.04764125496149063, -0.01616104505956173, -0.008609483949840069, 0.11670985072851181, -0.04308202862739563, 0.0484466478228569, 0.07039910554885864, -0.09070471674203873, -0.019686385989189148, 0.04189617559313774, 0.012325179763138294, -0.006750407628715038, 0.026250334456562996, 0.02813541144132614, 0.03882097080349922, -0.020419839769601822, 0.004294599872082472, -0.020044105127453804, -0.026135733351111412, -0.01873263344168663, -0.038113825023174286, -0.019852668046951294, -0.03362607955932617, -0.08873153477907181, 0.1205672025680542, 0.032244015485048294, -0.014356650412082672, -0.00819949246942997], [0.06720191985368729, 0.023790722712874413, -0.01977349817752838, -0.04587017744779587, 0.03309622406959534, -0.033993009477853775, -0.05473224073648453, -0.03941507637500763, 0.016308549791574478, -0.0817786455154419, 0.05666196718811989, 0.032515767961740494, 0.015405102632939816, 0.00716991163790226, 0.005346427671611309, 0.05014695227146149, 0.11758442223072052, -0.02239355631172657, -0.02757951058447361, -0.06207217276096344, -0.032647859305143356, 0.09824174642562866, 0.01490786112844944, -0.029682349413633347, -0.041365910321474075, -0.019882528111338615, 0.04422430321574211, 0.04294653236865997, 0.020178847014904022, -0.002721104072406888, 0.1111905574798584, -0.0318489670753479, -0.0037250600289553404, -0.05624581128358841, -0.02743617631494999, 0.02200576663017273, 0.01676247827708721, -0.04400748386979103, -0.1098174974322319, -0.009976291097700596, 0.0007136596832424402, -0.014532950706779957, 0.051284581422805786, -0.04595237597823143, -0.009353996254503727, 0.05370013415813446, -0.019633222371339798, 0.034789327532052994, -0.09147889167070389, 0.03594145178794861, -0.08938640356063843, 0.0549955815076828, 0.02503363974392414, 0.0717393085360527, 0.06325305253267288, -0.0651562288403511, -0.0477898009121418, -0.001009561587125063, -0.07721196115016937, -0.04700047895312309, -0.06249929219484329, -0.019552286714315414, -0.03582209721207619, -0.011102796532213688], [-0.04539968818426132, -0.013230467215180397, -0.05011044815182686, -0.10189155489206314, 0.020237084478139877, 0.0935143306851387, -0.07806439697742462, -0.061115510761737823, -0.08433401584625244, -0.03102465718984604, 0.027532614767551422, 0.04315035045146942, 0.01287662424147129, -0.05040311440825462, 0.03565847501158714, 0.01071466039866209, 0.0773538202047348, -0.03314073756337166, 0.020004533231258392, 0.000827346695587039, -0.05647427961230278, 0.042732786387205124, -0.08809009194374084, 0.006161065306514502, 0.12957830727100372, 0.024499889463186264, -0.006832629442214966, 0.00806508306413889, -0.09602774679660797, 0.02155090495944023, -0.06179453805088997, 0.014326776377856731, 0.023940864950418472, 0.008709012530744076, 0.00414977315813303, 0.04367432743310928, -0.09410509467124939, 0.02716349996626377, 0.051206644624471664, -0.05891842767596245, -0.022255538031458855, -0.12401094287633896, 0.0200304314494133, -0.007432244252413511, 0.0010412097908556461, -0.07320612668991089, -0.02897058054804802, 0.0913599282503128, -0.03895819932222366, -0.00042045017471536994, -0.06306599080562592, 0.048948708921670914, -0.002862348686903715, 0.0024032634682953358, 0.05621536076068878, -0.09251254051923752, -0.0536440871655941, -0.029642382636666298, 0.040792398154735565, 0.0011781381908804178, 0.0896717756986618, -0.03793450817465782, -0.11930079758167267, -0.04184713214635849], [-0.013913110829889774, 0.07752956449985504, -0.027956482023000717, -0.0395461805164814, 0.010690410621464252, 0.014921299181878567, 0.0462096631526947, -0.08308574557304382, -0.09651364386081696, 0.08911191672086716, -0.10274307429790497, -0.09869695454835892, -0.0681074857711792, -0.10015926510095596, -0.11171766370534897, -0.019704384729266167, 0.028216063976287842, 0.09195583313703537, -0.06855524331331253, 0.1054113358259201, -0.02501504309475422, 0.03116908296942711, -0.015067018568515778, 0.0025751220528036356, -0.03539002686738968, 0.07164546102285385, 0.05355119705200195, 0.10499992966651917, 0.08742426335811615, 0.07547985762357712, 0.06672248244285583, -0.014367032796144485, -0.04864288121461868, -0.04243500158190727, -0.016452478244900703, -0.040510524064302444, -0.021971600130200386, 0.0011270452523604035, -0.06040149927139282, -0.056229472160339355, -0.04635055363178253, -0.01185687817633152, 0.08882022649049759, 0.0008177718846127391, 0.03942357003688812, 0.017129121348261833, -0.05746518820524216, -0.10496925562620163, -0.0954950600862503, -0.03432653844356537, -0.023996073752641678, 0.009727606549859047, 0.021752651780843735, 0.05180872976779938, 0.022245196625590324, -0.08679807931184769, 0.04238583520054817, 0.019260572269558907, -0.03890923410654068, -0.021867921575903893, -0.04075663536787033, -0.0025829211808741093, -0.009035642258822918, -0.0548684224486351], [-0.01298182550817728, 0.07428406924009323, -0.11285194754600525, 0.020889680832624435, 0.0024655491579324007, -0.03674989193677902, -0.000443159049609676, -0.10742305219173431, -0.05771065875887871, -0.1037730798125267, -0.03914092853665352, -0.04319833964109421, -0.012304792180657387, -0.025658490136265755, 0.0799219161272049, -0.03109836019575596, -0.06752430647611618, -0.008020465262234211, -0.002893744967877865, -0.07143021374940872, -0.093645840883255, -0.07554018497467041, 0.003088813740760088, 0.1018613949418068, -0.03594613075256348, -0.04208894819021225, -0.046975694596767426, -0.0038422064390033484, 