{"format": "handglow_mlp_v1", "created": "2026-04-21T16:32:41.754196", "accuracy": 1.0, "labels": ["BAD", "CALL", "GOOD", "HELLO", "LOVE", "MILK"], "n_features": 22, "feature_names": ["R.Thumb", "R.Index", "R.Middle", "R.Ring", "R.Pinky", "L.Thumb", "L.Index", "L.Middle", "L.Ring", "L.Pinky", "aX1", "aY1", "aZ1", "gX1", "gY1", "gZ1", "aX2", "aY2", "aZ2", "gX2", "gY2", "gZ2"], "normalization": {"mean": [0.12246237602440252, 0.2823213426783107, 0.9286209870280503, 0.921674026970007, 0.30552342913133196, 0.0779097430683773, 0.25103612253984947, 0.43189328399642496, 0.3264155939384381, 0.3022613588477009, 0.31072424318514913, 0.35940269682240933, -0.054092088756946356, 0.5081360979833484, -0.29987611311679874, 0.6552261511615877, 2.2231202321937316, -0.8577273142303967, 0.809612829459635, 0.2731646071338594, -0.7844745048607388, 0.6660866729147056], "std": [0.31779744233998736, 0.4155045922774901, 0.2550457580601221, 0.26859584534684117, 0.4598386503206378, 0.2679213714149948, 0.32620739285326916, 0.481428606041633, 0.38871358457827804, 0.40687182545912615, 0.4971769540534881, 0.6090100319620094, 0.42103064999206563, 0.3168678921128606, 0.4010299821830967, 0.289639366518463, 14.053946702566558, 19.214470957611763, 14.15615783364852, 15.004515300377138, 6.694714269524035, 11.107134139182776]}, "layers": [{"weights": [[-0.016344422474503517, 0.11359810829162598, -0.04045974090695381, 0.10636042058467865, 0.12895812094211578, -0.16590648889541626, -0.033647119998931885, 0.056913137435913086, -0.0647493228316307, -0.18736658990383148, 0.1428889036178589, 0.04916255548596382, -0.08618265390396118, -0.14114901423454285, 0.016290737316012383, -0.15077830851078033, -0.05928833782672882, 0.07631683349609375, 0.15397785604000092, 0.020130809396505356, 0.07565547525882721, -0.019639410078525543, -0.04192597046494484, 0.08484750241041183, -0.22435303032398224, 0.18614798784255981, -0.19428424537181854, 0.17655910551548004, -0.012136762961745262, 0.0730150043964386, -0.10626177489757538, 0.1307746320962906, 0.11100603640079498, -0.037852831184864044, -0.11161200702190399, 0.09919627010822296, 0.07000354677438736, -0.16684700548648834, 0.026313841342926025, 0.17886832356452942, 0.09737270325422287, 0.08523198962211609, 0.06823709607124329, 0.05457685515284538, -0.044670701026916504, -0.0862061008810997, 0.09276603907346725, -0.1986537128686905, -0.22676202654838562, 0.16690054535865784, -0.08490491658449173, -0.1815635859966278, 0.07632827758789062, 0.08974666893482208, -0.09781548380851746, 0.23082326352596283, 0.11816808581352234, 0.00576320756226778, 0.06691874563694, -0.20582321286201477, 0.07445786893367767, 0.09088600426912308, -0.14894624054431915, 0.12431036680936813, 0.1513260006904602, -0.2392999827861786, -0.23394228518009186, -0.10048690438270569, -0.014399171806871891, -0.0762321799993515, -0.18683962523937225, 0.14337122440338135, 0.18780286610126495, 0.07657144218683243, -0.06943856179714203, 0.11280801892280579, -0.12524473667144775, 0.1385747790336609, -0.14995472133159637, -0.12258534878492355, 0.1697760373353958, -0.11389940232038498, -0.1206071749329567, 0.18382368981838226, 0.13200947642326355, -0.08842896670103073, -0.054260458797216415, -0.15865474939346313, 0.11403917521238327, 0.15500867366790771, 0.12312739342451096, -0.09626670926809311, -0.1472254991531372, -0.11957010626792908, -0.11504672467708588, 0.08477450162172318, -0.17840345203876495, 0.20190224051475525, 0.1447320282459259, 0.07417325675487518, -0.03229993209242821, 0.10748936980962753, 0.22973257303237915, -0.10490751266479492, -0.20415878295898438, 0.1526912897825241, 0.17554578185081482, -0.05715008080005646, 0.034220658242702484, 0.21065980195999146, 0.16279760003089905, -0.1687992811203003, 0.17881357669830322, -0.19714796543121338, 0.0024304883554577827, 0.21494251489639282, -0.16038471460342407, 0.10969667881727219, -0.1396757811307907, 0.002661406993865967, 0.02468312345445156, 0.09109243005514145, -0.08143901824951172, 0.21388131380081177, -0.009362123906612396, -0.015302523970603943, -0.2540833353996277, 0.19861629605293274], [-0.1345043033361435, 0.01972094178199768, -0.21817442774772644, 0.26024478673934937, -0.03777456283569336, -0.10316357761621475, 0.15052960813045502, -0.2547256648540497, -0.18160685896873474, 0.15441808104515076, 0.21539415419101715, -0.021827736869454384, -0.24924549460411072, 0.15304815769195557, 0.07732120901346207, 0.04991530254483223, -0.04720792919397354, -0.03426365926861763, 0.09005273878574371, -0.145785853266716, 0.17911873757839203, 0.05508141219615936, 0.09545744955539703, -0.05005762353539467, -0.07720544189214706, -0.10878688097000122, 0.21991215646266937, 0.19404613971710205, 0.0663900077342987, 0.12559014558792114, -0.06621095538139343, 0.025623787194490433, -0.03963685780763626, -0.22885408997535706, -0.11004708707332611, -0.08641618490219116, -0.1501311957836151, 0.21030224859714508, 0.16626881062984467, 0.1282324343919754, -0.2582511901855469, -0.11418918520212173, 0.1264442354440689, 0.09896146506071091, 0.07808840274810791, 0.24984915554523468, 0.0831674188375473, -0.02146054245531559, -0.1315036118030548, 0.17070361971855164, -0.0528256930410862, 0.10541978478431702, -0.11923003196716309, -0.2286606878042221, -0.1474015861749649, 0.09060574322938919, 0.05971955880522728, -0.18138845264911652, -0.021090112626552582, -0.16767632961273193, 0.03753932937979698, 0.16279718279838562, 0.17583809792995453, -0.10601337254047394, -0.20108537375926971, -0.1948769986629486, 0.07231949269771576, 0.2358878254890442, 0.14594848453998566, -0.11556049436330795, -0.037794776260852814, 0.10919918119907379, 0.12765160202980042, -0.0023468551225960255, 0.0625823438167572, 0.25252285599708557, -0.12751862406730652, 0.20405708253383636, -0.19171185791492462, -0.03404935449361801, -0.1721155196428299, -0.052184298634529114, 0.10593802481889725, 0.1310146600008011, -0.2543603479862213, -0.1233389675617218, 0.22005528211593628, 0.20616817474365234, -0.16969850659370422, 0.2381013184785843, 0.10889119654893875, 0.103534035384655, -0.2230316698551178, -0.19490814208984375, 0.05600839853286743, -0.23386086523532867, -0.02720545046031475, 0.15754349529743195, -0.22924268245697021, 0.17367111146450043, -0.07048944383859634, -0.21371561288833618, 0.14145228266716003, -0.0006399004487320781, -0.15890319645404816, 0.05153055861592293, 0.19437935948371887, -0.14735040068626404, -0.10620851069688797, -0.1321679800748825, -0.2496906816959381, -0.11302472651004791, 0.12106317281723022, -0.0995979905128479, -0.1978011578321457, -0.004905839916318655, 0.15694881975650787, 0.0674903616309166, 0.03835981711745262, 0.11717121303081512, 0.11975884437561035, -0.14831368625164032, 0.18803313374519348, -0.06671097129583359, 0.19742266833782196, 0.05483252555131912, -0.06418146193027496, 0.25381535291671753], [-0.10226999223232269, -0.1636071503162384, -0.010148387402296066, -0.1381669044494629, 0.1675228476524353, -0.19676759839057922, 0.14703433215618134, -0.12678132951259613, 0.08472473919391632, -0.12462665140628815, -0.1741284728050232, -0.0007816444849595428, 0.17234493792057037, -0.20041398704051971, -0.13113680481910706, 0.10314040631055832, 0.020688124001026154, 0.17097307741641998, -0.061432305723428726, -0.055209819227457047, 0.13237830996513367, -0.09635774046182632, -0.2293323427438736, 0.0023574025835841894, 0.033113278448581696, -0.1548663228750229, -0.07423526793718338, 0.15595820546150208, 0.1945646107196808, 0.12604641914367676, -0.06271035224199295, 0.00279100239276886, -0.10828568041324615, 0.06254415214061737, -0.028001883998513222, 0.07623209804296494, -0.020767690613865852, 0.032918497920036316, 0.04057829827070236, -0.20493538677692413, -0.11585372686386108, 0.13764680922031403, 0.04070993512868881, 0.22765551507472992, -0.13287630677223206, -0.06085237115621567, 0.19577893614768982, -0.13107125461101532, -0.04828428477048874, 0.1727929264307022, -0.10603350400924683, -0.11187906563282013, 0.12908218801021576, -0.15207533538341522, 0.16829261183738708, -0.194779634475708, 0.07924293726682663, 0.03277113288640976, 0.11398324370384216, -0.07933363318443298, 0.1537068486213684, 0.17278410494327545, 0.08886390179395676, -0.04752648249268532, 0.14528897404670715, -0.06298361718654633, 0.1634797304868698, -0.17214764654636383, 0.13664603233337402, -0.07174572348594666, -0.17123639583587646, -0.05021077021956444, -0.08142125606536865, -0.09285694360733032, -0.10406824201345444, -0.1258583515882492, -0.14880387485027313, 0.13731154799461365, 0.07650956511497498, -0.03777286782860756, 0.17547233402729034, 0.09590841829776764, -0.15402550995349884, 0.014036169275641441, -0.16601426899433136, 0.019140081480145454, -0.12244854122400284, 0.03426157310605049, 0.11367560178041458, -0.16604185104370117, 0.2022707611322403, 0.010168278589844704, -0.028911704197525978, -0.1332242488861084, -0.1471455842256546, -0.01633075624704361, 0.05911184102296829, -0.22504888474941254, -0.15055271983146667, -0.14579857885837555, -0.1900932639837265, -0.06567137688398361, -0.21159429848194122, -0.12859663367271423, -0.19788971543312073, -0.12271016091108322, -0.10364863276481628, -0.18469777703285217, 0.08257155865430832, -0.12077071517705917, -0.06725671142339706, 0.09610448777675629, 0.2055749148130417, -0.005849112756550312, -0.09467427432537079, 0.01269240491092205, 0.011546221561729908, 0.20636938512325287, -0.11295946687459946, 0.13439436256885529, -0.0014456836506724358, 0.053186364471912384, -0.04553725942969322, 0.01602175645530224, -0.05408948287367821, -0.2232072353363037, -0.11181287467479706, 0.11441097408533096], [0.07989801466464996, 0.11378351598978043, 0.11493798345327377, 0.033480457961559296, -0.010511442087590694, 0.14189042150974274, 0.06179466098546982, 0.1341114640235901, 0.09012360125780106, 0.018924985080957413, 0.022623330354690552, -0.15650135278701782, 0.09245875477790833, -0.10342530906200409, -0.15754930675029755, 0.12982097268104553, -0.10576453804969788, -0.02342861145734787, 0.07270007580518723, -0.11734852939844131, 0.11574263125658035, 0.051539622247219086, 0.05647382512688637, -0.15566042065620422, 0.0429326631128788, -0.06822198629379272, 0.0688752681016922, -0.05980448052287102, 0.014582594856619835, 0.18643271923065186, 0.1637316793203354, 0.16080589592456818, 0.018654875457286835, -0.04835784062743187, -0.10296999663114548, 0.07320744544267654, -0.18708251416683197, -0.1502866894006729, 0.12418598681688309, 0.08694206923246384, 0.1362253725528717, 0.032498255372047424, 0.1443481296300888, 0.14033299684524536, -0.023828910663723946, 0.00547897769138217, 0.15366123616695404, 0.10250668972730637, 0.17178916931152344, -0.05294812470674515, 0.006408309563994408, 0.16922049224376678, 0.04398311302065849, 0.1764405220746994, 0.1311298906803131, -0.0021276979241520166, -0.05173037201166153, -0.13218414783477783, 0.00508949626237154, 0.04531373456120491, -0.047681111842393875, -0.1013471707701683, 0.1497391313314438, -0.04524734616279602, 0.2057141661643982, -0.18811173737049103, 0.1984318494796753, -0.03788703307509422, 0.14314471185207367, -0.05913590267300606, -0.11585672199726105, 0.032861120998859406, 0.017564134672284126, -0.08878142386674881, -0.045913517475128174, 0.08804172277450562, 0.025007830932736397, 0.10425382852554321, 0.08239039778709412, 0.17998744547367096, -0.15153488516807556, -0.16343574225902557, -0.05102655664086342, 0.17059452831745148, 0.14717286825180054, -0.13656730949878693, 0.1291539967060089, -0.09735845029354095, 0.14640530943870544, 0.0039703333750367165, 0.07220271974802017, 0.055744871497154236, -0.1951909214258194, 0.026843616738915443, -0.10998740792274475, 0.22533173859119415, -0.19708533585071564, -0.1117638498544693, -0.024060968309640884, -0.17684288322925568, -0.15300412476062775, 0.0897892490029335, -0.03163785859942436, -0.05226040259003639, -0.07561442255973816, 0.014499356970191002, -0.06445594131946564, 0.1651041954755783, -0.09169745445251465, -0.11357715725898743, 0.19437409937381744, -0.0739816427230835, 0.16392190754413605, -0.07711135596036911, 0.10699941962957382, -0.12495893985033035, -0.18737372756004333, -0.1119827851653099, 0.06439162790775299, 0.060545604676008224, -0.2075277715921402, -0.17461855709552765, -0.11789491027593613, 0.24514387547969818, 0.05537531152367592, 0.06393541395664215, 0.13556620478630066, -0.09712030738592148], [-0.025318702682852745, -0.03433077782392502, -0.14045849442481995, 0.09890924394130707, 0.11601150035858154, 0.030683690682053566, -0.2575860321521759, -0.14332611858844757, 0.11229957640171051, -0.07906404137611389, 0.2145443558692932, 0.1802292764186859, 0.06347063928842545, -0.14889171719551086, 0.1354343444108963, 0.253548800945282, -0.05169020965695381, -0.16477686166763306, 0.03761529177427292, 0.2207629531621933, -0.13804803788661957, -0.10763395577669144, 0.17987757921218872, 0.22042948007583618, 0.07930442690849304, 0.10965215414762497, -0.1316279172897339, 0.16689641773700714, 0.10057978332042694, -0.18374715745449066, 0.006357579492032528, -0.2034551352262497, -0.274117112159729, -0.12906722724437714, -0.051299698650836945, -0.17463040351867676, -0.15783840417861938, 0.014520566910505295, -0.26379629969596863, 0.03976355865597725, -0.024236837401986122, -0.16977694630622864, 0.012142566032707691, 0.07053801417350769, 0.07325417548418045, -0.1751936823129654, -0.0964316800236702, 0.1331014633178711, -0.010744906030595303, -0.10590142011642456, 0.20366810262203217, -0.03778187185525894, 0.21114319562911987, -0.18460342288017273, -0.13763341307640076, 0.16604049503803253, 0.1506039798259735, 0.1545783430337906, -0.15379488468170166, -0.05317756161093712, -0.1323300153017044, 0.19161683320999146, 0.13245649635791779, 0.11141062527894974, 0.016376489773392677, -0.0636809915304184, -0.03347451612353325, 0.10853240638971329, -0.18072053790092468, -0.008820418268442154, -0.038579486310482025, -0.18609288334846497, 0.03216670826077461, 0.18090030550956726, 0.09503200650215149, -0.12515340745449066, 0.11654086410999298, -0.19603769481182098, -0.06263091415166855, 0.21951249241828918, -0.11785552650690079, -0.18409967422485352, 0.08187074959278107, -0.11030485481023788, -0.20550930500030518, 0.20446841418743134, -0.04039943218231201, -0.05811157450079918, -0.006316999439150095, 0.029940318316221237, 0.07471603900194168, -0.09147634357213974, 0.11789188534021378, -0.08928492665290833, 0.2453666776418686, -0.09411624073982239, 0.20287637412548065, -0.15918922424316406, 0.05690016970038414, -0.10610464960336685, 0.15087305009365082, 0.16576296091079712, -0.09900868684053421, -0.2245800644159317, 0.1576378047466278, 0.19335156679153442, 0.1669807881116867, -0.15305599570274353, 0.021467672660946846, 0.17158935964107513, 0.15437136590480804, 0.09298329800367355, -0.1288442313671112, 0.11119025200605392, 0.24225017428398132, 0.04337548092007637, -0.048025235533714294, 0.18866871297359467, 0.02297048084437847, 0.1497562974691391, -0.2020677626132965, -0.136247918009758, -0.03936309739947319, 0.2132832109928131, 0.13998904824256897, 0.06059003621339798, -0.12470535933971405, -0.15253981947898865], [-0.1493474841117859, -0.1843915432691574, -0.1523463875055313, 0.06352900713682175, 0.2589859068393707, 0.14470383524894714, -0.13745197653770447, 0.03694261237978935, 0.19630734622478485, 0.023088183254003525, 0.012022027745842934, 0.06846147030591965, -0.12866941094398499, 0.08250110596418381, 0.04454711452126503, 0.12892167270183563, 0.056595996022224426, -0.18229557573795319, -0.2097567319869995, 0.07284420728683472, 0.12633690237998962, -0.15375471115112305, 0.09140891581773758, -0.07860969752073288, -0.07515794038772583, 0.03571092337369919, 0.00019529525889083743, -0.2220885455608368, 0.032881271094083786, 0.04677414894104004, -0.1380765587091446, 0.030866404995322227, 0.0691731795668602, 0.09147726744413376, 0.10982794314622879, -0.008545181713998318, 0.13675038516521454, 0.07732833921909332, 0.09773468971252441, 0.11982841789722443, 0.20666749775409698, -0.026588506996631622, 0.09929411113262177, -0.0068207490257918835, -0.049590207636356354, -0.15071353316307068, 0.1857544332742691, -0.17347070574760437, 0.14054901897907257, -0.15889741480350494, -0.14712285995483398, -0.20941363275051117, -0.04285217449069023, 0.21233868598937988, -0.16545146703720093, -0.10561016201972961, -0.16341957449913025, 0.1358400583267212, 0.23183298110961914, -0.21521279215812683, 0.03729710355401039, -0.10113231092691422, 0.1263192594051361, 0.08250392228364944, 0.018246304243803024, 0.06231063976883888, -0.056319709867239, -0.1271454244852066, -0.07826246321201324, 0.19953815639019012, 0.04288453236222267, 0.09540098905563354, 0.13036194443702698, -0.04250003769993782, 0.10033760219812393, -0.08546535670757294, 0.0400066003203392, 0.14052939414978027, 0.019691333174705505, -0.2046428918838501, 0.010642731562256813, -0.1430937647819519, 0.04097394645214081, -0.11030862480401993, 0.17572540044784546, -0.22678342461585999, 0.08999921381473541, -0.056165989488363266, -0.035306986421346664, -0.1254112422466278, -0.09242632240056992, 0.1579182744026184, -0.13708050549030304, 0.05062523111701012, 0.04459351301193237, 0.1159045621752739, -0.01767697185277939, 0.11958111077547073, 0.1488451212644577, 0.019214240834116936, 0.18429745733737946, -0.14777839183807373, 0.15670643746852875, -0.1875392645597458, -0.13870924711227417, -0.09352349489927292, 0.21303601562976837, -0.13314826786518097, 0.06099773943424225, -0.19667363166809082, -0.032845307141542435, 0.03246375173330307, -0.07007823139429092, 0.19932805001735687, 0.05491629242897034, 0.24381902813911438, -0.04408883675932884, 0.12367614358663559, 0.1622760146856308, 0.01183635089546442, 0.028771188110113144, -0.20591220259666443, -0.2514105439186096, -0.0484732948243618, -0.04085824638605118, 0.18283692002296448, -0.2074941098690033, -0.10945547372102737], [0.13455018401145935, -0.04199707880616188, -0.06925736367702484, 0.0037267557345330715, -0.10798780620098114, 0.036184776574373245, 0.06489618867635727, 0.041429050266742706, -0.038543615490198135, -0.08759282529354095, -0.1250763237476349, -0.018409889191389084, -0.1896597146987915, -0.06846705079078674, -0.169975146651268, -0.09988782554864883, -0.01881527528166771, 0.09201672673225403, 0.021486109122633934, -0.12973879277706146, -0.10971773415803909, 0.12970249354839325, -0.20612728595733643, -0.08402905613183975, 0.09801538288593292, -0.14415903389453888, -0.149465873837471, 0.23257151246070862, -0.036343663930892944, -0.08367663621902466, -0.14754042029380798, -0.05578659102320671, 0.008919291198253632, 0.20586316287517548, -0.10332948714494705, -0.0786561518907547, -0.02903711050748825, 0.22164669632911682, 0.02154586836695671, 0.1788949817419052, 0.09589842706918716, -0.017321497201919556, -0.09691354632377625, 0.061421189457178116, -0.06729715317487717, -0.10293447226285934, 0.10228829830884933, -0.17144623398780823, 0.16989929974079132, -0.004344036802649498, -0.05977262184023857, 0.1670224964618683, -0.03040780872106552, -0.0036304346285760403, -0.2348979264497757, 0.1541217416524887, 0.09161191433668137, -0.08551150560379028, -0.015591866336762905, -0.26293957233428955, 0.03479219228029251, 0.034530434757471085, -0.15296772122383118, -0.05078994482755661, -0.13718438148498535, 0.18679966032505035, 0.09829844534397125, -0.1447599083185196, 0.06593148410320282, -0.047588713467121124, -0.202082097530365, 0.1119999960064888, -0.04220050200819969, 0.07220180332660675, -0.16866792738437653, 0.2325928807258606, 0.18989254534244537, 0.011725085787475109, -0.24649064242839813, -0.21727986633777618, -0.23413096368312836, -0.0029444294050335884, -0.24212707579135895, -0.018574638292193413, -0.007852558977901936, -0.16241225600242615, 0.13081569969654083, -0.14877496659755707, -0.03474355489015579, -0.16729876399040222, -0.031618632376194, 0.20222517848014832, -0.12078811973333359, -0.0007648205501027405, 0.12343692034482956, -0.08846969902515411, -0.22313471138477325, 0.1468052715063095, 0.027156252413988113, -0.14328385889530182, 0.04027475789189339, -0.24045875668525696, 0.20115308463573456, 0.040724512189626694, 0.08871269226074219, -0.06117149069905281, -0.12142027914524078, -0.007521505933254957, -0.11556227505207062, -0.1628725230693817, 0.020011838525533676, 0.17165112495422363, -0.18978287279605865, 0.07683324813842773, -0.05606745183467865, -0.06982902437448502, 0.10911349952220917, 0.15563595294952393, 0.016225384548306465, 0.01487782783806324, -0.14550380408763885, -0.03826749324798584, -0.0387868657708168, 0.018187042325735092, -0.17109371721744537, -0.09786086529493332, -0.17368467152118683, -0.07850218564271927], [-0.19803974032402039, 0.09429438412189484, -0.20561060309410095, -0.010454540140926838, -0.17116378247737885, -0.24301522970199585, -0.11106844246387482, -0.02872452884912491, -0.11433819681406021, -0.1770966798067093, 0.10117664933204651, 0.13905403017997742, 0.0020002913661301136, 0.13736002147197723, 0.039152588695287704, 0.16034048795700073, -0.1442236453294754, 0.017581501975655556, -0.12927699089050293, -0.08542154729366302, 0.0640985369682312, -0.10100550204515457, 0.10536487400531769, -0.05805831030011177, -0.06723637133836746, -0.04433055594563484, 0.1794225126504898, -0.09978301078081131, -0.0990397110581398, -0.07924894243478775, -0.09628867357969284, 0.016629572957754135, -0.12252109497785568, -0.05379409343004227, 0.1465694159269333, -0.029109084978699684, -0.14630262553691864, 0.07470819354057312, 0.08326470851898193, -0.03863070160150528, -0.10970182716846466, -0.03920258954167366, 0.038481585681438446, -0.001340505899861455, -0.15372803807258606, 0.1512908935546875, -0.06606834381818771, 0.08535068482160568, 0.03284640610218048, 0.10263602435588837, -0.07746530324220657, -0.00897650234401226, 0.1684603989124298, 0.0017505378928035498, -0.09043809026479721, -0.137180894613266, -0.17524629831314087, 0.15916097164154053, 0.1028619185090065, -0.11794568598270416, 0.14404825866222382, 0.07002560049295425, -0.01249981764703989, 0.08774735778570175, -0.062232621014118195, -0.1337684988975525, -0.03305206820368767, -0.05439169704914093, 0.019689055159687996, 0.036161936819553375, 0.07341061532497406, -0.07308728992938995, 0.16475442051887512, 0.14406718313694, -0.1010364219546318, -0.017356939613819122, -0.12722226977348328, 0.035247307270765305, -0.17926263809204102, -0.2348710298538208, -0.053684916347265244, -0.12427136301994324, 0.15170255303382874, -0.09012402594089508, -0.16338036954402924, -0.06030098721385002, -0.08949653059244156, -0.14915738999843597, -0.25469210743904114, -0.17851434648036957, 0.16157729923725128, -0.16803999245166779, -0.10470303893089294, 0.08514592051506042, 0.13186372816562653, 0.09523507952690125, 0.12080933898687363, 0.10035908222198486, -0.0036216566804796457, -0.06508924067020416, 0.035018403083086014, 0.013722906820476055, -0.06972109526395798, 0.10430893301963806, 0.2016635686159134, -0.05170049890875816, -0.06748951971530914, -0.001005392405204475, -0.15964636206626892, -0.037374209612607956, 0.17746520042419434, 0.1258484572172165, -0.17789016664028168, 0.1828700751066208, -0.20414108037948608, -0.10054516047239304, 0.043848007917404175, -0.0860384851694107, -0.051481250673532486, -0.008853031322360039, -0.1848924458026886, -0.208780437707901, 0.04352030158042908, 0.10057170689105988, 0.10409999638795853, -0.22202764451503754, 0.18407079577445984, 0.11240163445472717], [0.09508243948221207, -0.13004252314567566, -0.0863715335726738, 0.1802479326725006, -0.12361004203557968, -0.10539467632770538, -0.04987814649939537, -0.1662934124469757, -0.1629427820444107, -0.20104146003723145, -0.11598459631204605, 0.15913784503936768, -0.10476256906986237, 0.14808455109596252, -0.15726511180400848, 0.06492777913808823, 0.05386790633201599, 0.1653994619846344, -0.15076227486133575, 0.008904630318284035, 0.10639099776744843, 0.22730004787445068, 0.1752227246761322, 0.13239991664886475, 0.176519513130188, -0.1894134134054184, -0.10586448758840561, 0.15456095337867737, 0.020714670419692993, -0.004920071456581354, 0.010528717190027237, -0.005036927293986082, -0.07736678421497345, 0.16640715301036835, -0.22291824221611023, 0.041370611637830734, 0.03172829747200012, -0.08574935048818588, -0.1104326993227005, -0.10700241476297379, -0.14291106164455414, -0.15158890187740326, 0.14457888901233673, -0.10214600712060928, 0.032033536583185196, -0.06999538838863373, 0.1713394969701767, 0.2020973116159439, 0.09978889673948288, -0.23812158405780792, 0.03147505968809128, -0.1446409672498703, 0.05940395966172218, -0.16281791031360626, -0.01714962348341942, 0.11509791761636734, 0.13748638331890106, -0.15812192857265472, 0.140651673078537, 0.12841914594173431, 0.25043073296546936, 0.1419408917427063, -0.011702225543558598, 0.14769361913204193, -0.13096879422664642, 0.0055504655465483665, 0.05916605144739151, 0.04493846744298935, 0.09408099949359894, 0.06341518461704254, 0.18846675753593445, -0.09824545681476593, -0.22502076625823975, -0.1081741452217102, 0.09210292249917984, -0.0813080295920372, -0.05469685420393944, -0.0555742122232914, 0.15180806815624237, 0.14206254482269287, 0.10185371339321136, -0.26070883870124817, -0.16066627204418182, -0.12023912370204926, -0.11555735766887665, 0.1302689164876938, 0.10998666286468506, 0.11124169081449509, 0.12175901979207993, 0.171401709318161, -0.10934775322675705, -0.16956089437007904, -0.009203490801155567, -0.14008259773254395, -0.06225128844380379, -0.06369129568338394, -0.07719935476779938, -0.07046489417552948, -0.18753410875797272, 0.13334746658802032, -0.13505372405052185, 0.1709631383419037, 0.11362990736961365, -0.14045938849449158, 0.08865084499120712, 0.16679352521896362, -0.14146293699741364, -0.13879044353961945, -0.0022150110453367233, -0.21039538085460663, -0.14354769885540009, -0.1893215775489807, -0.10628250986337662, 0.1584739238023758, 0.1090250238776207, 0.2437623292207718, 0.2487056702375412, 0.013438206166028976, 0.14584362506866455, 0.01764417253434658, 0.1465481072664261, 0.13324062526226044, 0.11205023527145386, -0.015616380609571934, 0.12153994292020798, -0.14581255614757538, -0.08952435851097107, 0.12482330948114395], [0.16622430086135864, -0.030014585703611374, 0.14480945467948914, 0.09676291048526764, -0.006954750046133995, 0.10687050968408585, -0.013848750852048397, -0.14711157977581024, 0.17305532097816467, -0.20096324384212494, -0.12498567998409271, -0.008792011067271233, 0.05689605697989464, 0.001660643145442009, -0.08453916758298874, -0.0023763494100421667, 0.16985535621643066, 0.11095098406076431, 0.09709716588258743, -0.1220269650220871, -0.19649384915828705, 0.17780941724777222, 0.19113942980766296, 0.2307145893573761, -0.22875897586345673, -0.1871224194765091, 0.16220685839653015, -0.16350768506526947, 0.16077958047389984, -0.0946400910615921, 0.22539196908473969, -0.1703464388847351, -0.16288165748119354, -0.08544186502695084, -0.2508709728717804, -0.2443220168352127, 0.1096026822924614, -0.007382655516266823, -0.06201201677322388, 0.14848743379116058, -0.05657675489783287, 0.13847334682941437, 0.18650782108306885, -0.07299293577671051, -0.011285234242677689, -0.02212424948811531, 0.014084876514971256, 0.10947965085506439, 0.0855351909995079, -0.15224547684192657, 0.057777076959609985, 0.2633492350578308, -0.22987420856952667, 0.13389572501182556, 0.14433637261390686, -0.0907207801938057, -0.06654570996761322, 0.07574180513620377, 0.10573698580265045, -0.09659402817487717, -0.008994274772703648, -0.042112547904253006, 0.057177960872650146, -0.15973161160945892, -0.12190715223550797, 0.19416937232017517, 0.0421672984957695, 0.02430707961320877, 0.06061196327209473, 0.02774811163544655, -0.09817507117986679, -0.07692603021860123, 0.24674281477928162, 0.010663840919733047, 0.0673990398645401, -0.014924611896276474, 0.09443739056587219, -0.23506861925125122, -0.20092089474201202, 0.04795494303107262, 0.030725279822945595, -0.02351987361907959, -0.09387629479169846, 0.0977388322353363, -0.08545860648155212, 0.20574557781219482, -0.23119674623012543, 0.18858574330806732, 0.08079452067613602, 0.11104864627122879, -0.005876907613128424, -0.22563916444778442, 0.1743796467781067, -0.011495647020637989, 0.06492474675178528, -0.0446043461561203, -0.007818149402737617, 0.13003095984458923, -0.17971695959568024, -0.08536101132631302, 0.1081518903374672, -0.20956237614154816, 0.1583988517522812, -0.048772335052490234, -0.10243446379899979, 0.15539534389972687, 0.19594687223434448, -0.10481257736682892, 0.0378599651157856, 0.13523878157138824, -0.16925407946109772, -0.2630622684955597, -0.14680452644824982, -0.09562550485134125, 0.013327289372682571, -0.21552729606628418, 0.24040333926677704, 0.12066006660461426, 0.12439612299203873, -0.17427965998649597, -0.05410602688789368, -0.10759108513593674, 0.14088943600654602, 0.10634279251098633, -0.08192422986030579, -0.1995144486427307, 0.013167965225875378, 0.2242233157157898], [0.09077636897563934, -0.17585556209087372, -0.02777319960296154, 0.048213619738817215, 0.1881876289844513, -0.1585542857646942, -0.05659642815589905, -0.003475127974525094, -0.1613677591085434, -0.08818470686674118, -0.05985383316874504, -0.0509224496781826, 0.15409447252750397, 0.11654243618249893, -0.254690021276474, -0.17410078644752502, 0.2355942577123642, -0.1252383291721344, 0.1511666476726532, 0.12773652374744415, -0.17018228769302368, 0.1920560747385025, 0.12347660213708878, -0.027036041021347046, -0.07722903043031693, 0.08679705113172531, 0.060554295778274536, -0.026677586138248444, -0.25412094593048096, 0.10122638940811157, -0.1542610228061676, 0.05389181524515152, -0.1697159707546234, 0.19526870548725128, -0.14811159670352936, -0.07110421359539032, -0.12914156913757324, 0.02803078480064869, -0.18882371485233307, -0.0003130285767838359, 0.03547228127717972, 0.1694098562002182, -0.0417347252368927, -0.08841513097286224, 0.01602223888039589, -0.12900497019290924, -0.09412755817174911, -0.09466064721345901, 0.18889489769935608, -0.1291101723909378, 0.14622586965560913, 0.06020454317331314, 0.0132451755926013, 0.06129569187760353, 0.19427986443042755, 0.09363271296024323, -0.011227653361856937, 0.1581951230764389, 0.02571265399456024, 0.1032700389623642, 0.08977072685956955, 0.16517291963100433, -0.17526856064796448, -0.04781202971935272, 0.21369950473308563, -0.1449202299118042, 0.20534923672676086, 0.06999380886554718, -0.1630716323852539, -0.13658826053142548, 0.05071171000599861, -0.19656890630722046, -0.0902038961648941, -0.21555939316749573, -0.1719289869070053, 0.10078731924295425, 0.04038483649492264, -0.08704966306686401, 0.1469431221485138, 0.08495377749204636, -0.11012885719537735, -0.16014555096626282, -0.19160878658294678, 0.08760550618171692, 0.15284514427185059, 0.07393600791692734, -0.26865795254707336, -0.1591167002916336, -0.1430877447128296, -0.04257951304316521, -0.2504107654094696, -0.2652635872364044, -0.06511873006820679, 0.07675842940807343, 0.10562149435281754, 0.14216037094593048, 0.0016483302460983396, -0.03388841822743416, 0.027676274999976158, -0.12234528362751007, 0.17989541590213776, -0.023569155484437943, -0.05090373754501343, -0.20851925015449524, -0.008104804903268814, 0.14161038398742676, -0.01686551421880722, -0.010708913207054138, -0.026142586022615433, 0.004937090445309877, -0.1019626334309578, 0.006473530549556017, -0.06408727169036865, -0.15606831014156342, -0.07596760988235474, -0.15977342426776886, -0.09358084201812744, -0.035985760390758514, 0.06690643727779388, -0.02875157818198204, -0.009256369434297085, -0.16601157188415527, 0.04984353110194206, 0.1881159394979477, -0.13939106464385986, 0.14800500869750977, 0.024827154353260994, 0.21581703424453735], [0.012614652514457703, 0.11352863162755966, 0.14363856613636017, 0.039654601365327835, 0.03804444521665573, -0.013740168884396553, 0.09160520881414413, -0.06413979828357697, -0.0025623186957091093, 0.13327641785144806, 0.18862996995449066, 0.17191098630428314, 0.02712439000606537, 0.02296316809952259, -0.00347379338927567, -0.20257967710494995, -0.13787271082401276, -0.07008626312017441, 0.1110777035355568, 0.12506099045276642, 0.016321133822202682, -0.24318236112594604, 0.2016472965478897, -0.07645310461521149, -0.096738301217556, -0.1439354419708252, -0.08618910610675812, -0.15562158823013306, -0.09145354479551315, -0.2617422938346863, 0.12387559562921524, -0.03532780334353447, -0.01549405138939619, -0.0008358538616448641, -0.09382838010787964, 0.060390617698431015, 0.01613898016512394, -0.1311745047569275, -0.20507249236106873, -0.07201740890741348, -0.1847452074289322, -0.1309105008840561, -0.1500307023525238, 0.15324895083904266, -0.23678065836429596, 0.0881490707397461, -0.08654520660638809, -0.17036211490631104, 0.08310314267873764, 0.12745898962020874, -0.14996053278446198, 0.06756261736154556, 0.15278367698192596, 0.04732757806777954, -0.22835421562194824, -0.012995668686926365, 0.1863996386528015, 0.07734228670597076, 0.11404076218605042, -0.022045128047466278, -0.10583323985338211, -0.11141221970319748, 0.08365918695926666, -0.20032300055027008, -0.14626997709274292, -0.16202807426452637, -0.26495638489723206, 0.0781003013253212, -0.11119557172060013, 0.029547087848186493, -0.2204749435186386, -0.010109489783644676, 0.16431552171707153, 0.0023422224912792444, 0.18667370080947876, -0.11478389799594879, 0.1637655794620514, 0.047969020903110504, -0.13338899612426758, 0.11515695601701736, 0.00039819616358727217, 0.10554672032594681, -0.01672433875501156, 0.06425406783819199, -0.20739665627479553, 0.007275658659636974, -0.11894313991069794, -0.08935920894145966, 0.16706635057926178, 0.1370098888874054, -0.1324729025363922, -0.13899561762809753, 0.16687245666980743, 0.10485520213842392, 0.05603666231036186, -0.20870544016361237, 0.0557539127767086, -0.12085320055484772, -0.19886194169521332, 0.1775430142879486, 0.01903909258544445, 0.20564769208431244, 0.01646256074309349, 0.003534081857651472, -0.22525344789028168, 0.05805814266204834, 0.010233743116259575, -0.08120463788509369, 0.1616988629102707, -0.19820666313171387, 0.167682483792305, -0.16880637407302856, -0.22523674368858337, -0.0694180279970169, 0.1763278990983963, 0.0894097313284874, 0.018949855118989944, 0.20068766176700592, 0.08597957342863083, -0.14049121737480164, -0.028572117909789085, -0.22003750503063202, 0.15666384994983673, 0.1503714919090271, 0.018030976876616478, -0.13050547242164612, 0.03953666239976883, -0.00381849124096334], [0.05842842161655426, -0.10713551938533783, 0.04384532570838928, 0.06660716235637665, 0.002598814433440566, 0.08042395114898682, -0.15487226843833923, 0.08856532722711563, 0.08911055326461792, -0.02628358267247677, -0.12246439605951309, 0.2680951654911041, 0.0967664122581482, -0.09095429629087448, -0.04451726749539375, 0.10013270378112793, -0.030159031972289085, -0.231866255402565, 0.14844593405723572, -0.07011892646551132, 0.062465839087963104, -0.015351041220128536, 0.177861750125885, -0.06425411999225616, -0.10672282427549362, 0.17267192900180817, 0.21418525278568268, -0.012964283116161823, -0.02716565504670143, 0.14567847549915314, -0.041583284735679626, 0.12290697544813156, -0.03846002370119095, 0.052833713591098785, 0.17512103915214539, -0.03326767310500145, 0.06122990697622299, 0.23935838043689728, -0.00092652952298522, 0.25335127115249634, -0.16617508232593536, 0.017649294808506966, 0.06212098151445389, 0.07340012490749359, 0.10169248282909393, -0.09959860146045685, -0.041300028562545776, 0.1994207799434662, -0.2168474644422531, 0.05189019441604614, 0.2591480314731598, -0.05411020666360855, -0.05800394341349602, -0.15442539751529694, -0.019491473212838173, -0.02253170683979988, 0.04318247735500336, -0.17547950148582458, -0.09196514636278152, 0.16927623748779297, 0.000689883716404438, 0.23566028475761414, 0.14044442772865295, 0.13903166353702545, 0.08903129398822784, -0.13880404829978943, -0.026192307472229004, -0.01345191989094019, -0.0346391424536705, 0.09461947530508041, 0.028029106557369232, 0.07661806792020798, 0.0831322968006134, 0.20623527467250824, 0.06392214447259903, -0.16203683614730835, 0.042732711881399155, 0.04090467467904091, 0.16253027319908142, 0.0298919677734375, 0.15108110010623932, 0.15856437385082245, 0.12044497579336166, -0.12383545935153961, -0.04541890323162079, 0.1295582801103592, 0.024745753034949303, 0.26996082067489624, -0.19631285965442657, 0.06983989477157593, 0.0034956075251102448, 0.16136476397514343, -0.16449278593063354, 0.10602646321058273, -0.25401753187179565, -0.08036785572767258, -0.04353320598602295, -0.0843731015920639, -0.19810698926448822, -0.2037738412618637, 0.2254147231578827, 0.07823523133993149, -0.2315213829278946, 0.07256127893924713, -0.22191596031188965, 0.003886030986905098, 0.16338731348514557, 0.07070104777812958, 0.046496208757162094, -0.025667577981948853, -0.1256362646818161, 0.10941878706216812, -0.16917693614959717, 0.12110652029514313, -0.1709526777267456, 0.0707002803683281, 0.009910175576806068, 0.057213373482227325, 0.05528537184000015, 0.05091653764247894, -0.14189928770065308, 0.1382141411304474, 0.039190344512462616, 0.11042375862598419, 0.17738868296146393, -0.19352811574935913, -0.11410883069038391, -0.1175338625907898], [-0.1486886441707611, 0.08133396506309509, 0.09976932406425476, 0.14808037877082825, -0.06142491474747658, 0.03891133889555931, -0.17054274678230286, -0.2154737263917923, 0.0376584455370903, -0.1983201652765274, 0.1126893162727356, -0.07631790637969971, 0.1499384492635727, -0.006171148270368576, -0.059157490730285645, 0.13914820551872253, -0.17492730915546417, -0.0179196298122406, -0.1667889654636383, -0.09726210683584213, -0.16776378452777863, 0.23150242865085602, -0.1783677637577057, 0.12159667164087296, 0.09424113482236862, 0.11847931891679764, -0.16167980432510376, 0.1472737044095993, -0.18788522481918335, 0.09155240654945374, -0.05885309725999832, 0.031205954030156136, -0.11886367946863174, -0.06889456510543823, -0.1785464733839035, 0.07887374609708786, 0.008552415296435356, -0.06879589706659317, -0.2058272808790207, 0.08905299007892609, 0.09444271773099899, 0.0908098965883255, 0.25934889912605286, -0.04248157516121864, 0.028551248833537102, -0.10333730280399323, 0.01806493289768696, -0.15338899195194244, -0.1332109123468399, 0.07532293349504471, -0.10037387907505035, -0.07312163710594177, 0.24777819216251373, -0.11502227187156677, -0.12174975872039795, 0.14370281994342804, 0.03820767253637314, -0.21117444336414337, -0.055888377130031586, -0.01696479506790638, -9.702245006337762e-05, 0.20518960058689117, -0.07216082513332367, 0.20735418796539307, -0.016813822090625763, 0.10721530765295029, 0.01183346938341856, 0.14373722672462463, -0.17443501949310303, 0.1551886647939682, 0.04908159002661705, -0.1867191642522812, -0.23099924623966217, -0.22939521074295044, 0.11130347102880478, 0.14071691036224365, -0.19353926181793213, -0.022229282185435295, -0.009716589003801346, 0.1991279274225235, 0.1868668496608734, -0.21676035225391388, 0.24247543513774872, -0.00895156990736723, 0.15955251455307007, -0.19256380200386047, -0.0987875834107399, -0.1396748125553131, -0.21703359484672546, 0.09692670404911041, -0.18232160806655884, 0.10943463444709778, 0.10822882503271103, 0.07395453751087189, -0.11558963358402252, -0.0809125006198883, -0.022377602756023407, 0.24196955561637878, -0.030925903469324112, 0.18959151208400726, 0.0454321913421154, 0.10873595625162125, -0.08113746345043182, -0.05769297853112221, 0.03733256086707115, 0.2240644246339798, -0.1805107593536377, -0.0665721669793129, -0.12200749665498734, -0.10613097995519638, -0.07060346752405167, 0.016374856233596802, 0.18363673985004425, -0.1449006050825119, -0.08057323098182678, 0.15670061111450195, -0.17426909506320953, -0.17612484097480774, -0.01386278122663498, 0.16628344357013702, -0.006435081362724304, 0.11618681997060776, -0.12692345678806305, -0.018978888168931007, -0.1707666963338852, -0.21878789365291595, 0.029879411682486534, -0.11009170114994049], [0.175131693482399, -0.19159385561943054, 0.06819043308496475, -0.08489500731229782, -0.09142333269119263, 0.2428438663482666, 0.02926766313612461, 0.003177005797624588, -0.12271153181791306, 0.08888820558786392, 0.1182507798075676, -0.1186894103884697, 0.19517052173614502, -0.1871221363544464, -0.032623291015625, 0.2161959409713745, -0.172232985496521, 0.1735711693763733, -0.10190767049789429, -0.05666431412100792, -0.12377415597438812, -0.07091839611530304, 0.23598772287368774, -0.05854762718081474, -0.17736096680164337, 0.032313115894794464, 0.08594082295894623, -0.10806290805339813, 0.04891713336110115, -0.006483456585556269, -0.21520587801933289, -0.05719057843089104, -0.179563969373703, -0.0010389420203864574, -0.1531551480293274, 0.20594146847724915, -0.14480768144130707, 0.01607060804963112, 0.00402063550427556, 0.20406721532344818, 0.15043416619300842, 0.07545625418424606, -0.0025629312731325626, 0.02931290864944458, -0.12392634153366089, -0.12448219209909439, 0.1527196317911148, -0.01543323416262865, -0.11036456376314163, 0.09137174487113953, 0.1711970567703247, -0.04203800857067108, 0.01620113104581833, 0.1272258758544922, -0.15050198137760162, -0.0386633463203907, -0.2394542396068573, -0.03420457988977432, 0.18533813953399658, 0.13782937824726105, -0.011265099979937077, 0.03782505542039871, 0.0949094370007515, 0.14102011919021606, 0.05073656141757965, 0.09059523046016693, -0.12761236727237701, 0.06565436720848083, -0.2365831434726715, 0.1850152611732483, -0.1385713368654251, 0.19223394989967346, 0.13434931635856628, 0.06249050050973892, -0.07287649065256119, -0.21360161900520325, -0.12115120142698288, -0.10821232199668884, 0.07743633538484573, -0.002370702102780342, 0.1915586143732071, -0.015313733369112015, -0.08073706924915314, 0.22740764915943146, 0.0338217094540596, -0.041524313390254974, -0.18780194222927094, -0.0020520498510450125, -0.1435292512178421, 0.12474491447210312, 0.04753345996141434, -0.1505599468946457, 0.20698364078998566, 0.04344412311911583, -0.005331037566065788, -0.07694760710000992, -0.04373248666524887, 0.010986166074872017, -0.05164438113570213, 0.22320117056369781, -0.03578530251979828, 0.17255081236362457, 0.06994718313217163, -0.14912626147270203, 0.24815452098846436, -0.20666472613811493, 0.19748954474925995, 0.14332906901836395, 0.17636607587337494, -0.18643029034137726, -0.0371570810675621, -0.15517069399356842, 0.21757467091083527, -0.062058769166469574, 0.053364347666502, 0.1270531564950943, 0.07418964803218842, -0.2421652227640152, -0.08307178318500519, -0.1723262220621109, 0.11894669383764267, 0.15600332617759705, -0.1734214723110199, 0.14378778636455536, 0.15385828912258148, -0.12191497534513474, 0.12206289172172546, 0.03528060391545296], [-0.18017148971557617, -0.10486429184675217, 0.16687534749507904, 0.06251412630081177, 0.02665654942393303, -0.0996825098991394, -0.23280030488967896, 0.06875656545162201, -0.1619197130203247, 0.15014176070690155, -0.050880469381809235, -0.025234490633010864, 0.09656526893377304, 0.08656573295593262, -0.22362248599529266, 0.15607459843158722, -0.11876066774129868, 0.25076693296432495, -0.04819647967815399, 0.1450120508670807, 0.05366413667798042, -0.07242129743099213, -0.14440856873989105, -0.07690367847681046, -0.061830371618270874, -0.11217979341745377, 0.0121611338108778, 0.1429157853126526, -0.09090673923492432, 0.13333848118782043, 0.0678192526102066, -0.10135351121425629, -0.07445823401212692, -0.13283731043338776, 0.1325203776359558, 0.08831540495157242, -0.04292714223265648, -0.13526701927185059, -0.09247798472642899, 0.15478433668613434, 0.21229346096515656, 0.1845272332429886, -0.01456201821565628, 0.04240502789616585, -0.1327454298734665, -0.1324233114719391, 0.13167984783649445, -0.10049531608819962, -0.16293120384216309, -0.16268755495548248, -0.1559564471244812, 0.06265787780284882, 0.2456779181957245, -0.1931196004152298, 0.015290017239749432, 0.12271725386381149, -0.17159569263458252, 0.04000154137611389, 0.04434246942400932, -0.015672320500016212, -0.1314157396554947, 0.04791977256536484, 0.0489189550280571, -0.06775756925344467, 0.03699250891804695, 0.20715223252773285, 0.055325690656900406, -0.004870806820690632, -0.11719626933336258, 0.11001068353652954, 0.18015055358409882, 0.13115710020065308, -0.18399888277053833, -0.08050304651260376, 0.1590893566608429, 0.12840820848941803, 0.02994665503501892, -0.041855692863464355, -0.12094295769929886, -0.11545542627573013, 0.1602311134338379, -0.23136582970619202, -0.028667261824011803, -0.1457691788673401, 0.147507905960083, -0.12084532529115677, -0.12131810933351517, -0.04957614094018936, 0.2073165774345398, 0.15732429921627045, -0.1836480051279068, -0.03386489674448967, -0.0617489367723465, 0.1728714406490326, -0.04878851771354675, -0.09229341894388199, -0.15552359819412231, -0.12849904596805573, -0.14862056076526642, -0.18178454041481018, 0.07537832111120224, 0.1616266965866089, 0.09378205239772797, -0.20302389562129974, -0.16720931231975555, 0.10211175680160522, -0.021201658993959427, -0.15569695830345154, -0.08782981336116791, -0.03156059980392456, -0.13759183883666992, -0.18139679729938507, -0.0666511133313179, -0.1661510467529297, 0.2338569462299347, 0.11545605957508087, -0.17091362178325653, -0.2181645929813385, 0.12934841215610504, -0.1261342167854309, -0.15891097486019135, 0.10637009888887405, 0.03890204057097435, -0.18308639526367188, 0.10083915293216705, -0.11102058738470078, -0.036495402455329895, -0.045859768986701965], [0.13938285410404205, -0.08658422529697418, 0.010246978141367435, -0.09100084006786346, -0.06968207657337189, 0.19208531081676483, 0.00779261440038681, -0.03336863964796066, -0.14587858319282532, -0.18330621719360352, -0.09313436597585678, -0.01032128557562828, 0.1512163132429123, -0.020819736644625664, -0.1006634309887886, 0.02318657748401165, 0.18120768666267395, -0.026881171390414238, -0.06722280383110046, 0.16668610274791718, -0.15455293655395508, 0.07913342863321304, 0.06028181314468384, -0.07549647241830826, -0.17785117030143738, -0.06625015288591385, -0.012296054512262344, -0.0011940590338781476, -0.009869016706943512, -0.023107966408133507, 0.02156013436615467, -0.09718716144561768, 0.017167141661047935, 0.07214577496051788, -0.0041857147589325905, -0.12076567113399506, 0.11786288768053055, 0.05396302044391632, -0.10093042254447937, -0.04052473604679108, -0.014480344019830227, 0.040279798209667206, -0.05207756534218788, 0.03557904437184334, -0.16623182594776154, 0.09485775232315063, -0.08610258996486664, -0.01407420914620161, 0.10703494399785995, 0.0087576387450099, 0.0926179513335228, 0.0203009694814682, 0.0333588644862175, -0.0786961168050766, 0.12470671534538269, -0.11539198458194733, 0.07610457390546799, 0.0398593544960022, -0.07566957175731659, -0.03127593547105789, 0.010960971936583519, 0.10600262135267258, -0.030900347977876663, -0.004227831028401852, -0.093582384288311, -0.14732491970062256, -0.008813823573291302, -0.007500974461436272, -0.08071249723434448, 0.07723984867334366, -0.11445154994726181, 0.06199055537581444, -0.011569065973162651, 0.008346932008862495, -0.09222552180290222, -0.1566937118768692, -0.07238965481519699, -0.0034678210504353046, -0.1533767133951187, -0.053857091814279556, -0.05848822370171547, -0.13659682869911194, -0.01615300215780735, 0.02944689430296421, 0.15660583972930908, -0.027132628485560417, 0.025321245193481445, -0.10135486721992493, 0.06185976788401604, 0.09762805700302124, -0.05053551867604256, 0.11273230612277985, 0.06904815882444382, -0.0927639976143837, -0.11466478556394577, 0.005377406254410744, 0.0013372243847697973, 0.13225507736206055, -0.15782609581947327, 0.020678488537669182, 0.09891830384731293, -0.11789251863956451, 0.028824076056480408, -0.0518714003264904, -0.05367506295442581, 0.05164557695388794, 0.07261575013399124, -0.16662904620170593, 0.04294538497924805, -0.07286960631608963, -0.003987214062362909, -0.07413817197084427, 0.07487202435731888, 0.07880544662475586, -0.16212527453899384, 0.003673161845654249, 0.1596086621284485, 0.08014453947544098, -0.09581855684518814, 0.13549748063087463, -0.02337353676557541, 0.029878323897719383, 0.054808538407087326, -0.033113181591033936, -0.04724811762571335, 0.08553046733140945, -0.07705488801002502, -0.1170801892876625], [0.17173543572425842, -0.09454023092985153, -0.008137250319123268, -0.010751549154520035, 0.017950154840946198, 0.11650169640779495, 0.0319182313978672, -0.11379820853471756, -0.04479010030627251, 0.169404074549675, -0.12454618513584137, 0.12583085894584656, 0.11546053737401962, 0.062044162303209305, -0.10998495668172836, 0.044395893812179565, -0.15441802144050598, -0.186966210603714, 0.10609960556030273, -0.08386829495429993, -0.1408529281616211, -0.09828305244445801, -0.16699153184890747, -0.021242694929242134, -0.012693925760686398, 0.064266137778759, -0.060382042080163956, -0.12557537853717804, -0.019862433895468712, -0.04628137871623039, 0.028078338131308556, 0.16169334948062897, -0.047916170209646225, 0.17123432457447052, 0.08451984077692032, 0.04621129482984543, -0.008160789497196674, -0.02226066403090954, -0.04745342582464218, -0.1611255407333374, -0.09442174434661865, -0.016758861020207405, -0.05071443319320679, -0.1592266708612442, -0.1014033704996109, -0.07315453886985779, -0.10784228891134262, 0.0918404683470726, -0.17702694237232208, -0.05310250073671341, 0.1230962723493576, 0.08064839243888855, 0.045439571142196655, 0.006667071022093296, 0.08849618583917618, 0.08886048197746277, 0.2023608684539795, 0.05072296783328056, -0.11683787405490875, -0.03191857039928436, 0.11707864701747894, -0.10224214941263199, 0.07227359712123871, 0.14226284623146057, 0.034523580223321915, 0.13743239641189575, -0.04541287198662758, -0.123207226395607, 0.10927671194076538, 0.07393049448728561, 0.05089192092418671, 0.12749499082565308, -0.08637281507253647, -0.1731610745191574, 0.12390445917844772, 0.04488421604037285, -0.08202888816595078, 0.15837375819683075, -0.08043617010116577, 0.07704595476388931, -0.09735138714313507, 0.04890608415007591, 0.13827361166477203, 0.16934449970722198, -0.11135682463645935, 0.07995672523975372, -0.06674142181873322, -0.15400324761867523, -0.005648099351674318, 0.06610025465488434, 0.0311195757240057, 0.1529010385274887, 0.07123618572950363, 0.1704338788986206, -0.13023698329925537, -0.10432209819555283, -0.027355484664440155, 0.12937180697917938, 0.18035471439361572, 0.06117604300379753, 0.01745634153485298, -0.08556634932756424, 0.005532312206923962, -0.12834542989730835, 0.08515128493309021, -0.005299621261656284, 0.1484287977218628, 0.10792149603366852, 0.022754693403840065, -0.10707423090934753, -0.11872301995754242, -0.12229588627815247, -0.04140559583902359, -0.06512820720672607, 0.17276529967784882, 0.006406406871974468, -0.0452837236225605, -0.03192071244120598, -0.05433739349246025, 0.18280261754989624, -0.055958572775125504, 0.2045467495918274, -0.03256966918706894, -0.05408087372779846, -0.029101679101586342, 0.011514585465192795, -0.0042669507674872875, 0.10026698559522629], [0.05024152994155884, 0.04622183367609978, -0.07527998089790344, -0.058033537119627, -0.13948774337768555, -0.05342154577374458, -0.15541298687458038, 0.06395676732063293, 0.06429117172956467, -0.062192123383283615, -0.0034345723688602448, -0.14680157601833344, 0.02852891944348812, -0.023859139531850815, 0.023314202204346657, -0.035151995718479156, 0.019093750044703484, 0.1410316377878189, 0.09650123864412308, -0.10809285938739777, 0.04406367614865303, 0.0021114193368703127, -0.012759468518197536, -0.05022445321083069, 0.021670542657375336, 0.1228489801287651, 0.004510835744440556, -0.012601171620190144, -0.04318010434508324, 0.06985385715961456, -0.12818799912929535, 0.09581875056028366, -0.007935390807688236, -0.05730002745985985, -0.10927773267030716, -0.05045998841524124, 0.14817169308662415, 0.03767213970422745, 0.03693373501300812, 0.011796114034950733, -0.028979774564504623, -0.10312684625387192, -0.10950663685798645, 0.1772688925266266, -0.03920293226838112, -0.14660122990608215, 0.12909160554409027, -0.1269121915102005, -0.13332787156105042, -0.07328812032938004, -0.020801778882741928, 0.11196354776620865, -0.10613618046045303, -0.006539147347211838, 0.08944153785705566, 0.16138942539691925, 0.12801522016525269, -0.02782653644680977, 0.01637379452586174, -0.02884451299905777, -0.08689595013856888, 0.11218622326850891, 0.052951879799366, 0.009685894474387169, 0.13269469141960144, -0.10200157016515732, -0.1723102331161499, -0.0769718810915947, -0.020044613629579544, -0.08452305197715759, 0.15618841350078583, 0.017537206411361694, -0.03475699946284294, -0.07806475460529327, 0.13467326760292053, -0.06133044883608818, -0.055707357823848724, 0.16469815373420715, -0.0023909953888505697, -0.0476011224091053, 0.055656056851148605, 0.12568125128746033, -0.02122892253100872, 0.13960464298725128, -0.10923896729946136, -0.016554052010178566, -0.012182631529867649, -0.030430993065238, 0.1108139157295227, -0.02562788873910904, -0.09933334589004517, 0.004129740875214338, -0.04931343346834183, 0.021546710282564163, -0.14592231810092926, -0.07437857985496521, -0.021480217576026917, 0.06178427115082741, 0.08006717264652252, 0.07995905727148056, -0.11215735226869583, 0.05971710756421089, -0.10070451349020004, 0.09726464748382568, 0.12374366074800491, 0.03193996474146843, 0.1372811496257782, 0.049167171120643616, -0.024723613634705544, 0.057969242334365845, 0.024336477741599083, 0.0927015095949173, 0.16667796671390533, -0.02004922367632389, 0.0636894702911377, 0.027066560462117195, -0.02950539067387581, 0.08228512108325958, -0.07765267044305801, -0.10114695131778717, 0.14854350686073303, 0.08084366470575333, 0.09403018653392792, 0.13732975721359253, 0.006004260387271643, 0.12917707860469818, -0.17050176858901978, -0.10646641999483109], [-0.0675341859459877, -0.08910169452428818, 0.11909601837396622, 0.007867236621677876, -0.10154686868190765, 0.16645823419094086, -0.0572502464056015, 0.18057042360305786, 0.039095453917980194, 0.18451175093650818, -0.14540356397628784, 0.0337679348886013, -0.043487608432769775, 0.27000048756599426, -0.1888173669576645, -0.15357786417007446, 0.19595608115196228, -0.06398828327655792, 0.0785602331161499, 0.014644616283476353, -0.02170705236494541, 0.0118067292496562, 0.10822641849517822, 0.15495547652244568, 0.005894380621612072, -0.008243022486567497, 0.08129028975963593, -0.056112002581357956, -0.10188810527324677, 0.12081640213727951, 0.011495893821120262, 0.06625263392925262, 0.161296546459198, -0.08019165694713593, 0.05172603949904442, 0.1510610729455948, 0.23131482303142548, -0.08836915343999863, -0.030458472669124603, 0.17582757771015167, 0.1080217957496643, -0.009249203838407993, 0.12188892811536789, -0.10185184329748154, 0.1655775010585785, 0.0725666806101799, -0.11006199568510056, -0.14586302638053894, 0.06617168337106705, -0.01532876305282116, 0.13721509277820587, -0.14895696938037872, -0.14706122875213623, 0.005270116496831179, 0.037983160465955734, -0.11712498962879181, -0.08145876228809357, -0.10738597810268402, 0.18216286599636078, -0.034363459795713425, -0.09824619442224503, -0.11281843483448029, -0.12473556399345398, -0.0049086627550423145, -0.029148126021027565, -0.0702831968665123, 0.1022072434425354, -0.1876552551984787, 0.07220374792814255, -0.13957427442073822, 0.10283699631690979, 0.12312059104442596, -0.02650189772248268, -0.05461954325437546, 0.05304563790559769, 0.09410213679075241, -0.18037964403629303, -0.08514168858528137, -0.1516280621290207, 0.10883485525846481, -0.024934072047472, -0.16361890733242035, 0.019449124112725258, -0.08574442565441132, 0.06779029965400696, -0.17987552285194397, -0.06153140589594841, -0.0976448804140091, -0.13116766512393951, 0.15094681084156036, 0.02212519757449627, -0.052875109016895294, -0.009330084547400475, -0.08357886970043182, 0.13872851431369781, -0.010200473479926586, 0.06888287514448166, -0.22514957189559937, 0.17662231624126434, -0.114264577627182, -0.18150687217712402, -0.1727050244808197, 0.05337424948811531, -0.08415834605693817, -0.09489939361810684, -0.07115564495325089, 0.1038409098982811, 0.12014861404895782, 0.07620319724082947, 0.16609899699687958, -0.046240679919719696, -0.061456385999917984, -0.04414060339331627, 0.11268512159585953, -0.1367236077785492, -0.03516450896859169, -0.05524284020066261, -0.11972886323928833, 0.2411326766014099, 0.04340152442455292, 0.007077489513903856, -0.12293034046888351, 0.13461633026599884, 0.23941248655319214, 0.07824906706809998, 0.0645347461104393, 0.14615541696548462, 0.10642257332801819], [0.14124129712581635, 0.061321139335632324, 0.002489426638931036, -0.024542178958654404, -0.15213161706924438, -0.03159061819314957, -0.1363457292318344, -0.17360645532608032, -0.07389543950557709, 0.08750081062316895, -0.1603488177061081, 0.04579051211476326, -0.1121831014752388, 0.05704336240887642, -0.15905910730361938, 0.0054109045304358006, -0.12183456122875214, -0.009282037615776062, 0.05948103591799736, 0.013041798025369644, 0.07047295570373535, -0.07002457976341248, -0.02253877744078636, 0.10297369956970215, 0.005329102743417025, 0.1960931271314621, -0.027610087767243385, -0.1338433176279068, 0.05414709448814392, -0.11551494896411896, 0.08960026502609253, -0.056457653641700745, -0.033584412187337875, -0.16894014179706573, -0.17791737616062164, 0.13391467928886414, -0.17656345665454865, -0.043898485600948334, 0.07617953419685364, -0.08019766211509705, 0.018699703738093376, 0.07734695076942444, 0.16404050588607788, 0.06007230654358864, -0.13152579963207245, -0.02286328561604023, -0.15677985548973083, 0.1359744518995285, 0.0010349330259487033, -0.07684943079948425, 0.07753077894449234, -0.21149694919586182, -0.011689901351928711, -0.011078117415308952, -0.14578299224376678, 0.06319252401590347, -0.11016865819692612, 0.12791460752487183, -0.0637606754899025, -0.059946801513433456, -0.014253148809075356, -0.05335129797458649, -0.04402419924736023, 0.0439080074429512, 0.10866349935531616, -0.12478791922330856, -0.11971041560173035, 0.027823710814118385, -0.04121646285057068, 0.009762137196958065, -0.13779936730861664, 0.10440794378519058, 0.07038617879152298, -0.029855230823159218, -0.0148235522210598, 0.1571747064590454, 0.0020635821856558323, -0.03374483063817024, -0.15891657769680023, 0.07942423224449158, -0.19437071681022644, -0.0638195127248764, -0.023458441719412804, -0.09868726879358292, 0.09917575120925903, -0.17663095891475677, -0.12068717181682587, 0.011564317159354687, -0.1140243262052536, 0.0617293082177639, -0.08408496528863907, -0.038416408002376556, -0.03683674335479736, -0.021844999864697456, -0.06970344483852386, 0.06800352036952972, 0.1552831381559372, -0.08963818103075027, 0.0709678903222084, -0.032336633652448654, 0.09541461616754532, -0.10538361221551895, 0.1176898330450058, -0.1305062174797058, 0.0003825455787591636, -0.156873881816864, -0.056138087064027786, 0.05745334550738335, -0.024665985256433487, 0.08377458900213242, 0.057195015251636505, -0.12720073759555817, 0.18338391184806824, 0.040962379425764084, 0.10897558182477951, 0.008975348435342312, -0.15174707770347595, -0.006517608184367418, -0.004877947736531496, -0.12703979015350342, 0.0673903301358223, -0.08302582800388336, -0.12771469354629517, -0.191524937748909, -0.13512784242630005, 0.07458324730396271, 0.08162302523851395, 0.06931095570325851], [0.12163429707288742, -0.001951727201230824, 0.10732344537973404, 0.05845757573843002, 0.06811492145061493, 0.09202396124601364, -0.16626179218292236, 0.049274396151304245, -0.02126248925924301, 0.10397950559854507, 0.09601932018995285, -0.08651895076036453, 0.054846104234457016, 0.049528054893016815, 0.13604924082756042, 0.038495730608701706, -0.024110784754157066, -0.05424610897898674, 0.06411635130643845, 0.1979372650384903, -0.1059161126613617, -0.02958959899842739, -0.14546707272529602, -0.0580984391272068, 0.0025215500500053167, -0.12449301779270172, 0.11609786003828049, -0.13812676072120667, 0.023609356954693794, -0.023932619020342827, -0.14638440310955048, 0.0458243191242218, 0.019472338259220123, -0.12516163289546967, 0.18049317598342896, -0.07220504432916641, -0.1597357839345932, -0.06357479095458984, 0.08140844851732254, 0.012378079816699028, 0.06557725369930267, -0.06711813062429428, 0.04992116987705231, 0.02740001305937767, 0.13826212286949158, 0.03749261051416397, -0.004060941282659769, -0.02773522213101387, -0.057355478405952454, -0.08774275332689285, -0.010462179780006409, 0.0157221220433712, 0.11540541052818298, 0.03374645859003067, -0.05775744467973709, -0.22023528814315796, 0.1438707709312439, 0.08924321085214615, -0.032353777438402176, 0.08375880867242813, -0.03592759370803833, -0.09373310208320618, 0.030968129634857178, -0.018375756219029427, -0.0122362170368433, -0.10004370659589767, 0.20224927365779877, 0.031032534316182137, 0.05086808651685715, -0.04059240594506264, -0.17730247974395752, 0.011309868656098843, 0.018671199679374695, -0.11515795439481735, 0.10867731273174286, 0.10435590893030167, 0.004195455927401781, 0.11151985824108124, 0.05630990117788315, 0.072840116918087, -0.10814708471298218, -0.14380834996700287, 0.14949195086956024, 0.12241002917289734, -0.18627652525901794, -0.20300351083278656, -0.13381068408489227, -0.13561119139194489, 0.022938378155231476, 0.09512466937303543, 0.1439804583787918, 0.02976035885512829, -0.0017411974258720875, 0.11724784225225449, -0.1560920774936676, -0.05574791133403778, -0.011279668658971786, -0.05140558257699013, 0.0032691352535039186, -0.0414387471973896, 0.1753242462873459, -0.14805516600608826, -0.1462702453136444, 0.038535039871931076, -0.13544271886348724, 0.048626769334077835, 0.10810471326112747, -0.030281314626336098, -0.14242705702781677, -0.20813612639904022, -0.0010087579721584916, 0.12926027178764343, 0.19537043571472168, 0.13699036836624146, 0.003934874199330807, 0.1192249059677124, -0.08138654381036758, -0.1450803130865097, -0.00807162094861269, 0.15982556343078613, -0.15787070989608765, 0.15113528072834015, 0.14915801584720612, -0.08378195762634277, -0.03264773264527321, 0.16708357632160187, 0.0019214388448745012, 0.024859512224793434]], "bias": [-0.04725825786590576, -0.11109168082475662, -0.16107751429080963, 0.1516016274690628, 0.07404888421297073, -0.11380419135093689, -0.10769499093294144, 0.1562822312116623, -0.007671409752219915, -0.11380836367607117, 0.004294783808290958, 0.14281918108463287, -0.06048957630991936, -0.0976376011967659, 0.11397011578083038, 0.15506328642368317, 0.18830056488513947, -0.20667825639247894, 0.11332781612873077, 0.14113536477088928, 0.1528635174036026, -0.17298822104930878, -0.040766313672065735, -0.17169901728630066, -0.17400138080120087, -0.1335611194372177, -0.14213453233242035, 0.07245784252882004, 0.1550748646259308, -0.059920646250247955, -0.07885158807039261, 0.06019647791981697, 0.10809776932001114, -0.10872598737478256, -0.14081647992134094, -0.1403442621231079, 0.06130281463265419, -0.17847469449043274, 0.13852205872535706, 0.14880499243736267, 0.14347854256629944, 0.13870516419410706, -0.20543687045574188, 0.15988776087760925, -0.1030062586069107, 0.17377886176109314, 0.18166787922382355, 0.12306717783212662, -0.08212399482727051, 0.2124493569135666, 0.08108516037464142, -0.01192747987806797, -0.02579399198293686, 0.0675874799489975, 0.02419177070260048, -0.16548679769039154, 0.06675450503826141, 0.068102166056633, -0.0534626767039299, 0.12338754534721375, -0.16256538033485413, -0.04830341041088104, -0.12135528028011322, 0.10866852849721909, -0.08258965611457825, 0.1603538990020752, 0.03873613476753235, 0.012841559946537018, -0.08694280683994293, -0.18211369216442108, -0.013928907923400402, -0.011024029925465584, 0.18268261849880219, -0.05890383571386337, 0.21107536554336548, 0.11892829090356827, -0.06676970422267914, 0.08243788033723831, -0.03957095369696617, 0.008766071870923042, -0.10561700165271759, -0.017050346359610558, -0.04880668222904205, 0.13436217606067657, 0.159396231174469, 0.137581929564476, -0.10180679708719254, 0.07829143851995468, 0.16699643433094025, 0.07912860810756683, -0.01709340140223503, 0.06041312590241432, 0.047824665904045105, 0.0755767822265625, 0.034707605838775635, -0.004096995107829571, -0.1337592601776123, 0.05453990027308464, 0.19383855164051056, 0.07674112915992737, -0.017491532489657402, 0.08119971305131912, 0.1980641782283783, -0.1789567470550537, -0.051090583205223083, -0.11105036735534668, -0.1280980408191681, -0.07523902505636215, 0.00880840327590704, 0.12210926413536072, 0.17012475430965424, -0.15559248626232147, -0.058049365878105164, 0.07845983654260635, 0.19877873361110687, -0.0014332736609503627, -0.07973286509513855, -0.0294150672852993, -0.12999692559242249, -0.20320583879947662, 0.04134863615036011, 0.12324869632720947, -0.0791810005903244, 0.022109808400273323, 0.08241695165634155, 0.19906871020793915, 0.08953586965799332, -0.027656232938170433], "activation": "relu", "bn": {"gamma": [0.9492852687835693, 1.0098387002944946, 1.0243332386016846, 1.0336213111877441, 0.9700079560279846, 0.9779772758483887, 1.0068283081054688, 1.0174188613891602, 1.0128583908081055, 0.9730556607246399, 1.0353755950927734, 0.9950891733169556, 1.0528141260147095, 0.9782235622406006, 1.0335625410079956, 1.004236102104187, 0.9424845576286316, 0.955138087272644, 0.9371408224105835, 0.9720094799995422, 0.9768768548965454, 1.0444822311401367, 0.9453402757644653, 0.9925341606140137, 1.030225396156311, 0.9684901833534241, 1.0323678255081177, 0.939346969127655, 0.9675198793411255, 1.0055358409881592, 1.0307573080062866, 0.9769075512886047, 1.013837456703186, 0.9450436234474182, 0.9542191028594971, 1.0159457921981812, 0.9714445471763611, 1.0287485122680664, 1.0265966653823853, 1.0283821821212769, 1.0456286668777466, 0.9799649119377136, 0.9720325469970703, 0.9493159055709839, 0.9663482904434204, 1.054542064666748, 0.9999353885650635, 0.9635331034660339, 0.9483695030212402, 1.0197910070419312, 1.0511677265167236, 0.9681379795074463, 1.022484302520752, 1.0019675493240356, 1.0036934614181519, 0.9990795254707336, 0.9834280610084534, 0.9976208209991455, 0.9435518383979797, 1.0413767099380493, 0.9685948491096497, 0.9649352431297302, 1.02963125705719, 0.9876779317855835, 1.0057737827301025, 0.9655114412307739, 0.9879215359687805, 1.0111466646194458, 1.052544116973877, 0.974952757358551, 0.999791145324707, 1.0435035228729248, 1.0082021951675415, 1.0296417474746704, 1.0336699485778809, 0.9855785965919495, 0.9589000344276428, 0.9750193357467651, 1.0296249389648438, 1.0044926404953003, 0.9708007574081421, 1.0328537225723267, 1.0161789655685425, 0.9520231485366821, 1.0064966678619385, 0.9869885444641113, 1.0539056062698364, 1.0155764818191528, 1.0369285345077515, 0.9699837565422058, 1.0198661088943481, 1.053123116493225, 1.0266729593276978, 0.9461535811424255, 1.0183563232421875, 1.0298316478729248, 1.0244492292404175, 0.9460576772689819, 0.9512011408805847, 0.9732067584991455, 1.0305622816085815, 1.056420922279358, 1.0328973531723022, 0.968856692314148, 1.0092275142669678, 0.9598963856697083, 0.9943989515304565, 0.9990141987800598, 0.9998578429222107, 0.951128363609314, 0.9907029271125793, 1.040828824043274, 0.9435674548149109, 0.9850098490715027, 1.0389039516448975, 1.0463687181472778, 0.9636303186416626, 1.0258334875106812, 0.942283570766449, 1.003186821937561, 1.0091307163238525, 1.0117696523666382, 1.0478826761245728, 0.9472478032112122, 1.0343401432037354, 0.9415499567985535, 0.9865767955780029, 0.9628151059150696], "beta": [-0.051091402769088745, 0.016024181619286537, -0.030399560928344727, 0.02703498676419258, -0.03426910564303398, -0.05082419514656067, -0.01060750987380743, 0.02175060287117958, -0.03441727161407471, -0.030878625810146332, -0.050149451941251755, -0.02343990094959736, 0.05433189496397972, -0.05306769534945488, 0.06016332283616066, 0.013827439397573471, -0.04542973265051842, -0.037953611463308334, -0.05535399168729782, -0.03209667652845383, -0.010027945041656494, 0.0034361775033175945, -0.03710118681192398, -0.051751863211393356, 0.03802688419818878, -0.006160632241517305, 0.005256311502307653, -0.06476227939128876, -0.014266017824411392, 0.017999673262238503, 0.0023802518844604492, -0.03159060329198837, 0.06288329511880875, -0.05178956687450409, -0.020621467381715775, 0.011938201263546944, -0.008402541279792786, -0.0044769588857889175, -0.004311277996748686, 0.05721092224121094, 0.03376596421003342, -0.048298027366399765, -0.04324333369731903, -0.0515589565038681, -0.05650690197944641, 0.036429233849048615, 0.007094500586390495, 0.043573059141635895, -0.025584092363715172, -0.037376996129751205, 0.004620086867362261, -0.0039035906083881855, 0.01813901774585247, -0.0256239902228117, -0.05375039577484131, -0.05449248477816582, -0.0307331420481205, -0.016168562695384026, -0.05969487503170967, 0.05011636018753052, -0.03793369233608246, 0.005025066900998354, -0.005163163412362337, -0.06184874475002289, -0.002086387714371085, -0.03414587303996086, -0.05072507634758949, -0.01674930565059185, 0.0336630716919899, -0.042361803352832794, -0.027500925585627556, 0.05925993621349335, 0.013323069550096989, 0.006922776810824871, 0.03228515386581421, -0.03583355247974396, 0.010375158861279488, -0.032052356749773026, 0.04485644772648811, 0.01033080369234085, -0.02745835669338703, 0.0231296606361866, -0.022670499980449677, -0.030225910246372223, 0.037880945950746536, 0.003495490876957774, 0.05655761808156967, 0.061402030289173126, 0.0371272899210453, -0.06485578417778015, 0.05242734029889107, 0.054594576358795166, 0.0008752048015594482, -0.015165050514042377, 0.009748775511980057, 0.010026594623923302, -0.04135330021381378, -0.058009516447782516, -0.056053947657346725, -0.04993486776947975, 0.04576461762189865, 0.015006784349679947, 0.044761743396520615, -0.042229946702718735, 0.011591070331633091, -0.017031852155923843, -0.02516852132976055, 0.028727322816848755, -0.059509046375751495, -0.02645149827003479, -0.01774263195693493, 0.028200984001159668, -0.031352292746305466, -0.023456232622265816, -0.03716708719730377, 0.034009795635938644, -0.045644067227840424, 0.053463470190763474, -0.04833811894059181, -0.06109639257192612, -0.04977121204137802, 0.045905496925115585, 0.048373907804489136, -0.052203625440597534, -0.053145818412303925, -0.05765142664313316, 0.01510628405958414, -0.05583703890442848], "mean": [-0.04721880331635475, -0.11088249087333679, -0.16083157062530518, 0.15130425989627838, 0.07391145080327988, -0.1135944277048111, -0.1075008437037468, 0.15597562491893768, -0.00770499836653471, -0.11359815299510956, 0.004319097846746445, 0.14258162677288055, -0.06038938835263252, -0.09746430814266205, 0.11383463442325592, 0.15483452379703522, 0.1879568248987198, -0.2062969207763672, 0.11313782632350922, 0.14087802171707153, 0.15257149934768677, -0.17268560826778412, -0.04068145155906677, -0.17137524485588074, -0.17370864748954773, -0.1333254873752594, -0.14181722700595856, 0.07235173881053925, 0.15482911467552185, -0.059796858578920364, -0.07865506410598755, 0.06012342497706413, 0.10791721940040588, -0.10850858688354492, -0.1405666023492813, -0.14002306759357452, 0.06121434271335602, -0.17815642058849335, 0.1381988227367401, 0.14853717386722565, 0.14326302707195282, 0.13852275907993317, -0.2050524801015854, 0.159579798579216, -0.10282531380653381, 0.1734372079372406, 0.18134568631649017, 0.12284767627716064, -0.08198777586221695, 0.2120659351348877, 0.08091752231121063, -0.011946609243750572, -0.02577775903046131, 0.06743361055850983, 0.024151472374796867, -0.16518272459506989, 0.06665222346782684, 0.06802568584680557, -0.053383875638246536, 0.12319886684417725, -0.16227290034294128, -0.04816815257072449, -0.12117598205804825, 0.10849204659461975, -0.08242785930633545, 0.16006268560886383, 0.03870440274477005, 0.012777439318597317, -0.08674400299787521, -0.18176089227199554, -0.013915791176259518, -0.010939601808786392, 0.18234634399414062, -0.058862559497356415, 0.2107260674238205, 0.11871325969696045, -0.06667381525039673, 0.08230814337730408, -0.0394645519554615, 0.008790070191025734, -0.10544617474079132, -0.01707613840699196, -0.04878035932779312, 0.13406141102313995, 0.15911483764648438, 0.1373072862625122, -0.10162238776683807, 0.07817345857620239, 0.16669534146785736, 0.07903619110584259, -0.017036650329828262, 0.06036091968417168, 0.04772757366299629, 0.07545628398656845, 0.03464820981025696, -0.004184274934232235, -0.13352711498737335, 0.05438564345240593, 0.1935202181339264, 0.07653865963220596, -0.017504097893834114, 0.0810982957482338, 0.19771818816661835, -0.17865537106990814, -0.05096380040049553, -0.11083149909973145, -0.12786656618118286, -0.07514213025569916, 0.008790876716375351, 0.12188128381967545, 0.16974607110023499, -0.15532314777374268, -0.05795685574412346, 0.07832499593496323, 0.1983899027109146, -0.0014186918269842863, -0.07958689332008362, -0.029335305094718933, -0.129782572388649, -0.20282600820064545, 0.04130630940198898, 0.12295326590538025, -0.07905697822570801, 0.02205469273030758, 0.08219005167484283, 0.19870354235172272, 0.08942313492298126, -0.02763575315475464], "var": [0.3037734925746918, 0.1679864078760147, 0.1398545801639557, 0.14787812530994415, 0.5883827209472656, 0.3220663070678711, 0.2896246612071991, 0.2598358392715454, 0.27457818388938904, 0.7716665267944336, 0.32364553213119507, 0.3231339454650879, 0.18235911428928375, 0.2893627882003784, 0.1835031360387802, 0.31116601824760437, 0.36761167645454407, 0.26492053270339966, 0.3465694189071655, 0.6672015190124512, 0.18189962208271027, 0.15355700254440308, 0.3382858633995056, 0.10149744153022766, 0.1658569723367691, 0.508829653263092, 0.10409219563007355, 0.4103127419948578, 0.19811111688613892, 0.35901111364364624, 0.11963959783315659, 0.12636449933052063, 0.1671140044927597, 0.3612394332885742, 0.35507476329803467, 0.1382669359445572, 0.4452568292617798, 0.15995754301548004, 0.15510772168636322, 0.30051445960998535, 0.269890159368515, 0.1264297217130661, 0.3166571855545044, 0.33493471145629883, 0.3149619996547699, 0.21546731889247894, 0.30776774883270264, 0.30272048711776733, 0.389986127614975, 0.25356870889663696, 0.27701449394226074, 0.12303178012371063, 0.23942650854587555, 0.2661570906639099, 0.42018020153045654, 0.4027937650680542, 0.2180197685956955, 0.2839912474155426, 0.4708659052848816, 0.2618327736854553, 0.28528091311454773, 0.3256746530532837, 0.27192774415016174, 0.23496520519256592, 0.5102613568305969, 0.5332110524177551, 0.28997519612312317, 0.25116509199142456, 0.27447301149368286, 0.40227702260017395, 0.5095686912536621, 0.13387498259544373, 0.23556865751743317, 0.19301782548427582, 0.12602795660495758, 0.4101124405860901, 0.12278150767087936, 0.22548331320285797, 0.16860686242580414, 0.19154614210128784, 0.2591339945793152, 0.2444857805967331, 0.19398781657218933, 0.22118303179740906, 0.4584328532218933, 0.218499094247818, 0.14284440875053406, 0.1629752367734909, 0.21045668423175812, 0.1872522234916687, 0.27878329157829285, 0.150008425116539, 0.34557485580444336, 0.21287789940834045, 0.2438904494047165, 0.142795592546463, 0.11135447025299072, 0.3337598443031311, 0.4169837236404419, 0.2995435297489166, 0.45360690355300903, 0.23393476009368896, 0.2685476541519165, 0.3906609117984772, 0.3457069993019104, 0.23508693277835846, 0.42955997586250305, 0.2066996991634369, 0.10774538666009903, 0.8814514875411987, 0.15957395732402802, 0.16872023046016693, 0.6542122960090637, 0.44346439838409424, 0.27541184425354004, 0.14336325228214264, 0.6788110733032227, 0.3277626931667328, 0.16292555630207062, 0.30761992931365967, 0.20349977910518646, 0.2889403998851776, 0.1449420303106308, 0.5846713185310364, 0.24562478065490723, 1.3238589763641357, 0.2971709966659546, 0.15728417038917542], "eps": 1e-05}}, {"weights": [[0.01603090763092041, -0.009311914443969727, 0.01061624102294445, -0.022750047966837883, -0.11667428910732269, 0.03272082656621933, -0.06783023476600647, 0.004044642671942711, -0.06231611967086792, -0.027651455253362656, -0.006937566213309765, -0.01571717858314514, 0.05260828509926796, 0.00042404700070619583, 0.036639269441366196, -0.013660857453942299, -0.01671328768134117, 0.007284881547093391, 0.033734213560819626, -0.04913178086280823, -0.018763601779937744, -0.0695502981543541, -0.04930810257792473, -0.031309131532907486, -0.034951187670230865, -0.012511835433542728, 0.03131549432873726, -0.007573949173092842, 0.0018198508769273758, -0.055802684277296066, -0.054708082228899, -0.004904554225504398, -0.032934293150901794, -0.07994258403778076, 0.0027065020985901356, 0.03569592908024788, -0.08369117230176926, 0.07332123070955276, 0.012612219899892807, -0.07106570899486542, -0.015624464489519596, 0.059121597558259964, 0.010986094363033772, -0.04912890866398811, 0.02227899245917797, 0.0873502716422081, -0.042984556406736374, 0.03680814057588577, -0.02882886491715908, 0.0794658288359642, -0.049833379685878754, -0.009831393137574196, -0.06176939606666565, -0.019835347309708595, -0.02051519602537155, -0.040430497378110886, -0.01671147346496582, -0.034295227378606796, -0.0410902202129364, 0.005155488383024931, 0.011065354570746422, 0.060431987047195435, -0.07593275606632233, -0.00582498125731945], [0.05189897119998932, 0.01584138721227646, -0.04130888730287552, 0.020440712571144104, -0.030376797541975975, 0.039140719920396805, 0.03826753795146942, -0.09206054359674454, -0.042706120759248734, -0.05886925011873245, 0.04859011992812157, -0.018970580771565437, -0.0066894590854644775, 0.10549785196781158, 0.030329523608088493, 0.046608079224824905, -0.017183564603328705, -0.03153382986783981, 0.10247903317213058, 0.032919321209192276, -0.0028229060117155313, 0.09201110899448395, -0.036378081887960434, 0.07337667793035507, 0.044413354247808456, 0.14347368478775024, -0.0009039579308591783, 0.1021096408367157, -0.028094574809074402, -0.006921602413058281, -0.022380677983164787, 0.04802016541361809, -0.059037741273641586, -0.09055735915899277, 0.016242407262325287, -0.07485099881887436, -0.016783457249403, 0.07188951969146729, 0.052483122795820236, -0.04037487506866455, -0.06412550806999207, -0.03543481603264809, -0.013978964649140835, -0.05813461169600487, 0.08619914203882217, 0.04443926736712456, 0.05883814021945, -0.07100292295217514, -0.035088781267404556, -0.1032467782497406, -0.049322064965963364, 0.10008860379457474, 0.01704643853008747, 0.06784966588020325, -0.11191104352474213, -0.02858663722872734, -0.08700796961784363, -0.04993365332484245, -0.04013971984386444, 0.045693427324295044, -0.040335096418857574, -0.027558155357837677, -0.03660920634865761, 0.0017129664774984121], [0.05829296261072159, 0.045963410288095474, -0.01152733713388443, -0.06557746976613998, 0.03964430093765259, -0.08605729788541794, -0.0010950969299301505, -0.04631834104657173, -0.007288587279617786, -0.09743908792734146, 0.08647552132606506, -0.02361368015408516, -0.05513152852654457, 0.026681222021579742, 0.05603921413421631, -0.029823970049619675, 0.07674453407526016, -0.06799030303955078, 0.008110578171908855, 0.006130654364824295, 0.026999996975064278, -0.05127524584531784, -0.032270628958940506, -0.08532431721687317, -0.0024421089328825474, -0.05662287399172783, -0.10874451696872711, -0.06532695889472961, 0.033988770097494125, 0.04784953594207764, 0.049208980053663254, 0.013922913931310177, 0.08714401721954346, -0.0508805587887764, -0.02082318626344204, -0.04368378594517708, -0.02130645327270031, 0.10232412070035934, 0.009430511854588985, 0.09638268500566483, -0.040829841047525406, 0.0395481213927269, -0.08393318206071854, -0.006640002131462097, 0.03930943086743355, 0.05796555429697037, 0.04756166785955429, 0.030369600281119347, -0.03202516585588455, 0.07547535747289658, -0.050711490213871, -0.04987708106637001, -0.128739595413208, 0.09643565118312836, -0.012757143005728722, 0.029659148305654526, -0.037024445831775665, 0.008382228203117847, 0.03127041086554527, -0.058311451226472855, 0.034637149423360825, 0.0027188968379050493, -0.08657614886760712, -0.04803440347313881], [-0.01618098095059395, 0.03770757094025612, 0.013654740527272224, -0.006983044557273388, -0.046435099095106125, 0.0764581486582756, -0.04203692078590393, 0.08236262947320938, 0.053799547255039215, 0.06354531645774841, 0.03562407195568085, 0.03245715796947479, -0.01371584739536047, -0.03893888741731644, -0.0744955986738205, -0.024569299072027206, 0.07838064432144165, 0.04286844655871391, -0.045805785804986954, -0.08538484573364258, 0.05392492562532425, -0.06585205346345901, 0.060574986040592194, -0.11588118970394135, -0.023764295503497124, -0.05341480299830437, 0.08706624060869217, 0.12796171009540558, -0.01792098395526409, -0.031300660222768784, 0.0020661635790020227, 0.031138194724917412, 0.04787549376487732, 0.09362077713012695, -0.08557082712650299, 0.04292874410748482, -0.0015657332260161638, -0.0196917075663805, -0.05755780264735222, 0.014365123584866524, 0.1020795926451683, 0.10049416124820709, -0.023225899785757065, -0.11157071590423584, 0.08728582412004471, 0.10117003321647644, 0.01415937952697277, -0.07616910338401794, -0.09735549986362457, 0.0547899454832077, -0.011607482098042965, -0.07881442457437515, -0.04084990918636322, -0.05779707804322243, -0.09698284417390823, 0.02679508551955223, 0.13537703454494476, 0.03208337724208832, 0.10651323944330215, 0.04164582118391991, 0.057417090982198715, 0.005389658734202385, -0.010503675788640976, -0.04687304049730301], [-0.036298755556344986, -0.026470385491847992, -0.029094992205500603, -0.007489348296076059, 0.04588509723544121, -0.08049993962049484, -0.0033566595520824194, 0.11106777936220169, -0.05924250930547714, 0.0018829454202204943, -0.06769189983606339, -0.018028896301984787, 0.004932111594825983, 0.006562070455402136, -0.06271401792764664, -0.05774549022316933, -0.0306587852537632, 0.0019056417513638735, 0.05105062946677208, -0.07064922899007797, -0.005199486389756203, -0.1075848788022995, 0.0716281458735466, -0.07299091666936874, -0.04732097312808037, 0.030157558619976044, 0.07308510690927505, -0.03545286878943443, 0.07912655174732208, -0.030210131779313087, 0.010055013932287693, 0.06363379955291748, 0.007985497824847698, -0.0004196836380288005, 0.008534237742424011, -0.02816530130803585, -0.029870953410863876, 0.040741950273513794, -0.05990539491176605, 0.042936839163303375, -0.05260340869426727, 0.06540580093860626, 0.031050141900777817, 0.0178806371986866, -0.06881917268037796, 0.010357329621911049, 0.007399805821478367, 0.00819114688783884, 0.033286046236753464, -0.04309162497520447, 0.0226491279900074, 0.08278567343950272, -0.08881887048482895, -0.03470386564731598, 0.11541441828012466, -0.01569901593029499, 0.0063457246869802475, -0.011126584373414516, 0.05219097435474396, -0.07418984174728394, -0.00453290157020092, -0.0340479351580143, 0.10247678309679031, 0.018172523006796837], [-0.03848101571202278, 0.08943986147642136, -0.003418254666030407, 0.043398745357990265, -0.08931571990251541, 0.027968917042016983, 0.07891398668289185, 0.015753652900457382, 0.062215548008680344, 0.04957053065299988, 0.009442036971449852, -0.08822087198495865, 0.09517578780651093, 0.011840743944048882, 0.004293879494071007, -0.07416170090436935, -0.03607875481247902, 0.07779455929994583, -0.09732479602098465, -0.11094257235527039, -0.05383550748229027, -0.006924423389136791, -0.021691404283046722, 0.01955973543226719, -0.02204424887895584, -0.07607143372297287, -0.047504592686891556, 0.01803717203438282, 0.038839228451251984, 0.0361136756837368, -0.05808893218636513, -0.04605729132890701, 0.055301226675510406, 0.008858732879161835, 0.07867184281349182, 0.06927332282066345, 0.04820280522108078, -0.01940092071890831, 0.10941830277442932, -0.01987653225660324, 0.0170502420514822, 0.030120955780148506, -0.00644396198913455, -0.0051759881898760796, 0.0032291519455611706, 0.047624725848436356, -0.016367251053452492, -0.0025453828275203705, -0.006666354835033417, 0.018601134419441223, 0.019431576132774353, -0.026854759082198143, -0.043345700949430466, -0.009456606581807137, -0.03826533630490303, -0.05223938822746277, 0.05819252133369446, 0.029248306527733803, -0.034602466970682144, -0.05181381106376648, -0.031161723658442497, -0.06990282982587814, 0.006016837432980537, 0.11477150022983551], [-0.006015138700604439, 0.0674983337521553, -0.022964611649513245, -0.007415555417537689, -0.00957003328949213, 0.009176181629300117, 0.0540374256670475, -0.07300325483083725, -0.0007678258116357028, 0.06029558554291725, -0.01759856939315796, -0.00832175649702549, -0.052597831934690475, -0.043619487434625626, -0.10349677503108978, 0.0949355736374855, 0.07590392976999283, -0.09401454776525497, 0.04219718649983406, 0.12752945721149445, -0.00456192996352911, 0.01353428978472948, -0.040051452815532684, 0.08004574477672577, 0.1086127981543541, 0.07950382679700851, -0.07656672596931458, 0.05782993137836456, 0.03487541899085045, 0.01928715780377388, 0.00986979529261589, -0.05288544297218323, 0.017635749652981758, -0.09096448868513107, -0.0785498097538948, 0.011405449360609055, -0.0686749815940857, -0.04314118251204491, -0.02020767331123352, -0.07422640174627304, -0.10151101648807526, -0.08092428743839264, 0.035473693162202835, 0.012404754757881165, 0.008878637105226517, 0.02780291810631752, -0.0037871235981583595, 0.02181336097419262, -0.027884842827916145, -0.0012514562113210559, -0.11232858151197433, 0.09094271063804626, 0.06060965731739998, -0.01105621550232172, 0.024654392153024673, -0.03204302117228508, -0.07130139321088791, -0.04928113520145416, -0.09726232290267944, 0.04514816775918007, -0.057200837880373, 0.05883980914950371, 0.0803971067070961, -0.016484277322888374], [0.004928154870867729, 0.08383894711732864, 0.08247300237417221, -0.07849688827991486, 0.11331633478403091, -0.0867626816034317, -0.048961978405714035, 0.03796366602182388, 0.07035437226295471, -0.030670462176203728, -0.0041503095999360085, 0.048990555107593536, -0.028050288558006287, 0.046587757766246796, -0.006688286550343037, -0.04519212245941162, -0.09957527369260788, -0.06150847300887108, -0.05339101329445839, -0.03887438401579857, 0.01886352337896824, 0.010192128829658031, 0.00037286654696799815, 0.001010976149700582, 0.029550446197390556, -0.03935300186276436, -0.0989568680524826, -0.015062539838254452, -0.06791208684444427, -0.04969550296664238, 0.10445721447467804, -0.02755945548415184, -0.04928358644247055, -0.04548244550824165, -0.048375509679317474, -0.010650068521499634, -0.0371941477060318, -0.0007873494760133326, 0.02908390201628208, 0.06576570123434067, -0.07052826136350632, -0.037923019379377365, 0.07461350411176682, 0.013821398839354515, 0.003088621189817786, -0.10603790730237961, 0.010008566081523895, 0.06732861697673798, -0.04143502190709114, -0.09279721230268478, -0.09274627268314362, 0.013874605298042297, -0.024404549971222878, 0.032436758279800415, 0.015345092862844467, 0.03892204537987709, 0.02581808716058731, -0.05201401934027672, -0.11788557469844818, -0.00921444408595562, -0.01942622847855091, -0.0005287692183628678, -0.04480385780334473, -0.001992520410567522], [0.07323651760816574, 0.03237174451351166, -0.05787336081266403, -0.07037460058927536, -0.0792156383395195, 0.06296473741531372, -0.015600848011672497, 0.003950024489313364, 0.11713311821222305, 0.10151591897010803, 0.06070754677057266, -0.11088693141937256, -0.03820020705461502, -0.02748643048107624, 0.025477798655629158, 0.026246482506394386, -0.012299726717174053, 0.050384700298309326, 0.04058089107275009, -0.03175344318151474, 0.04701795056462288, -0.07490652799606323, -0.046022411435842514, 0.0143971536308527, -0.020655997097492218, 0.03322208300232887, 0.06225091964006424, 0.024433227255940437, -0.09851821511983871, 0.09416535496711731, -0.004997518844902515, -0.007640979252755642, -0.0008905876311473548, 0.060860902070999146, -0.07460502535104752, -0.0030637492891401052, -0.10720109939575195, 0.014267177321016788, 0.09054020792245865, -0.07380399107933044, 0.07391566783189774, -0.011831243522465229, 0.00034343148581683636, -0.10189597308635712, 0.06579821556806564, 0.06901758164167404, -0.06465952098369598, 0.02169772982597351, 0.04368414357304573, -0.00217776233330369, 0.07506745308637619, 0.045266855508089066, -0.08856668323278427, 0.09072457253932953, 0.034786906093358994, -0.07493200898170471, 0.06924443691968918, 0.06356041878461838, 0.09860900789499283, 0.02395281195640564, -0.01363803818821907, -0.04283306747674942, 0.024200865998864174, 0.02834770828485489], [0.03733639419078827, 0.018416984006762505, -0.006022984161973, 0.04636954888701439, -0.06622584909200668, 0.03253870829939842, -0.005502073559910059, -0.048337191343307495, -0.023824339732527733, -0.0053055621683597565, 0.05624089762568474, -0.0090654157102108, 0.02160295471549034, -0.0634145513176918, -0.01966402679681778, -0.007940352894365788, -0.03511204570531845, -0.0026292994152754545, 0.10003845393657684, -0.028892546892166138, 0.039736613631248474, -0.003518440527841449, -0.09791523963212967, 0.08297837525606155, -0.03135386481881142, 0.004925344604998827, 0.047275371849536896, 0.020995356142520905, -0.028512587770819664, -0.02105616219341755, 0.006370811723172665, -0.042437609285116196, 0.014591872692108154, -0.11411800235509872, -0.05108543112874031, -0.04001342132687569, -0.0011541683925315738, 0.044932786375284195, -0.05910392850637436, -0.07927403599023819, 0.03286794200539589, -0.03044438548386097, -0.0603422112762928, -0.008921246975660324, 0.047945287078619, 0.009290536865592003, 0.060784585773944855, 0.09235017746686935, -0.09213459491729736, -0.049096573144197464, 0.02402312308549881, -0.05282241851091385, -0.04650742560625076, 0.014844915829598904, 0.0243945624679327, -0.012979164719581604, 0.00650635315105319, 0.014935689978301525, 0.014196917414665222, -0.03358311206102371, -0.023756099864840508, 0.09121005982160568, 0.012517082504928112, 0.08635962754487991], [-0.06537316739559174, -0.02129548229277134, -0.03147169202566147, 0.00936091411858797, -0.06184208765625954, 0.11824361234903336, -0.03562558442354202, 0.030300527811050415, 0.05111746862530708, -0.03837838023900986, -0.0640450119972229, -0.06952054053544998, 0.045492418110370636, -0.0038078671786934137, 0.012787900865077972, -0.032956238836050034, 0.027835339307785034, 0.0006460844306275249, 0.0016473305877298117, -0.057052724063396454, 0.09229806810617447, -0.09832443296909332, 0.024093538522720337, 0.04966462403535843, -0.050376757979393005, 0.02811606414616108, 0.06397918611764908, 0.01834654062986374, -0.06632409989833832, 0.046363815665245056, -0.028942745178937912, 0.0006298522930592299, -0.001374059822410345, -0.0008247313089668751, -0.08545476198196411, 0.06173100695014, -0.08927904814481735, 0.06325911730527878, 0.06524060666561127, 0.005885982885956764, -0.029758520424365997, 0.08821101486682892, -0.045404233038425446, -0.06544330716133118, 0.11020299792289734, 0.05710829794406891, 0.11940637230873108, -0.0890757143497467, 0.012136606499552727, -0.037080395966768265, 0.11510557681322098, -0.024344418197870255, -0.05354244261980057, 0.06684719026088715, 0.03862680867314339, -0.018229717388749123, 0.07080066949129105, -0.02442992851138115, -0.011203553527593613, -0.021400924772024155, 0.01810501702129841, -0.01792743057012558, 0.0749979317188263, -0.09470701962709427], [0.0545780174434185, -0.04465186595916748, 0.04227516055107117, 0.015009959228336811, -0.06885059922933578, -0.00648133922368288, 0.0025334027595818043, 0.008518432267010212, -0.07107990235090256, -0.005381433293223381, 0.0012442403240129352, 0.0828307718038559, -0.06066285818815231, 0.032014816999435425, -0.005312909372150898, 0.053688593208789825, -0.041995495557785034, 0.04294335097074509, 0.03689449280500412, 0.0313914455473423, 0.013540606014430523, 0.04597986489534378, 0.018246645107865334, 0.0914280042052269, 0.06038476899266243, 0.01548449881374836, -0.02522476203739643, 0.06875360012054443, -0.06674980372190475, -0.03708140552043915, 0.037836309522390366, 0.12578749656677246, -0.06570180505514145, -6.272125756368041e-05, -0.043186452239751816, 0.02503296546638012, -0.04664583504199982, -0.05620865151286125, -0.08286600559949875, -0.03670252114534378, 0.06881152838468552, -0.048441678285598755, 0.03898679465055466, 0.002094804309308529, -0.05902612954378128, 0.101617731153965, 0.03672521933913231, 0.032458700239658356, -0.07322569191455841, -0.08380196243524551, -0.035454150289297104, -0.052754200994968414, -0.01861392706632614, -0.11704135686159134, 0.04582768306136131, -0.043505337089300156, -0.007724960334599018, 0.054158613085746765, 0.07854363322257996, -0.10728780925273895, 0.1021793857216835, 0.07694485038518906, -0.0678853839635849, 0.04267178848385811], [0.027795568108558655, -0.016763152554631233, 0.006344640161842108, 0.020465411245822906, 0.005786634981632233, -0.10727550089359283, -0.03107685036957264, -0.1031133383512497, 0.01725471019744873, -0.10668905079364777, 0.1138422042131424, 0.004791822750121355, -0.005203623790293932, 0.06103285774588585, 0.12640127539634705, -0.0008015567436814308, 0.03582649677991867, -0.005801419261842966, -0.032415617257356644, -0.04591802880167961, -0.10202710330486298, -0.07872156798839569, -0.03418776020407677, -0.05402624234557152, 0.035342954099178314, -0.10096956789493561, -0.08457739651203156, -0.04041818901896477, 0.031000575050711632, -0.0348116010427475, 0.09809248149394989, -0.09808504581451416, 0.055612578988075256, -0.03302041441202164, -0.016054367646574974, -0.060047272592782974, -0.003550144610926509, 0.09430765360593796, -0.04090091213583946, 0.013407459482550621, -0.09377308189868927, -0.10931114852428436, 0.11058750748634338, 0.020436590537428856, 0.011940045282244682, -0.11215785890817642, -0.10555478930473328, 0.05480872839689255, 0.11321813613176346, 0.030936095863580704, 0.03176308423280716, -0.014078994281589985, -0.03615322336554527, 0.0689232274889946, 0.09532980620861053, 0.08178557455539703, 0.022167040035128593, -0.060613613575696945, -0.07382696121931076, 0.09380526095628738, -0.04204127937555313, -0.11509349942207336, -0.0836358368396759, 0.033456798642873764], [-0.03900023549795151, 0.018680673092603683, -0.0599948950111866, 0.011179588735103607, 0.0648764967918396, 0.009878248907625675, -0.10241743177175522, -0.04431348666548729, 0.09058602899312973, -0.04420552775263786, 0.04500625282526016, 0.027294550091028214, 0.02008257620036602, 0.014498366042971611, -0.06413955986499786, 0.04195177182555199, -0.030540375038981438, -0.01462569646537304, -0.007208742201328278, 0.06145172566175461, 0.06461887806653976, 0.0195848997682333, -0.005528402514755726, -0.019396286457777023, -0.021084029227495193, 0.08213773369789124, 0.016706937924027443, 0.06564589589834213, -0.09731316566467285, 0.03604976832866669, -0.07737527042627335, 0.0026522076223045588, 0.03932960331439972, 0.026810280978679657, -0.01960374414920807, -0.0060791149735450745, 0.03313151374459267, -0.003914491273462772, 0.09886080026626587, -0.0076161646284163, 0.05568522587418556, 0.022088952362537384, -0.06724993139505386, 0.06649675220251083, -0.04053366929292679, -0.1029435396194458, 0.07968730479478836, 0.005370897240936756, -0.10412036627531052, 0.045457955449819565, -0.05661185458302498, -0.05651375651359558, -0.03476393222808838, 0.05358796939253807, -0.023648642003536224, -0.09134203940629959, -0.060920197516679764, 0.015247750096023083, -0.03167106211185455, 0.08763714134693146, -0.005927368067204952, -0.018217427656054497, 0.06834214925765991, -0.059155140072107315], [0.07707398384809494, 0.08379138261079788, -0.014732582494616508, 0.02166750282049179, -0.09761110693216324, 0.026522545143961906, -0.008031690493226051, 0.045707788318395615, 0.006365981884300709, 0.02454574964940548, 0.09657035022974014, -0.127140074968338, -0.008055681362748146, 0.040925439447164536, -0.02173374965786934, 0.08377912640571594, 0.07300089299678802, -0.06096626818180084, 0.03987519443035126, -0.03264299035072327, 0.008133000694215298, -0.050571259111166, -0.05264071002602577, -0.007240167818963528, 0.045276936143636703, -0.019706521183252335, 0.04375648871064186, 0.005965647287666798, -0.07602284848690033, -0.07437482476234436, -0.07191688567399979, -0.029710570350289345, 0.046001821756362915, 0.012895268388092518, -0.05493492633104324, 0.0017625761684030294, -0.06393193453550339, 0.005050662439316511, 0.08112833648920059, -0.07243156433105469, -0.00041538255754858255, 0.10881703346967697, -0.04432814568281174, 0.00844481959939003, 0.05010182037949562, 0.06605233252048492, -2.6324967620894313e-05, 0.05572974681854248, 0.036675792187452316, 0.08684317767620087, 0.014851427637040615, 0.003828787012025714, -0.0917554721236229, 0.0169548150151968, -0.11383013427257538, -0.07618448883295059, -0.03579651936888695, 0.111293263733387, -0.032485611736774445, 0.09256091713905334, 0.03724830225110054, 0.09383045881986618, -0.062429849058389664, 0.009968668222427368], [-0.009099144488573074, 0.029667221009731293, 0.07171441614627838, -0.040432415902614594, 0.0648878812789917, 0.018567482009530067, 0.12162798643112183, 0.03734177350997925, -0.08419869840145111, 0.014631656929850578, 0.0008626207709312439, 0.04004949331283569, 0.12161959707736969, 0.08597708493471146, -0.012704985216259956, -0.0255214124917984, -0.0539390854537487, 0.04711354896426201, -0.01623300090432167, -0.02397290989756584, 0.02975771203637123, -0.007867763750255108, -0.029416676610708237, -0.07295781373977661, -0.00697680888697505, -0.02937907911837101, -0.02773934043943882, -0.02798091620206833, 0.0809592455625534, 0.04816313460469246, -0.027036357671022415, -0.06400623917579651, 0.11195331066846848, 0.10661188513040543, 0.06897596269845963, 0.017382105812430382, -0.005405975505709648, -0.010192686691880226, -0.00023287159274332225, 0.0744229182600975, -0.04652762413024902, -0.059989310801029205, -0.0661095604300499, 0.03242092579603195, -0.07044580578804016, -0.01840979792177677, 0.02572474628686905, -0.10309107601642609, 0.02063593827188015, 0.12612693011760712, -0.022227851673960686, -0.0007774857804179192, -0.08482477068901062, 0.013140466064214706, -0.06059924140572548, 0.06210452318191528, 0.039983347058296204, -0.06895104795694351, 0.03974448889493942, 0.01795816794037819, -0.053173791617155075, 0.014994225464761257, -0.09412481635808945, 0.09210561215877533], [-0.021372489631175995, 0.020650580525398254, 0.03725438192486763, -0.06841486692428589, -0.014037692919373512, -0.06058423966169357, -0.05546192452311516, -0.049550775438547134, 0.038900863379240036, -0.01209599245339632, -0.005087227560579777, 0.052226193249225616, 0.021865438669919968, 0.0051429420709609985, 0.013530193828046322, 0.019580457359552383, -0.021334055811166763, 0.023083960637450218, 0.013385451398789883, -0.08236774057149887, -0.03331983461976051, -0.03278530761599541, -0.046118222177028656, -0.05457213148474693, -0.010972883552312851, -0.00269808666780591, -0.018053459003567696, 0.02608836069703102, -0.012161307036876678, -0.06434154510498047, -0.055759917944669724, -0.013589178211987019, 0.008000385947525501, -0.06187322363257408, 0.03397116810083389, -0.05173109844326973, 0.05375242605805397, 0.056139931082725525, 0.041583526879549026, 0.09860784560441971, -0.023655833676457405, 0.01594056375324726, 0.022426379844546318, -0.052786409854888916, 0.032630037516355515, -0.07304710149765015, -0.036089807748794556, 0.10961183905601501, 0.07003238052129745, 0.010742109268903732, 0.024299653246998787, -0.013358328491449356, -0.0406334213912487, -0.03211067616939545, 0.036466751247644424, -0.012133724056184292, -0.038245514035224915, 0.0814955085515976, -0.02484157495200634, 0.02357497252523899, -0.04196511581540108, -0.05439392849802971, 0.047603677958250046, -0.07234180718660355], [-0.016494883224368095, -0.030955549329519272, 0.021786078810691833, 0.035173431038856506, -0.006177968345582485, 0.03691219538450241, 0.07593119889497757, -0.025056807324290276, -0.10957401990890503, 0.008369018323719501, -0.03642518073320389, 0.10511449724435806, 0.0840652659535408, -0.12941192090511322, 0.05348893627524376, -0.009159757755696774, -0.04440118372440338, -0.047342702746391296, 0.017842551693320274, -0.038012295961380005, 0.022561782971024513, 0.023088473826646805, -0.007967410609126091, 0.0231445524841547, -0.02149331010878086, -0.027562955394387245, -0.04650255665183067, 0.049966130405664444, 